{"net.0.weight": [[-0.03279432654380798, 0.07578505575656891, 0.022422747686505318, -0.12247005850076675, 0.10663394629955292, -0.11073210090398788, 0.007562440354377031, 0.0037036684807389975, 0.07708237320184708, 0.03864242136478424, 0.08766993135213852, -0.060723982751369476, -0.11144620180130005, 0.001911837956868112, -0.10165101289749146, -0.03642823174595833, -0.062423281371593475, -0.04469181224703789, -0.002849600510671735, -0.041526444256305695, 0.07733062654733658, -0.036660876125097275, -0.002107761800289154, 0.003143282374367118, -0.04103340208530426, 0.1318822205066681, -0.03585239499807358, 0.07171054929494858, 0.04029501602053642, 0.1297215223312378, -0.030645271763205528, 0.06558559834957123, 0.02108955569565296, 0.09938067942857742, -0.05428708344697952, 0.044784534722566605, -0.028627822175621986, -0.10309284180402756, -0.030186865478754044, 0.1259831339120865, 0.07607543468475342, -0.049928195774555206, -0.10758986324071884, 0.06689915806055069, 0.047969456762075424, -0.1221647635102272, -0.07153714448213577, 0.08424488455057144, -0.11172861605882645, 0.05602230131626129, -0.11037664115428925, 0.007681170478463173, 0.07278166711330414, -0.040801357477903366, 0.11530019342899323, 0.11526171863079071, -0.008259433321654797, -0.14904919266700745, -0.001263015903532505, -0.1526459902524948], [0.09145931899547577, -0.11290308833122253, 0.03878634050488472, 0.09734856337308884, 0.055626802146434784, -0.029358139261603355, 0.11345205456018448, -0.11113786697387695, -0.03815460950136185, 0.049145929515361786, -0.0774063989520073, -0.05172247067093849, -0.016084278002381325, -0.026041673496365547, 0.08354999870061874, 0.11995340883731842, -0.01822604238986969, -0.05293988063931465, 0.027542727068066597, 0.07924807816743851, 0.06637803465127945, 0.03794889897108078, 0.10810781270265579, -0.08939559012651443, -0.013505346141755581, -0.10732065886259079, 0.11578768491744995, -0.10266730189323425, 0.008162762969732285, -0.011342008598148823, 0.09502066671848297, 0.09351249784231186, 0.10313715785741806, 0.0787946879863739, -0.07913950085639954, -0.07665542513132095, -0.07605906575918198, 0.031619612127542496, 0.004363320767879486, 0.0311887264251709, 0.05563986673951149, 0.02682487852871418, -0.10744968056678772, -0.12241034209728241, 0.05073913559317589, 0.0056786625646054745, 0.07219114899635315, 0.033952999860048294, -0.043396931141614914, 0.0934830978512764, 0.07764729857444763, -0.11125925928354263, 0.03640708327293396, -0.025161616504192352, 0.09756066650152206, -0.06019015610218048, -0.08785765618085861, 0.06801657378673553, 0.00699843093752861, 0.05567222461104393], [0.08830319344997406, -0.009415440261363983, 0.07013603299856186, -0.08453325182199478, 0.0726940855383873, -0.016167698428034782, -0.010715440846979618, 0.026333611458539963, -0.0506339929997921, -0.027676211670041084, -0.07142080366611481, 0.0865684226155281, -0.09407050907611847, 0.043545596301555634, 0.08468575030565262, 0.09699174016714096, 0.008847231045365334, -0.11282050609588623, -0.03822074085474014, 0.07675054669380188, -0.004054408986121416, -0.052495624870061874, 0.12635129690170288, 0.01735326088964939, 0.04880182817578316, -0.06446272134780884, 0.057173289358615875, -0.10643979907035828, -0.1001192033290863, -0.09139331430196762, 0.019694551825523376, -0.04681067913770676, -0.1205236166715622, 0.030575189739465714, 0.04497694596648216, 0.03277018293738365, 0.015877069905400276, -0.12964169681072235, 0.05535384267568588, -0.05227117985486984, 0.11839943379163742, 0.040465593338012695, 0.06794997304677963, 0.06759381294250488, -0.12039260566234589, -0.042563315480947495, -0.062017519026994705, -0.08182132244110107, -0.06989656388759613, 0.019643446430563927, 0.013325411826372147, 0.11975491791963577, -0.06236004829406738, 0.036400046199560165, -0.08056314289569855, -0.08785951882600784, 0.011878540739417076, 0.036230336874723434, 0.08019983023405075, 0.11707022041082382], [0.02371826395392418, -0.1386508196592331, 0.08158233761787415, -0.06738366931676865, -0.07671143859624863, -0.028353692963719368, -0.01863240636885166, 0.10237996280193329, -0.09295345842838287, 0.0708627998828888, -0.039713069796562195, 0.07153520733118057, 0.023025348782539368, -0.007758334744721651, 0.06270097196102142, -0.044749148190021515, 0.05203130841255188, 0.09472999721765518, -0.08671924471855164, 0.09581077098846436, 0.08879361301660538, -0.008124541491270065, 0.05257222056388855, -0.06263524293899536, -0.11078742891550064, -0.007597689051181078, -0.058194827288389206, 0.039335474371910095, -0.06340765953063965, -0.06641056388616562, 0.08763100951910019, -0.002922497224062681, -0.0194570180028677, -0.1023765578866005, -0.03057599812746048, -0.017153799533843994, -0.058548253029584885, -0.11547756940126419, -0.02499842643737793, 0.022791381925344467, 0.0629141628742218, 0.051807716488838196, 0.030877424404025078, 0.057737138122320175, 0.054805170744657516, 0.07089174538850784, -0.01743391714990139, -0.12370172142982483, 0.05239587649703026, 0.08375469595193863, -0.08025731891393661, -0.09751927852630615, -0.0941883996129036, -0.13220666348934174, 0.004670050460845232, 0.07661297917366028, 0.11084870249032974, 0.09164874255657196, 0.14223437011241913, -0.010441682301461697], [-0.08995438367128372, -0.11216304451227188, 0.10894148051738739, -0.11593346297740936, 0.08936081826686859, -0.08541933447122574, -0.12481746077537537, 0.11896847188472748, 0.05542025342583656, -0.04962638020515442, -0.10960852354764938, 0.0065047359094023705, -0.08932066708803177, 0.019031651318073273, -0.027101382613182068, -0.08142483234405518, 0.026172468438744545, -0.008931944146752357, -0.06499946117401123, -0.07916148751974106, -0.07199050486087799, 0.039034828543663025, -0.045596107840538025, 0.02766020968556404, -0.08602909743785858, 0.04960538446903229, -0.08846404403448105, 0.097567118704319, -0.011433921754360199, -0.07152488082647324, 0.0873255804181099, -0.05679124966263771, -0.08707164973020554, 0.11465795338153839, 0.05107714980840683, -0.007414280902594328, 0.11910898238420486, 0.085702084004879, 0.10041649639606476, -0.03929927200078964, 0.11256814002990723, 0.08757060766220093, 0.008986576460301876, -0.02515370026230812, 0.020891938358545303, 0.07598748058080673, 0.028352176770567894, 0.044851336628198624, 0.08489178121089935, -0.07441926002502441, -0.06914640218019485, 0.0408749021589756, 0.09881424903869629, -0.07814113795757294, 0.001283202669583261, 0.045600906014442444, -0.05712328851222992, -0.0776241272687912, 0.0467979833483696, 0.057698991149663925], [0.10678239166736603, -0.03941328823566437, 0.11131438612937927, 0.10094460099935532, 0.04278522729873657, -0.03692569583654404, -0.09136597812175751, 0.03340177610516548, -0.020954987034201622, 0.06559496372938156, 0.02913358062505722, -0.04140109568834305, -0.05702805891633034, -0.08708571642637253, 0.07730914652347565, 0.06581569463014603, -0.015866201370954514, -7.8411161666736e-05, -0.03244577720761299, -0.06615272909402847, 0.0946870893239975, 0.048973992466926575, -0.03169233724474907, -0.027583900839090347, 0.10640156269073486, 0.12630337476730347, -0.06787664443254471, -0.0805153101682663, 0.054829925298690796, -0.008571270853281021, 0.10838104784488678, 0.09220566600561142, 0.05045543611049652, 0.02396283484995365, -0.03891599178314209, 0.10455381870269775, 0.11973290145397186, 0.08681982755661011, 0.04932152107357979, -0.02869652397930622, -0.04478688910603523, 0.0006694613257423043, 0.0011862233513966203, -0.02082527056336403, 0.014466801658272743, 0.11750392615795135, -0.0011519533582031727, -0.03753688931465149, 0.08510128408670425, 0.07401420921087265, 0.08985840529203415, 0.08629153668880463, 0.07681187987327576, 0.02011132799088955, -0.07079721242189407, -0.10222997516393661, 0.09144796431064606, 0.05059676617383957, -0.09275900572538376, 0.004624548833817244], [-0.10511928051710129, 0.014944726601243019, -0.08296910673379898, 0.008448272943496704, 0.05178656429052353, 0.10037526488304138, -0.11290717869997025, 0.1087857261300087, -0.11816960573196411, 0.030032360926270485, -0.11751552671194077, 0.09607142955064774, 0.02872927114367485, -0.12582677602767944, -0.07235424220561981, 0.016204852610826492, 0.1122804805636406, -0.009867492131888866, -0.018437422811985016, -0.09060199558734894, -0.06789692491292953, 0.022108571603894234, -0.0036985056940466166, 0.06505922973155975, -0.044240422546863556, -0.11658038198947906, 0.01987937092781067, -0.0923764631152153, -0.11019671708345413, -0.007672332227230072, -0.05696709454059601, -0.10873283445835114, -0.08273535221815109, -0.05010619014501572, -0.02855607494711876, 0.02229953184723854, -0.09720215201377869, -0.06793861091136932, -0.04224524274468422, 0.06346529722213745, -0.019539810717105865, -0.05510330572724342, -0.060220520943403244, 0.05533618852496147, -0.023494470864534378, 0.05796432867646217, -0.004252322018146515, -0.06807888299226761, -0.038782451301813126, -0.009949661791324615, 0.1228049248456955, 0.012555507011711597, 0.005076592322438955, 0.10543060302734375, -0.08385534584522247, 0.12314203381538391, 0.0003761533589567989, -0.03279998153448105, 0.06913439184427261, -0.021151913329958916], [-0.11279959231615067, -0.028905387967824936, 0.10983027517795563, 0.08908546715974808, 0.09270355105400085, 0.03420378267765045, 0.10366284102201462, 0.07894499599933624, -0.009849399328231812, -0.12999673187732697, -0.12137898802757263, -0.07667692005634308, -0.000555287697352469, 0.057542070746421814, -0.053306590765714645, -0.07260610908269882, 0.010326623916625977, -0.13134005665779114, -0.1097419410943985, -0.04744560271501541, 0.037575963884592056, 0.0038148807361721992, -0.10087372362613678, 0.02987406589090824, -0.050731439143419266, -0.0014197458513081074, 0.024622507393360138, 0.061930153518915176, 0.07047822326421738, 0.0083150714635849, 0.032328471541404724, -0.00963048730045557, 0.09993178397417068, -0.002844182075932622, -0.12534178793430328, 0.08962702751159668, 0.03256005793809891, 0.03551388531923294, 0.06401357054710388, -0.08599015325307846, -0.06047544255852699, -0.0855865627527237, -0.061493564397096634, -0.06957554072141647, -0.0004311469092499465, 0.004546549636870623, -0.09163530170917511, -0.03312157467007637, -0.046365320682525635, 0.006282852031290531, 0.12094489485025406, -0.10607998073101044, -0.1170613020658493, 0.10054004937410355, 0.05734865739941597, 0.08915108442306519, 0.038195375353097916, 0.13232989609241486, 0.16673129796981812, 0.07188764959573746], [0.10312864184379578, 0.014882304705679417, -0.022466370835900307, -0.08094344288110733, -0.06314828991889954, 0.12012019753456116, 0.021316329017281532, -0.06665903329849243, 0.06661494076251984, 0.10715042054653168, 0.1227772980928421, -0.04693600535392761, -0.10916260629892349, 0.07530465722084045, 0.05869253724813461, 0.037047598510980606, -0.07642242312431335, -0.09669781476259232, 0.11969626694917679, -0.06735023856163025, 0.13038703799247742, 0.07968707382678986, 0.017104731872677803, -0.030293112620711327, 0.12581130862236023, 0.0026259957812726498, -0.06681736558675766, 0.0007679731352254748, -0.09857721626758575, -0.007231943309307098, 0.0008730804547667503, -0.09323084354400635, 0.11897781491279602, 0.13485975563526154, -0.11430656164884567, -0.04061293229460716, 0.05723264440894127, 0.025606168434023857, 0.12639059126377106, -0.01672709360718727, 0.12370124459266663, -0.03105086088180542, 0.008212076500058174, -0.01143225934356451, -0.07202790677547455, 0.07610008120536804, 0.02631152607500553, -0.06213334575295448, -0.0705285370349884, -0.026030082255601883, -0.11111786216497421, -0.0720001608133316, -0.026103457435965538, -0.08014186471700668, 0.11131568998098373, -0.07649325579404831, -0.027340060099959373, 0.1289052665233612, 0.11815257370471954, 0.025241296738386154], [-0.10059026628732681, -0.0006148280808702111, 0.09045043587684631, -0.05389784276485443, -0.09725669771432877, 0.12520724534988403, 0.08914457261562347, -0.05775035545229912, -0.029025522992014885, 0.09979433566331863, -0.08592353761196136, -0.11266709119081497, 0.0020771941635757685, -0.007067956030368805, 0.09402129799127579, -0.06849484890699387, 0.11705964058637619, -0.054448407143354416, -0.09245894849300385, -0.08189123123884201, 0.06633482128381729, -0.03528868407011032, 0.08297806978225708, 0.10667792707681656, 0.11261755228042603, -0.02803019993007183, -0.017841778695583344, -0.07441945374011993, -0.08100467920303345, -0.00170239363797009, -0.08156537264585495, 0.1190992072224617, 0.05647409334778786, -0.018995771184563637, -0.0889071449637413, -0.07189278304576874, 0.07989588379859924, 0.11941739916801453, 0.04164426773786545, 0.07614357769489288, -0.0027574319392442703, -0.03125227987766266, -0.09119546413421631, 0.0025659240782260895, 0.013093757443130016, -0.023769307881593704, -0.04241451248526573, 0.08158345520496368, -0.11744769662618637, -0.006462324410676956, -0.09699337184429169, 0.0758630633354187, -0.0482473187148571, 0.08529689908027649, 0.10695341974496841, 0.10134065896272659, 0.030917098745703697, 0.022633397951722145, -0.028959175571799278, -0.018967926502227783], [0.04214315488934517, 0.1189768984913826, -0.06429554522037506, -0.05866739898920059, 0.019042547792196274, -0.08963297307491302, 0.12287681549787521, -0.12562645971775055, 0.06745031476020813, -0.10715033113956451, 0.07578452676534653, -0.10576143860816956, 0.006915109232068062, 0.026728877797722816, -0.07896026223897934, -0.10422603040933609, -0.11348617076873779, 0.12018807977437973, -0.10479900240898132, -0.07350615411996841, -0.05157499015331268, 0.0812796801328659, -0.0002377069613430649, -0.12002886086702347, 0.02132948487997055, -0.02159637026488781, -0.04354916512966156, 0.07112365961074829, 0.06332151591777802, 0.0794333890080452, -0.099479541182518, 0.09431968629360199, -0.11962248384952545, 0.058784693479537964, 0.09924209862947464, -0.060312092304229736, -0.0913335308432579, -0.12012811005115509, -0.030546290799975395, -0.07593896985054016, -0.02071530371904373, -0.06905929744243622, -0.000806015741545707, 0.015363660641014576, -0.07951009273529053, -0.03408808633685112, 0.08076625317335129, -0.03546120971441269, -0.09051062911748886, -0.01668519526720047, 0.06336643546819687, 0.0251101553440094, -0.012479385361075401, -0.08294744789600372, 0.06347716599702835, -0.1356481909751892, -0.10181379318237305, -0.11340654641389847, 0.07705729454755783, -0.09579796344041824], [0.04127584770321846, 0.09800616651773453, -0.08450363576412201, 0.09468062967061996, -0.04929352179169655, 0.039192646741867065, 0.06043350696563721, -0.0929625928401947, -0.07045946270227432, 0.08730548620223999, 0.06317725032567978, 0.001504204818047583, 0.03236791864037514, -0.06267233192920685, 0.10177528858184814, -0.0865824893116951, 0.11634323000907898, 0.000137894821818918, -0.031893666833639145, -0.09518862515687943, 0.019651828333735466, 0.10500066727399826, 0.03292980045080185, 0.06366906315088272, 0.10068628191947937, -0.004229196347296238, -0.008810018189251423, 0.0436001792550087, 0.11794915795326233, -0.06237056478857994, -0.024987196549773216, 0.09977879375219345, -0.03499319404363632, -0.11207926273345947, -0.03283459320664406, -0.11392359435558319, 0.06794611364603043, 0.10237324982881546, -0.0714816302061081, 0.1166364848613739, -0.0370367169380188, -0.02914820797741413, 0.07438527792692184, 0.03705669939517975, -0.06919209659099579, 0.07811776548624039, -0.024438338354229927, -0.07588496059179306, 0.07731066644191742, -0.04199900105595589, 0.06250248104333878, 0.11101935058832169, -0.10086316615343094, -0.1358739286661148, 0.0934966653585434, 0.05462091416120529, -0.03357778489589691, -0.1048237681388855, -0.024588920176029205, 0.03493758291006088], [0.1335909515619278, 0.051793698221445084, -0.11050571501255035, 0.0889868438243866, -0.09673205763101578, -0.0454590879380703, 0.13649237155914307, 0.04377437382936478, -0.04120347648859024, -0.00768014881759882, -0.06512202322483063, -0.016985803842544556, -0.0003448401694186032, 0.04550929367542267, 0.08638272434473038, 0.011596749536693096, -0.07058931887149811, 0.09982581436634064, -0.10756423324346542, 0.01711406372487545, -0.09868527948856354, -0.026729514822363853, 0.014739908277988434, 0.11836821585893631, -0.1013360247015953, 0.005555473733693361, 0.13798294961452484, 0.13864795863628387, 0.06407900154590607, 0.03550882264971733, -0.08775509148836136, 0.03965220972895622, -0.05421971157193184, -0.10202600061893463, -0.08724692463874817, 0.1384158730506897, 0.08107274025678635, 0.040839459747076035, 0.10109937191009521, -0.07637928426265717, 0.09149041026830673, -0.07556050270795822, 0.12560589611530304, -0.10268350690603256, 0.12083496898412704, 0.035511564463377, 0.01944783702492714, 0.09400177747011185, -0.05045658349990845, -0.11670533567667007, 0.10376263409852982, -0.09914135932922363, -0.051015857607126236, -0.05410066619515419, -0.10528276115655899, 0.08230336755514145, -0.04121960327029228, 0.10075671225786209, 0.014148369431495667, 0.005128949414938688], [-0.07852116227149963, 0.12431390583515167, 0.023482128977775574, -0.08752823621034622, -0.0667724534869194, -0.028701888397336006, -0.046656541526317596, -0.017326466739177704, 0.05340542644262314, 0.10748820751905441, -0.06296946108341217, -0.09475868940353394, -0.03823685646057129, 0.041145455092191696, 0.04976337403059006, 0.02914322540163994, 0.12787310779094696, -0.042791951447725296, 0.08298145979642868, -0.03384125605225563, -0.05425895005464554, 0.0733441486954689, 0.015452737919986248, 0.04175037890672684, -0.08360902220010757, 0.13385890424251556, 0.04200028255581856, 0.02371358312666416, 0.06999245285987854, 0.06340384483337402, -0.07550258934497833, 0.038742225617170334, 0.0045211901888251305, 0.017180776223540306, 0.0719459280371666, -0.09309615939855576, -0.024158794432878494, 0.03094419464468956, -0.06278358399868011, -0.060686178505420685, 0.024852169677615166, 0.0362495481967926, 0.09788058698177338, 0.10739224404096603, 0.11471427977085114, 0.10190889984369278, -0.06362083554267883, -0.02049635350704193, 0.09989979863166809, -0.06572066992521286, 0.09662633389234543, 0.00875526387244463, 0.022699862718582153, -0.08285705745220184, -0.014351430349051952, -0.06900031864643097, -0.08667180687189102, -0.030019957572221756, -0.10656443983316422, 0.08849702030420303], [0.04129879176616669, 0.12497022747993469, -0.09182821214199066, -0.04515550658106804, -0.05815098062157631, -0.03784790635108948, 0.011669102124869823, 0.037109602242708206, -0.09803976863622665, 0.12444320321083069, -0.02757122926414013, 0.03564386069774628, 0.06352879106998444, 0.06385533511638641, 0.09011151641607285, -0.0888751968741417, -0.08829054981470108, -0.010884891264140606, -0.06143110617995262, 0.1096983402967453, 0.08922906965017319, 0.0728856697678566, -0.05060478672385216, -0.017853423953056335, 0.01789856143295765, 0.07265239208936691, -0.03167830407619476, -0.01579556241631508, 0.08232235908508301, 0.020774012431502342, -0.02569127082824707, -0.02797931246459484, 0.03873252123594284, 0.09008023142814636, 0.013392510823905468, -0.0839199349284172, -0.10111479461193085, 0.11714942008256912, 0.056558381766080856, 0.012870081700384617, 0.11357790976762772, -0.09322288632392883, -0.02612784504890442, 0.03722531348466873, -0.0685967430472374, 0.08667492866516113, -0.11110349744558334, 0.125362366437912, 0.06885986775159836, 0.05505833402276039, 0.09804026037454605, 0.01368221640586853, -0.06024983897805214, -0.024832163006067276, -0.040051285177469254, -0.0012047624913975596, 0.04430598393082619, -0.10337034612894058, -0.005397849250584841, -0.020640745759010315], [0.055641576647758484, 0.0027386087458580732, -0.062348414212465286, 0.05122029408812523, 0.07870354503393173, -0.08143966645002365, 0.08210411667823792, 0.1414496898651123, -0.04399200156331062, 0.10275661200284958, 0.05101405084133148, 0.1068640947341919, 0.11138983070850372, 0.12927433848381042, -0.07213157415390015, 0.07906173169612885, -0.06547866761684418, -0.10315530747175217, -0.11692244559526443, -0.022364012897014618, -0.07275339961051941, -0.11669568717479706, 0.08928842097520828, -0.0834961012005806, -0.05671286955475807, -0.022698648273944855, 0.07766207307577133, 0.07753372192382812, -0.03914063051342964, 0.10791490226984024, 0.05944652482867241, 0.11132477223873138, 0.031327929347753525, 0.0036029089242219925, -0.022808775305747986, -0.10973545908927917, -0.10297148674726486, -0.10465775430202484, -0.10819436609745026, 0.1281377524137497, 0.014607598073780537, -0.0574362650513649, 0.015286535955965519, 0.07131588459014893, 0.10719741135835648, 0.03996795788407326, 0.077876016497612, 0.001182249397970736, -0.07802467793226242, 0.020058324560523033, 0.06265135854482651, 0.04729500040411949, -0.1001385822892189, 0.06720821559429169, 0.0887635201215744, -0.01981099136173725, 0.08486010134220123, -0.12613900005817413, -0.08596830070018768, -0.03122474066913128], [0.083953358232975, -0.10200311988592148, 0.12170036137104034, -0.08469703048467636, 0.08706196397542953, -0.00719250226393342, -0.09550382196903229, 0.03617487847805023, -0.013360700570046902, -0.002746090991422534, 0.048901982605457306, -0.013342637568712234, 0.00013164617121219635, -0.039476796984672546, -0.08855902403593063, -0.12118979543447495, 0.09323299676179886, -0.0791630819439888, -0.044681306928396225, 0.009823579341173172, 0.06197482720017433, 0.07771164178848267, 0.09840503334999084, -0.04984040558338165, 0.07800061255693436, 0.09636378288269043, -0.01815534569323063, 0.11712808907032013, 0.0003501957980915904, -0.04226735234260559, 0.087612085044384, 0.060755129903554916, -0.12061985582113266, 0.10097035765647888, -0.006753347814083099, 0.10286260396242142, -0.06393389403820038, 0.034236419945955276, 0.0985250398516655, -0.0841447114944458, -0.03801700845360756, -0.13414397835731506, -0.01820605807006359, -0.015453728847205639, 0.05372859165072441, -0.0877683013677597, -0.02065485715866089, 0.05632881820201874, 0.07191382348537445, -0.10109169781208038, -0.05395691096782684, 0.03518170863389969, -0.020150620490312576, 0.005836435128003359, 0.07868838310241699, 0.048259180039167404, -0.1492944359779358, -0.021333573386073112, -0.03760991245508194, -0.1215401366353035], [0.029183058068156242, 0.05681305751204491, -0.0007147626020014286, -0.053110357373952866, 0.03658101707696915, 0.03410053253173828, 0.06138269975781441, -0.013148948550224304, -0.10342596471309662, 0.12402870506048203, 0.11177980899810791, -0.01894027180969715, -0.036060452461242676, 0.12510301172733307, -0.04295956715941429, -0.0735468715429306, 0.06631086021661758, -0.03809463232755661, -0.02650013379752636, 0.030528366565704346, -0.11801008880138397, 0.07829532772302628, -0.05632482096552849, -0.08955932408571243, -0.022545458748936653, -0.047046005725860596, -0.025028696283698082, -0.008691230788826942, 0.0651320070028305, 0.02757151611149311, -0.0017575445817783475, -0.05056164041161537, 0.09093838930130005, -0.04059842973947525, -0.1249484270811081, -0.0727371871471405, -0.05189007893204689, -0.00476355804130435, -0.12196895480155945, -0.02953331544995308, -0.09559281915426254, 0.12094149738550186, -0.10660780966281891, 0.0672745555639267, 0.07921703159809113, 0.06317063421010971, -0.10370335727930069, -0.008340002968907356, -0.018845312297344208, -0.05885915085673332, -0.0499645434319973, -0.058155182749032974, -0.023316342383623123, 0.027190230786800385, -0.11901231855154037, -0.06867450475692749, 0.06349238008260727, -0.002345850458368659, -0.135080024600029, 0.03490867838263512], [-0.0067174299620091915, 0.04298846423625946, -0.02290712110698223, -0.07789326459169388, 0.0723729357123375, -0.06444389373064041, -0.09526563435792923, 0.06704233586788177, 0.03405722975730896, -0.04787411540746689, 0.06345827877521515, -0.028121670708060265, -0.028555290773510933, 0.0766991451382637, 0.13324755430221558, 0.05687261372804642, 0.06584807485342026, -0.11299876868724823, 0.11046473681926727, -0.020076831802725792, 0.006191467400640249, 0.11681840568780899, 0.12123572826385498, -0.016149256378412247, 0.1283726841211319, 0.017412982881069183, 0.01648913510143757, 0.04821057617664337, -0.0842013731598854, -0.1143815740942955, -0.052232082933187485, 0.05227279290556908, -0.08651503920555115, 0.09032982587814331, -0.03644098341464996, -0.006183087360113859, -0.015332412905991077, -0.055788155645132065, 0.08105839043855667, -0.04442516714334488, 0.12030879408121109, -0.07753465324640274, 0.011214247904717922, -0.08426222950220108, 0.00575081305578351, 0.0882292166352272, 0.016855088993906975, 0.09573554247617722, 0.005850324872881174, 0.05990137159824371, 0.06397823989391327, 0.10715417563915253, 0.07203422486782074, 0.05715398117899895, -0.11653336137533188, -0.023634208366274834, -0.11687106639146805, -0.11046817153692245, -0.07545355707406998, 0.09475905448198318], [0.021259479224681854, 0.007555125746876001, -0.08608531951904297, -0.07404705882072449, 0.09116500616073608, -0.06787686794996262, 0.03312911093235016, 0.08636404573917389, 0.005038327071815729, -0.12192773073911667, 0.027161777019500732, 0.03587481752038002, 0.12219098955392838, -0.014326211996376514, -0.11994519084692001, 0.10293470323085785, -0.03564098849892616, 0.05455582216382027, -0.056014131754636765, 0.01261243037879467, 0.053751543164253235, -0.06940943747758865, -0.10756707191467285, -0.02956577204167843, 0.05519837513566017, 0.04242072254419327, -0.019725050777196884, 0.12038002908229828, 0.021392861381173134, 0.007146746851503849, 0.008487501181662083, 0.09113046526908875, 0.11045350134372711, -0.06740186363458633, -0.11629953235387802, -0.08487330377101898, -0.11064579337835312, 0.10709474235773087, 0.0896107628941536, -0.02105668932199478, -0.04631038382649422, -0.10628285259008408, -0.11471544206142426, -0.07385852932929993, -0.07908160984516144, 0.052870605140924454, 0.057881467044353485, 0.03087957762181759, 0.11830872297286987, -0.04246723651885986, 0.013757695443928242, -0.1283528208732605, 0.03242139518260956, 0.03800250589847565, 0.06838682293891907, -0.044086527079343796, -0.1127648800611496, 0.08961733430624008, -0.08741278201341629, -0.0724574625492096], [-0.049724165350198746, 0.017929552122950554, 0.04821426048874855, 0.11470212042331696, 0.07294274121522903, -0.08640915900468826, 0.02573203667998314, -0.13355132937431335, 0.003849815344437957, 0.01768561825156212, -0.06174236163496971, 0.010904795490205288, 0.0336250476539135, -0.029369954019784927, 0.0637098029255867, 0.02485262230038643, 0.020306311547756195, -0.011575344018638134, -0.014357037842273712, -0.12687060236930847, 0.030790509656071663, -0.05824749544262886, -0.034153588116168976, 0.09628095477819443, -0.11754123121500015, 0.008573485538363457, 0.009083539247512817, 0.09894416481256485, 0.023769810795783997, -0.025487210601568222, -0.1247553601861, -0.0795382484793663, 0.06372522562742233, -0.08169019967317581, -0.09541870653629303, 0.027290767058730125, -0.08829542249441147, -0.012336065992712975, -0.03852657973766327, 0.10448461771011353, -0.04329785332083702, 0.0836963802576065, 0.057966895401477814, 0.051334500312805176, -0.025577662512660027, -0.00690119806677103, -0.06842301785945892, -0.07560806721448898, 0.08430559188127518, -0.07841908931732178, -0.07518304884433746, -0.0007994475890882313, 0.004518650937825441, 0.03814661130309105, -0.043003618717193604, -0.07246445119380951, 0.024506235495209694, 0.13956230878829956, -0.09059872478246689, 0.14940202236175537], [0.027075963094830513, 0.015675604343414307, -0.07382261753082275, 0.009647638536989689, -0.018078377470374107, -0.06508205831050873, 0.026584962382912636, -0.07955954223871231, 0.08540531992912292, 0.0855925902724266, -0.06092454493045807, 0.006247618235647678, -0.03434167802333832, 0.11732074618339539, 0.018537964671850204, -0.038054533302783966, 0.05528826639056206, -0.034594740718603134, 0.02351955696940422, 0.1176406741142273, -0.11847490817308426, 0.1279086470603943, 0.0766393169760704, -0.04566846787929535, -0.007380141410976648, 0.037831611931324005, -0.10699309408664703, 0.07622380554676056, -0.0768214538693428, 0.040924835950136185, -0.06099206209182739, 0.0837685838341713, -0.008474765345454216, -0.01674075983464718, -0.07252465933561325, -0.027425937354564667, 0.1272367686033249, -0.02490176446735859, -0.005586135201156139, -0.10002543777227402, -0.07090182602405548, -0.008722889237105846, 0.11217067390680313, -0.1202731803059578, -0.09544326364994049, -0.06015042960643768, -0.03376030921936035, 0.10245919972658157, -0.08316174894571304, -0.08108043670654297, 0.010555888526141644, -0.03266165778040886, 0.10217870026826859, -0.04450961574912071, -0.06154215708374977, -0.051731646060943604, -0.1325814574956894, -9.597001189831644e-05, 0.07335323840379715, 0.08445820957422256], [-0.09889921545982361, 0.021315835416316986, -0.020517313852906227, -0.07043332606554031, 0.0017051213653758168, 0.021572664380073547, 0.07441634684801102, 0.05915563181042671, -0.0023759370669722557, -0.08024637401103973, 0.07469043880701065, -0.082850880920887, -0.012567104771733284, -0.09592116624116898, -0.012368123978376389, 0.003512370167300105, -0.049964528530836105, 0.09949653595685959, 0.018311545252799988, -0.10591458529233932, 0.05664653331041336, 0.01145151350647211, -0.07267292588949203, 0.015934377908706665, -0.0900367945432663, -0.03726013004779816, -0.04767066612839699, 0.09536384046077728, 0.039984941482543945, 0.08658399432897568, -0.04407624155282974, -0.046892885118722916, -0.0727282166481018, -0.014725109562277794, 0.0713135376572609, -0.04348057508468628, 0.03230747580528259, -0.11893851310014725, -0.017939675599336624, -0.040898218750953674, 0.11327338218688965, 0.04594166576862335, -0.11556382477283478, -0.07198970764875412, 0.11438999325037003, 0.07838604599237442, 0.03671699017286301, -0.051916372030973434, -0.12152347713708878, -0.045934390276670456, 0.11621465533971786, -0.09534046053886414, -0.061891112476587296, 0.10913396626710892, 0.11058077216148376, -0.12255075573921204, 0.010808802209794521, -0.01351472083479166, 0.11191046237945557, -0.12286605685949326], [0.06211784482002258, -0.011347044259309769, 0.063985675573349, 0.006019196473062038, 0.08889196813106537, -0.030779894441366196, -0.06858883053064346, 0.09754933416843414, 0.12443564087152481, -0.12682586908340454, -0.10779280215501785, -0.07492571324110031, -0.0853029265999794, -0.037955883890390396, 0.11946552246809006, -0.0715794637799263, 0.03131925314664841, 0.03467153385281563, -0.020703397691249847, 0.053366608917713165, -0.12837907671928406, -0.050244878977537155, 0.010954460129141808, 0.05869842320680618, 0.05051828548312187, -0.05168605223298073, -0.07838759571313858, 0.11613782495260239, 0.022329282015562057, 0.03688656911253929, 0.06036447361111641, 0.012187744490802288, 0.08470799773931503, -0.0890117883682251, -0.051851239055395126, -0.11752251535654068, 0.008774923160672188, 0.08391550928354263, 0.06118825078010559, -0.02706487663090229, 0.12100324034690857, 0.04954180866479874, -0.12672914564609528, 0.11428862065076828, -0.05083359405398369, -0.049189385026693344, 0.08839105069637299, -0.00784448254853487, -0.0310103390365839, -0.11138734221458435, 0.06951259076595306, -0.0420868918299675, -0.05901789292693138, 0.009998367168009281, -0.09132486581802368, -0.023481009528040886, -0.036926887929439545, -0.14084868133068085, 0.09193895012140274, -0.08109534531831741], [0.04055437818169594, 0.09222684800624847, 0.10488934814929962, -0.09042784571647644, -0.01963813789188862, -0.03671017289161682, -0.09415699541568756, 0.1034005731344223, -0.07943208515644073, -0.009586062282323837, 0.06255809962749481, 0.10154858231544495, -0.0026606563478708267, 0.051301684230566025, -0.08889930695295334, 0.04214778169989586, -0.060584843158721924, -0.11347754299640656, -0.06575477123260498, -0.09120618551969528, 3.0191622499842197e-05, 0.00680191908031702, 0.036464203149080276, -0.005433409474790096, 0.03238936513662338, -0.015543044544756413, 0.13269416987895966, 0.0635790154337883, -0.058987125754356384, -0.005431880243122578, -0.016275819391012192, -0.06562415510416031, 0.13978275656700134, -0.07423015683889389, 0.13244383037090302, -0.02597031183540821, -0.00601964071393013, -0.060104720294475555, -0.0012783885467797518, 0.11532475054264069, -0.07180007547140121, -0.07971096783876419, -0.11331503838300705, 0.013332287780940533, 0.053119827061891556, 0.05159755051136017, 0.03157421573996544, -0.08323723077774048, -0.08181238919496536, -0.10044799000024796, 0.07869993895292282, 0.016545789316296577, 0.12081583589315414, 0.012391669675707817, -0.07066706568002701, -0.04835100099444389, -0.11379025876522064, -0.13730590045452118, 0.019673729315400124, -0.006881127133965492], [-0.01148437149822712, -0.062180664390325546, -0.11412086337804794, -0.09364190697669983, 0.03124934807419777, 0.01617199182510376, -0.03191765770316124, 0.12919515371322632, 0.07490077614784241, 0.08691409230232239, 0.017880156636238098, 0.046960510313510895, 0.07487252354621887, -0.04372658208012581, 0.10163813829421997, -0.030216453596949577, -0.051832061260938644, -0.023764166980981827, -0.06482473760843277, 0.08033514767885208, -0.03934779390692711, -0.10391400754451752, 0.0937647894024849, 0.0031001309398561716, 0.020302947610616684, -0.003556167474016547, -0.002372763119637966, -0.07457252591848373, -0.10760192573070526, -0.04100983217358589, 0.05413143336772919, 0.1152024120092392, 0.02668057009577751, 0.018682047724723816, 0.12491802871227264, 0.11600453406572342, -0.0028695042710751295, -0.09299297630786896, 0.05051492899656296, 0.12612402439117432, 0.07745028287172318, -0.00025393199757672846, -0.047135233879089355, 0.12757161259651184, 0.03152482584118843, 0.1031465083360672, -0.010541549883782864, 0.1105751171708107, -0.05918559059500694, -0.031974051147699356, 0.07435590773820877, 0.09735480695962906, 0.12398884445428848, 0.12195190042257309, 0.07082846760749817, 0.047523245215415955, 0.04469866305589676, 0.013780505396425724, 0.1061839908361435, 0.07806862145662308], [0.11239282041788101, 0.09412731975317001, 0.12237962335348129, -0.08830438554286957, 0.024832747876644135, -0.11352439969778061, 0.12106788158416748, 0.053777631372213364, 0.07942436635494232, 0.09371285885572433, -0.08444926142692566, 0.13433033227920532, -0.10497754067182541, 0.07780858874320984, -0.022965194657444954, 0.13798663020133972, -0.05831016227602959, 0.08893730491399765, -0.04688483104109764, -0.03488016873598099, 0.08815623074769974, 0.114602230489254, 0.0010274051455780864, -0.008339750580489635, 0.04628494754433632, 0.10538731515407562, -0.03762536123394966, 0.0076585193164646626, -0.09293022751808167, -0.026095205917954445, -0.06975614279508591, 0.02923322096467018, -0.09521596878767014, 0.1138136088848114, 0.005458914674818516, 0.13338147103786469, -0.09583984315395355, 0.004130191169679165, 0.055218007415533066, -0.07735989987850189, -0.03438885509967804, -0.011526143178343773, 0.020733295008540154, -0.027485603466629982, -0.05868629738688469, 0.12494730204343796, -0.11415563523769379, -0.0587259978055954, 0.07899677008390427, -0.05777852609753609, 0.036248140037059784, 0.11088203638792038, -0.12018084526062012, -0.06653245538473129, 0.07972630858421326, -0.12459181994199753, -0.08793316781520844, -0.08013930916786194, 0.010833260603249073, 0.023578394204378128], [-0.01337016373872757, 0.0350947268307209, -0.010906348004937172, 0.027551991865038872, -0.051225148141384125, -0.09790129214525223, 0.04843996465206146, 0.12510286271572113, 0.07706286758184433, 0.1247861310839653, -0.03221388906240463, -0.0041070906445384026, 0.01338428445160389, -0.11586329340934753, -0.040940213948488235, -0.08826987445354462, -0.08621208369731903, -0.013925806619226933, 0.04288078099489212, 0.1346324384212494, 0.03638207167387009, 0.006855532992631197, 0.07233641296625137, 0.1155698150396347, -0.07000429928302765, 0.008814155124127865, -0.07122457027435303, 0.09136969596147537, -0.036966197192668915, 0.04151451587677002, -0.005931592080742121, -0.1173681691288948, -0.0943610891699791, 0.11548450589179993, -0.006569744553416967, -0.051023270934820175, 0.11732848733663559, 0.1094086617231369, -0.07208850234746933, -0.10340596735477448, -0.08259089291095734, 0.12625987827777863, 0.03829918056726456, -0.02458140254020691, 0.11419571191072464, 0.036482930183410645, -0.007931775413453579, 0.13269346952438354, 0.06729766726493835, 0.03561984747648239, -0.12363296002149582, 0.044870197772979736, 0.05424818396568298, 0.08799882978200912, -0.009675228968262672, -0.10546707361936569, -0.12361384928226471, -0.12375639379024506, 0.11626353859901428, 0.09745442122220993], [0.022586964070796967, -0.06828317791223526, 0.07277142256498337, -0.1277046948671341, 0.06593000143766403, -0.025543875992298126, 0.077623650431633, 0.11164195835590363, 0.07067649066448212, 0.01410516444593668, 0.053513407707214355, 0.10986752063035965, 0.0162466149777174, 0.11192771792411804, 0.001339301117695868, -0.037915777415037155, -0.12946361303329468, 0.026587288826704025, 0.07006808370351791, 0.07670015841722488, 0.08980149030685425, 0.048613179475069046, -0.09211697429418564, 0.08466458320617676, -0.057423755526542664, -0.011921425350010395, -0.020942917093634605, -0.11835689842700958, 0.09855324774980545, 0.058906685560941696, 0.0938667505979538, -0.047399912029504776, -0.002040580613538623, -0.12038019299507141, 0.024028532207012177, -0.010871963575482368, -0.11867152899503708, -0.011139576323330402, -0.06334346532821655, -0.02841012179851532, -0.09714874625205994, 0.0618680864572525, -0.08043808490037918, -0.1248122900724411, 0.04149634763598442, -0.02556913159787655, -0.029079193249344826, -0.06819415837526321, 0.05914710462093353, -0.018166692927479744, -0.08187724649906158, 0.10863956809043884, -0.10874564200639725, -0.05139283463358879, -0.0513540580868721, 0.008411476388573647, 0.054102230817079544, -0.015597780235111713, 0.13893969357013702, 0.017602965235710144], [-0.06345393508672714, -0.043314214795827866, 0.03401872143149376, -0.12654267251491547, 0.0479736402630806, 0.10327424854040146, -0.10653656721115112, 0.05360562354326248, -0.1400092989206314, -0.05140263959765434, -0.032544270157814026, -0.018358498811721802, 0.10630866885185242, -0.13693778216838837, 0.04498264193534851, 0.09274936467409134, 0.09428583085536957, 0.04157014563679695, -0.10114789009094238, 0.0015368183376267552, 0.11606089770793915, -0.02641500160098076, -0.06728101521730423, 0.0317811518907547, 0.029556719586253166, 0.0986846312880516, 0.0744301825761795, -0.05489039048552513, -0.1300666183233261, 0.05698167905211449, 0.04802175611257553, -0.12716731429100037, -0.062446460127830505, 0.009676684625446796, -0.11314947158098221, 0.03929678723216057, -0.05196120962500572, -0.006832067389041185, -0.01581975445151329, -0.018356231972575188, 0.0500902384519577, 0.038651756942272186, 0.11491496115922928, -0.05135964974761009, 0.049357686191797256, -0.03503973037004471, 0.1070358008146286, 0.085865318775177, -0.05338266119360924, 0.05891438201069832, 0.044291652739048004, 0.037511587142944336, -0.01633772999048233, 0.08669757097959518, 0.11386866122484207, 0.03349487483501434, 0.040613606572151184, -0.02593149058520794, 0.01665830798447132, -0.0889427438378334], [0.06486180424690247, -0.04621521383523941, -0.11553671211004257, 0.056062065064907074, -0.07628653943538666, 0.05012884736061096, -0.05681797116994858, 0.09234197437763214, -0.07760254293680191, -0.05256512761116028, 0.04163496941328049, 0.12088619917631149, -0.12426335364580154, -0.06798751652240753, -0.013986595906317234, 0.09106537699699402, -0.11367350816726685, -0.11669865250587463, -0.0581999272108078, 0.04287566989660263, 0.018437504768371582, 0.015628615394234657, -0.007911552675068378, -0.10914812237024307, 0.11533058434724808, 0.055296458303928375, 0.07081199437379837, -0.0045068711042404175, -0.003709901822730899, -0.02629353106021881, -0.09285850822925568, 0.08115579187870026, -0.09818130731582642, 0.09300201386213303, 0.10141752660274506, -0.009872741997241974, 0.06513254344463348, 0.07879798114299774, 0.06284760683774948, -0.09227366745471954, -0.01168471947312355, 0.028219075873494148, -0.0476171113550663, 0.04416842386126518, -0.0796329528093338, 0.009945213794708252, -0.0049247718416154385, 0.029012223705649376, 0.025840163230895996, -0.04605428874492645, 0.05259189382195473, 0.043676864355802536, -0.10798472911119461, -0.08846382051706314, -0.1276157796382904, -0.007641070522367954, -0.10386041551828384, 0.12241603434085846, 0.12454838305711746, 0.1184401884675026], [0.10667598992586136, -0.004129887092858553, 0.07430162280797958, 0.01728890649974346, -0.06818738579750061, -0.04057326167821884, -0.01526271179318428, -0.11963992565870285, 0.023068683221936226, 0.029667934402823448, -0.002179308095946908, 0.05736025050282478, -0.05225449055433273, 0.07757154107093811, 0.10241618752479553, 0.025743603706359863, 0.07985624670982361, 0.016635192558169365, -0.02015986293554306, -0.07504107058048248, -0.05896234139800072, 0.029688751325011253, 0.00876277033239603, 0.10364124178886414, 0.0897776186466217, 0.002860728884115815, -0.10054101794958115, 0.10450591892004013, 0.04556519165635109, -0.01236788835376501, 0.05108745023608208, 0.07501828670501709, 0.07863552868366241, 0.0432853139936924, -0.01077458169311285, 0.03980926424264908, 0.09783868491649628, 0.00906932633370161, 0.08266227692365646, -0.061204127967357635, -0.04908967390656471, 0.0973154678940773, 0.030457939952611923, -0.0802481546998024, -0.08964036405086517, -0.08405889570713043, 0.004505534190684557, 0.010924534872174263, 0.00022082967916503549, -0.02023926004767418, -0.08254946023225784, 0.08234908431768417, -0.12097752094268799, -0.006011625751852989, -0.06799431890249252, -0.04704001918435097, 0.044564008712768555, -0.08075559884309769, 0.07101535052061081, 0.058069463819265366], [-0.12431394308805466, 0.1192493662238121, 0.12171804904937744, -0.015567487105727196, -0.13506390154361725, 0.04717562720179558, 0.12081222236156464, 0.10243165493011475, -0.09715837985277176, -0.12216756492853165, -0.0644947811961174, -0.08685149252414703, 0.013908651657402515, 0.10734927654266357, -0.023985788226127625, 0.11037272214889526, -0.06725739687681198, -0.11720726639032364, 0.10805676132440567, 0.07914991676807404, 0.021202072501182556, -0.009560490027070045, -0.10563018172979355, -0.11685319244861603, -0.039748720824718475, 0.058888938277959824, 0.07848367094993591, 0.05695081502199173, -0.05231473222374916, 0.11961822956800461, 0.059808675199747086, 0.038747187703847885, -0.09508435428142548, 0.0807880088686943, -0.05649038776755333, -0.08053523302078247, 0.05750207230448723, 0.07908934354782104, -0.10998381674289703, 0.12425392866134644, 0.12203764170408249, 0.06272108107805252, 0.05730070173740387, 0.09959496557712555, 0.052807580679655075, 0.06201201304793358, 0.04600003361701965, 0.05554790794849396, 0.08669450879096985, -0.1056831032037735, 0.0659574493765831, -0.12451115995645523, 0.07273009419441223, 0.03221078962087631, -0.0742276981472969, -0.041780464351177216, -0.1249115988612175, 0.020898504182696342, -0.036824457347393036, -0.09227921068668365], [0.10926023870706558, -0.08848946541547775, 0.0173104926943779, -0.0917414203286171, -0.07244685292243958, -0.008103608153760433, 0.10732468217611313, 0.04712330177426338, -0.04620277136564255, 0.07332988828420639, -0.12684157490730286, 0.08049429953098297, 0.024741699919104576, -0.1378791332244873, 0.11723461747169495, 0.099620521068573, 0.03541526943445206, 0.11556973308324814, -0.014920339919626713, 0.030579568818211555, 0.04794711619615555, -0.09102684259414673, 0.06429103016853333, -0.006083312444388866, -0.0300226341933012, 0.10779398679733276, -0.1209041029214859, -0.04846009239554405, -0.11429767310619354, -0.028492731973528862, -0.06857320666313171, -0.046601321548223495, -0.012644183821976185, 0.01903298869729042, -0.01736978068947792, 0.04191363975405693, 0.004005993716418743, 0.10200820118188858, 0.10197722911834717, 0.02094562165439129, 0.026375774294137955, -0.10089088976383209, 0.046443525701761246, 0.0826055034995079, -0.10798463225364685, -0.09513772279024124, 0.03283093124628067, -0.0712462067604065, 0.04925244301557541, -0.07135149836540222, -0.11076252907514572, -0.00720424996688962, -0.012088901363313198, -0.016351962462067604, 0.11530113220214844, 0.06541913002729416, 0.031318970024585724, 0.06770963221788406, 0.09234929084777832, 0.015619016252458096], [0.12142437696456909, 0.03804481402039528, 0.02143806405365467, 0.023782839998602867, -0.05862237513065338, 0.05228547006845474, 0.030427750200033188, -0.04189696162939072, -0.056140415370464325, 0.10911857336759567, 0.011726860888302326, 0.0512947216629982, 0.12752856314182281, -0.10098079591989517, 0.02868339605629444, 0.1054074838757515, 0.02231241948902607, -0.10584653913974762, 0.05535270646214485, -0.0820300504565239, 0.11551633477210999, 0.04916493967175484, -0.10358255356550217, 0.03503065183758736, 0.10749493539333344, 0.019393175840377808, -0.08137886226177216, -0.09397637099027634, 0.13103003799915314, -0.08692856132984161, -0.10574443638324738, 0.040572211146354675, -0.0784207284450531, 0.06228935346007347, 0.021276451647281647, 0.12055458873510361, 0.019894670695066452, 0.11591324955224991, -0.07994317263364792, 0.1054915115237236, -0.047140948474407196, -0.10501674562692642, 0.05777761712670326, 0.029130982235074043, -0.018814897164702415, 0.09338174760341644, -0.05072910711169243, -0.08262217044830322, -0.028315097093582153, 0.11473064869642258, -0.045517124235630035, 0.07507329434156418, -0.08650940656661987, -0.05437377467751503, -0.08629157394170761, 0.08176054805517197, -0.0946761816740036, 0.10251490026712418, 0.11302473396062851, -0.0822291225194931], [-0.0012229937128722668, 0.06761693209409714, 0.11075232177972794, 0.10241354256868362, 0.07843931764364243, 0.12909378111362457, 0.007199565880000591, 0.11978864669799805, 0.07754656672477722, -0.009401553310453892, 0.07562495768070221, 0.07203523814678192, -0.12306451052427292, -0.11994386464357376, 0.024825530126690865, -0.07304774224758148, 0.12859971821308136, -0.051203612238168716, 0.06489215046167374, -0.016715234145522118, -0.01787339337170124, -0.057314034551382065, -0.03152114525437355, 0.12516875565052032, -0.02790566347539425, 0.04929361119866371, 0.001247338717803359, -0.08810694515705109, -0.11720404028892517, -0.06380175054073334, -0.11357218772172928, 0.06385307013988495, 0.12244169414043427, -0.0011905214050784707, 0.0788860023021698, 0.10683773458003998, 0.08922062814235687, 0.06628885120153427, 0.0004450662527233362, -0.03586655110120773, 0.08614542335271835, -0.07602854073047638, 0.08075524866580963, 0.10034763067960739, -0.04293772578239441, 0.06763742864131927, -0.1008683294057846, -0.0530104897916317, 0.04704147204756737, 0.08860505372285843, -0.07723413407802582, -0.11896979063749313, 0.0016214437782764435, 0.00679447315633297, -0.13272102177143097, -0.03292732685804367, 0.024623150005936623, -0.122466541826725, -0.10904951393604279, -0.08397325128316879], [-0.025162775069475174, 0.04727412760257721, 0.07159186154603958, 0.04709290340542793, -0.060547418892383575, 0.010442232713103294, 0.13298079371452332, 0.0879245325922966, 0.008245735429227352, -0.04819786921143532, 0.0555541068315506, -0.09378992021083832, 0.018639009445905685, -0.025557201355695724, -0.008055932819843292, -0.07114344090223312, 0.0914580300450325, 0.0788678452372551, 0.1016509085893631, 0.004869616590440273, -0.03765777871012688, -0.0526018962264061, -0.02925781160593033, 0.11416471004486084, 0.024665467441082, -0.10487213730812073, -0.1106586754322052, 0.06861259043216705, 0.031825218349695206, 0.11975839734077454, 0.08290427178144455, -0.027547596022486687, -0.10562864691019058, -0.06147405505180359, 0.1016477644443512, -0.01827034167945385, 0.11915203928947449, -0.08402065932750702, 0.03950146585702896, 0.12135881185531616, 0.024454506114125252, 0.04274553805589676, 0.0640295222401619, 0.12456808984279633, -0.020639514550566673, 0.12247666716575623, 0.021864477545022964, -0.02681044116616249, -0.01150589995086193, -0.007173194084316492, -0.11692177504301071, 0.006040139123797417, 0.08306938409805298, -0.10032739490270615, -0.11325166374444962, 0.08359962701797485, -0.11708769202232361, -0.09178274124860764, -0.05602281540632248, -0.11691519618034363], [-0.09267833083868027, -0.051513295620679855, -0.10185439884662628, 0.02701718918979168, 0.08883701264858246, 0.08345484733581543, 0.02722601406276226, -0.11016795039176941, -0.0582389310002327, -0.015384793281555176, -0.006918191444128752, 0.11473782360553741, -0.08399013429880142, 0.10643327981233597, 0.11903317272663116, -0.1003645583987236, 0.1031961515545845, -0.04004422575235367, -0.07239880412817001, -0.005114561878144741, 0.08458738774061203, -0.024408388882875443, -0.049166735261678696, -0.010173414833843708, -0.12254687398672104, 0.018885143101215363, 0.09571386128664017, -0.05426192283630371, -0.06592545658349991, 0.027417007833719254, 0.009102613665163517, -0.03830116614699364, -0.10015171021223068, -0.11041028052568436, 0.026599671691656113, -0.11509071290493011, 0.0705278217792511, -0.10436444729566574, 0.10996106266975403, 0.10438989847898483, -0.042907409369945526, 0.11968222260475159, -0.0343133807182312, 0.055313851684331894, 0.10779334604740143, 0.04230673238635063, -0.0348631851375103, 0.10547352582216263, 0.10504019260406494, -0.01538012269884348, -0.025318840518593788, 0.12140623480081558, 0.08483283221721649, -0.008811977691948414, -0.0017314415890723467, 0.10216065496206284, 0.046026330441236496, -0.046450644731521606, -0.07534343004226685, -0.09458167850971222], [0.12873698770999908, -0.05543092265725136, -0.022704821079969406, -0.0965670794248581, 0.11904941499233246, 0.05507935583591461, -0.06754475086927414, -0.10062030702829361, -0.03211629390716553, 0.06666604429483414, -0.014385255053639412, 0.05998997762799263, 0.013438088819384575, -0.05905202031135559, -0.0984974056482315, 0.10026338696479797, -0.046537164598703384, -0.02489781752228737, 0.05840335786342621, 0.07102398574352264, -0.04803776368498802, -0.029300782829523087, -0.03514060005545616, -0.058174774050712585, 0.01567303203046322, -0.020441582426428795, 0.029493724927306175, -0.006011879537254572, -0.071419857442379, -0.10501675307750702, -0.09735196083784103, -0.06738752871751785, 0.05494392290711403, 0.0774754136800766, 0.088172547519207, 0.13237634301185608, -0.031259529292583466, -0.10586968064308167, 0.020647041499614716, 0.057720474898815155, -0.00982984621077776, -0.09306943416595459, -0.08839452266693115, -0.008450998924672604, 0.1290304958820343, -0.07582277059555054, 0.11998866498470306, -0.07835475355386734, 0.07422784715890884, -0.041470080614089966, -0.03793817758560181, 0.09031779319047928, 0.06660731881856918, 0.0488043837249279, 0.07173386961221695, 0.09250282496213913, 0.00038313440745696425, -0.10002695769071579, -0.10985758900642395, -0.10615640878677368], [0.13067758083343506, -0.0012355679646134377, 0.061675406992435455, -0.08224335312843323, 0.06051063910126686, -0.11064650118350983, 0.0775403156876564, 0.02275141328573227, -0.09402819722890854, -0.09324770420789719, -0.1145268976688385, 0.06076095625758171, -0.08533541858196259, -0.0399673730134964, -0.0774308443069458, 0.07960882037878036, 0.10202180594205856, 0.1339978724718094, 0.012093359604477882, 0.07933932542800903, 0.0007268272456713021, 0.055494461208581924, 0.046556293964385986, -0.07168553024530411, 0.061726249754428864, 0.13790486752986908, -0.029458006843924522, -0.06393224745988846, 0.06706295907497406, -0.010305690579116344, 0.06358496844768524, -0.1149507611989975, -0.01769956573843956, 0.07519811391830444, -0.013188939541578293, 0.0833156406879425, 0.06290178000926971, -0.08054912835359573, 0.026955490931868553, 0.10145572572946548, 0.08754406869411469, -0.052661046385765076, -0.06954623013734818, -0.11604097485542297, 0.029921643435955048, 0.09388064593076706, 0.12810906767845154, -0.020852796733379364, -0.003461137879639864, -0.09180686622858047, -0.007481295615434647, 0.04554617777466774, 0.08739577233791351, -0.10784406960010529, 0.12117792665958405, -0.10544859617948532, 0.030480053275823593, -0.00911298394203186, 0.051372189074754715, -0.10056979209184647], [0.0033041166607290506, 0.002572287106886506, 0.11547212302684784, -0.06174754723906517, -0.1086810901761055, -0.09322330355644226, 0.011936499737203121, 0.05473174527287483, -0.006624143570661545, 0.04505375772714615, -0.00859658420085907, 0.04150285944342613, 0.03938420116901398, 0.02397734858095646, -0.10965752601623535, -0.09670891612768173, -0.09973140060901642, -0.02730068564414978, -0.07194491475820541, 0.04891321063041687, -0.08373858779668808, -0.03276471793651581, -0.12017134577035904, 0.032148439437150955, -0.016707923263311386, 0.11432003229856491, -0.08793789148330688, 0.030006038025021553, 0.0043180715292692184, 0.008371410891413689, -0.11740861088037491, -0.06682037562131882, 0.04428694769740105, 0.0075425258837640285, 0.09538526087999344, 0.0626375749707222, -0.016669178381562233, -0.08606269955635071, -0.05210619419813156, -0.03804922476410866, -0.026150807738304138, 0.025389693677425385, -0.018354730680584908, 0.10212196409702301, -0.01731012761592865, -0.0931512862443924, 0.0012516131391748786, -0.037046339362859726, 0.004145808517932892, -0.03454034775495529, 0.11768636852502823, -0.0032077834475785494, -0.09778369963169098, -0.0889149084687233, -0.0949254110455513, 0.04074390232563019, 0.06628517061471939, 0.0638631135225296, -0.12258828431367874, 0.0362333208322525], [0.028483739122748375, 0.09734620153903961, -0.12118843197822571, -0.05081447958946228, 0.01969694346189499, 0.02540508285164833, -0.03447780758142471, 0.059920042753219604, 0.03099430724978447, 0.029846269637346268, -0.032866913825273514, -0.060278285294771194, 0.0654156282544136, 0.03705430403351784, -0.08571251481771469, -0.1098666861653328, 0.11465422809123993, -0.03046380914747715, -0.055283304303884506, -0.09341408312320709, 0.06730585545301437, 0.09351937472820282, -0.005867174360901117, -0.09193988144397736, 0.08779748529195786, -0.03665055334568024, -0.0860913097858429, -0.09425023198127747, -0.016577646136283875, 0.107180155813694, -0.1149417906999588, -0.0702168419957161, 0.10052908957004547, 0.014896971173584461, 0.09001860022544861, -0.12488919496536255, 0.09875903278589249, -0.0003998934116680175, 0.052894119173288345, -0.05019156262278557, 0.06119992211461067, -0.045764435082674026, 0.06398504227399826, 0.06793257594108582, 0.08596710115671158, -0.10002892464399338, -0.041874099522829056, 0.011911152862012386, 0.07715573906898499, -0.0877140462398529, 0.032415833324193954, -0.00349894305691123, -0.10086151957511902, 0.014454219490289688, -0.098259836435318, 0.13330575823783875, -0.014689742587506771, 0.11892423778772354, 0.053217947483062744, 0.126520574092865], [-0.07435913383960724, -0.08850666135549545, 0.03390868753194809, -0.04454272985458374, -0.09433388710021973, 0.039020903408527374, -0.06482034176588058, -0.09658177196979523, -0.03753324970602989, -0.10193585604429245, -0.011335055343806744, -0.015737127512693405, -0.1299193799495697, 0.00047604108112864196, 0.1124894842505455, 0.03362205997109413, 0.052846893668174744, -0.12091363966464996, 0.016660330817103386, 0.044027481228113174, 0.08188636600971222, -0.08172929286956787, -0.1221301332116127, 0.033890265971422195, 0.06707288324832916, -0.04462244734168053, -0.039331164211034775, 0.056947506964206696, -0.028844241052865982, 0.021122436970472336, 0.012917770072817802, -0.07575403153896332, 0.03866691514849663, -0.019925616681575775, -0.021294917911291122, -0.07062940299510956, 0.10562944412231445, 0.018864067271351814, -0.06883426755666733, 0.033128175884485245, -0.02735544927418232, 0.02981765940785408, -0.0400024838745594, -0.03383027762174606, 0.03491488844156265, -0.0973147600889206, -0.03673776239156723, 0.10467071831226349, -0.10382755845785141, 0.09199833124876022, -0.09117510169744492, 0.05398564413189888, -0.0336572639644146, 0.11461030691862106, -0.07414380460977554, 0.0008194722468033433, -0.012631422840058804, 0.08469796925783157, -0.021165620535612106, 0.1321382373571396], [0.09147591888904572, 0.07546257972717285, -0.05990741029381752, 0.09785211831331253, 0.13536043465137482, -0.04643944650888443, -0.03797299042344093, -0.09433966875076294, 0.03275742754340172, 0.0969759076833725, 0.1171974390745163, 0.030081404373049736, 0.018639594316482544, -0.03063877299427986, -0.01935844123363495, 0.12247934192419052, -0.03183487430214882, 0.06534374505281448, 0.041113752871751785, -0.0847800076007843, 0.09986851364374161, 0.024122824892401695, -0.040191732347011566, -0.08521557599306107, 0.07025653123855591, -0.10658132284879684, 0.04066447168588638, 0.016513455659151077, -0.0074264612048864365, -0.01980385184288025, -0.09359316527843475, -0.03367728739976883, -0.11431228369474411, -0.0646585002541542, 0.03867742046713829, 0.012458604760468006, -0.022928278893232346, 0.0797005221247673, -0.08332610875368118, -0.08983688801527023, 0.12357597053050995, 0.11290270835161209, 0.004664325620979071, -0.01528865285217762, 0.012608067132532597, 0.09163068234920502, -0.039746884256601334, 0.00779957789927721, 0.06552927196025848, 0.07296106964349747, -0.0077941264025866985, 0.10524184256792068, 0.013992944732308388, 0.06833347678184509, 0.0124561982229352, -0.022422561421990395, -0.01701635681092739, -0.0620313324034214, -0.12916919589042664, 0.026725007221102715], [0.12827183306217194, -0.0586651936173439, 0.006505465134978294, 0.12034553289413452, -0.09833375364542007, 0.020078275352716446, 0.04394622892141342, 0.11521495878696442, 0.11643625795841217, 0.12078527361154556, 0.07990312576293945, -0.07042505592107773, -0.009683029726147652, -0.057479746639728546, 0.06420992314815521, -0.041640881448984146, -0.08976511657238007, -0.051128435879945755, 0.03547867015004158, 0.07065696269273758, -0.11412656307220459, 0.10847637802362442, -0.09065217524766922, 0.11535320430994034, 0.0471733920276165, 0.09101463109254837, -0.08595047146081924, 0.019295888021588326, -0.10195374488830566, 0.04683823883533478, -0.008253737352788448, 0.0673665776848793, 0.06296556442975998, 0.05673769488930702, -0.012973441742360592, 0.043272752314805984, -0.06952447444200516, 0.09279510378837585, 0.04606233537197113, 0.09124783426523209, -0.06379054486751556, -0.06720411032438278, 0.08530023694038391, -0.09896677732467651, 0.11391323804855347, 0.0971900224685669, -0.0028783511370420456, -0.10340578854084015, 0.06219251826405525, 0.024904681369662285, 0.02522297017276287, 0.03369326889514923, -0.08482591807842255, 0.034731674939394, 0.12272600829601288, 0.11209704726934433, -0.0018588232342153788, -0.08620070666074753, -0.011677419766783714, 0.08800707757472992], [0.07180868089199066, 0.01611010730266571, -0.04716971144080162, -0.11798474192619324, 0.03393592685461044, 0.02103610523045063, -0.044021692126989365, -0.09897153079509735, -0.13334572315216064, 0.001889856532216072, -0.03066423535346985, 0.08248414099216461, 0.08899693936109543, 0.022944482043385506, 0.08845975250005722, -0.10231494903564453, 0.014525668695569038, 0.0005667363293468952, -0.1059451550245285, -0.03905445709824562, -0.08421872556209564, -0.12595027685165405, -0.11664007604122162, -0.11194917559623718, 0.05301879346370697, 0.031027901917696, 0.07939121872186661, -0.014447873458266258, -0.11672819405794144, 0.12293746322393417, 0.02144523151218891, 0.04731351509690285, 0.08068244159221649, 0.0008632439421489835, -0.09346036612987518, -0.08794126659631729, -0.04482361301779747, -0.07100124657154083, -0.004884106107056141, 0.024261407554149628, 0.036637235432863235, 0.010940046049654484, -0.124407097697258, 0.06935795396566391, 0.031784266233444214, 0.0594698004424572, -0.014823520556092262, 0.08790421485900879, 0.053718097507953644, 0.08336465060710907, -0.003603730583563447, -0.06704748421907425, 0.06462199985980988, -0.02291676215827465, -0.06300783902406693, 0.011293670162558556, -0.02921755425632, 0.08301379531621933, 0.03611772879958153, -0.11297982931137085], [0.1074620857834816, -0.10028086602687836, 0.12114495038986206, 0.04093228280544281, -0.033909041434526443, 0.01742648333311081, 0.0495617501437664, -0.07075414061546326, -0.13086359202861786, -0.018300801515579224, 0.09198733419179916, 0.09671562165021896, 0.04242746904492378, -0.1214098185300827, -0.05265907570719719, 0.04693001136183739, -0.10508993268013, -0.013217282481491566, -0.11980844289064407, -0.05126706510782242, 0.009662308730185032, -0.07918329536914825, 0.07532745599746704, 0.09644730389118195, -0.03512409329414368, 0.0007088228594511747, -0.021877562627196312, -0.08408323675394058, -0.025888437405228615, 0.005768197122961283, -0.012013333849608898, 0.01259237714111805, -0.06660142540931702, -0.013779248110949993, -0.048761751502752304, 0.12168314307928085, 0.03184431418776512, 0.09153132885694504, 0.023142771795392036, 0.07163026183843613, -0.0786006972193718, -0.07468274980783463, 0.09673267602920532, -0.017944980412721634, 0.08819092065095901, -0.04711400344967842, -0.008612969890236855, -0.13077905774116516, 0.088278628885746, -0.03095201961696148, -0.06199361011385918, -0.10743875801563263, -0.009147083386778831, 0.09622296690940857, 0.12126708775758743, 0.017211662605404854, 0.04358525946736336, 0.11275801807641983, -0.12696079909801483, -0.1141049787402153], [0.10040978342294693, 0.05935404449701309, 0.07451920211315155, 0.03228648751974106, 0.10676460713148117, 0.010614817962050438, 0.05937284231185913, -0.12254966050386429, 0.06880989670753479, 0.07952355593442917, -0.09376641362905502, -0.058164291083812714, 0.10554175078868866, 0.05555190518498421, -0.05577411875128746, 0.01529538631439209, -0.001846980769187212, 0.10252081602811813, -0.050034452229738235, 0.0035447068512439728, -0.008718408644199371, 0.07159856706857681, -0.09083317965269089, -0.015237865038216114, -0.04214813560247421, -0.0992380753159523, -0.11292392760515213, 0.04480604827404022, 0.04373938590288162, -0.022391673177480698, 0.056444305926561356, 0.02372242882847786, -0.09754395484924316, 0.06077050417661667, 0.10669732093811035, 0.025282960385084152, -0.02961219847202301, -0.1304750293493271, 0.08049468696117401, 0.041859373450279236, -0.10479123890399933, -0.13397474586963654, -0.01994786038994789, 0.11000597476959229, -0.021457593888044357, 0.012292600236833096, -0.016416549682617188, -0.11383307725191116, 0.01957874558866024, -0.06238652020692825, -0.06869062781333923, -0.074417345225811, -0.06634765863418579, -0.0063575212843716145, -0.05569731071591377, -0.0039916574023664, -0.0017373873852193356, 0.07596690952777863, 0.0938805490732193, 0.010593322105705738], [-0.11119816452264786, -0.011381339281797409, 0.027536552399396896, -0.10624860227108002, -0.11199624836444855, 0.021187594160437584, 0.016402794048190117, -0.028705310076475143, 0.01280864980071783, -0.05418843775987625, -0.03866494819521904, -0.013437173329293728, -0.0049093361012637615, -0.08750523626804352, -0.03374790772795677, 0.03000665456056595, 0.013281948864459991, 0.12025576084852219, 0.0316656269133091, 0.048648037016391754, 0.023690667003393173, -0.07141938805580139, -0.09915097802877426, 0.007288619410246611, 0.1408756971359253, -0.09037487953901291, -0.01308307982981205, -0.04334874451160431, 0.024368099868297577, 0.06792160123586655, 0.0252301674336195, 0.08320476859807968, 0.04781277850270271, 0.0065171848982572556, 0.10046349465847015, 0.08158936351537704, 0.1143016591668129, -0.10639376193284988, 0.1243099570274353, -0.013834802433848381, 0.06257563084363937, 0.0823550820350647, -0.10055937618017197, -0.10310716181993484, 0.05510501191020012, 0.08245792239904404, -0.028882591053843498, -0.08042170107364655, -0.05677349492907524, 0.13071952760219574, -0.017138347029685974, 0.033705562353134155, -0.028919197618961334, 0.05404190346598625, 0.07888764142990112, -0.0159421619027853, 0.11843447387218475, 0.13897225260734558, -0.09637511521577835, 0.03725040331482887], [0.010884162038564682, -0.0628170445561409, 0.12003513425588608, -0.052611641585826874, -0.02779792994260788, 0.07278714329004288, -0.09635597467422485, -0.13294324278831482, -0.026993371546268463, 0.0829075500369072, -0.05070097744464874, -0.02300136163830757, 0.09100572764873505, -0.009420479647815228, 0.04785481467843056, 0.07920938730239868, 0.05084451660513878, 0.10885793715715408, -0.10788632929325104, -0.049975257366895676, -0.08532276749610901, -0.003002303885295987, 0.11657141894102097, 0.08207757771015167, -0.09300042688846588, 0.04528665170073509, -0.0479581318795681, -0.11432801187038422, 0.03707128390669823, 0.05420294404029846, -0.05540236458182335, 0.08319639414548874, 0.09184481203556061, 0.020680293440818787, 0.06413239985704422, -0.02405797317624092, -0.03635529428720474, -0.13131427764892578, -0.12221738696098328, 0.03495233505964279, -0.11707723140716553, 0.078254334628582, 0.0884469747543335, -0.04798727482557297, -0.13181500136852264, -0.09071862697601318, -0.05601410195231438, -0.07279687374830246, 0.0949874222278595, -0.08397296816110611, 0.03550431504845619, 0.06527318805456161, -0.09025491774082184, 0.12300274521112442, 0.08650766313076019, 0.07694587111473083, 0.012355298735201359, -0.008618238382041454, 0.02766845002770424, 0.04886731877923012], [-0.0755741149187088, -0.06371765583753586, -0.11337654292583466, -0.11136342585086823, 0.02823844738304615, -0.11045035719871521, 0.016768110916018486, -0.0068374453112483025, 0.0955306887626648, 0.016889188438653946, -0.06382441520690918, -0.09916891902685165, 0.1175205335021019, 0.027127891778945923, 0.009886924177408218, 0.04035690426826477, 0.08522242307662964, -0.03465704619884491, -0.008242672309279442, -0.09743072837591171, 0.009106568992137909, 0.11542419344186783, -0.10341691225767136, 0.01698111556470394, 0.037482958287000656, -0.09609934687614441, -0.12199760228395462, 0.009099681861698627, -0.10923438519239426, -0.019075946882367134, 0.0751638263463974, -0.11015582829713821, 0.0726153701543808, 0.05380520224571228, -0.12123431265354156, -0.07884359359741211, 0.062365349382162094, -0.07108594477176666, -0.09583874046802521, 0.06798207759857178, -0.056736573576927185, -0.020356839522719383, 0.019994722679257393, 0.10418269038200378, -0.07425040751695633, -0.07994425296783447, 0.07441221177577972, 0.10409985482692719, 0.017776157706975937, 0.043662331998348236, -0.08486327528953552, -0.006430341396480799, 0.05363985896110535, 0.05651327222585678, 0.020585233345627785, 0.003641529241576791, 0.11284002661705017, -0.03700094297528267, -0.06126394867897034, 0.060952115803956985], [-0.08240055292844772, -0.045349106192588806, -0.11465591937303543, -0.10061617195606232, -0.07720697671175003, 0.04221021756529808, -0.10553944110870361, 0.1307709962129593, 0.041342999786138535, 0.11021662503480911, 0.07242012023925781, -0.089594267308712, 0.05091388523578644, 0.00975776556879282, 0.003903853241354227, -0.1126689463853836, -0.08849073201417923, 0.0218084454536438, -0.03455487638711929, 0.07516523450613022, -0.0029230827931314707, -0.019614093005657196, 0.10753700137138367, -0.05739906430244446, 0.04007037356495857, 0.043179117143154144, 0.06234963610768318, -0.07487458735704422, 0.032868124544620514, -0.08404438942670822, -0.028640123084187508, 0.033363427966833115, 0.12465496361255646, -0.009817268699407578, 0.10330087691545486, 0.13561680912971497, -0.06028817594051361, 0.12050577998161316, -0.05248885229229927, -0.06848116964101791, 0.06960555166006088, 0.000600637577008456, 0.023918772116303444, 0.10085313022136688, -0.055408842861652374, -0.03906537964940071, 0.08954188972711563, 0.007255667354911566, -0.04002052918076515, -0.06578832119703293, 0.11534450203180313, -0.09035687893629074, 0.06674899905920029, -0.050511717796325684, -0.07743831723928452, -0.1420258730649948, -0.049484770745038986, -0.024603689089417458, -0.120670385658741, 0.0725259780883789], [-0.02170349471271038, 0.021414920687675476, -0.08906611800193787, -0.06002914160490036, -0.002068429486826062, 0.10800057649612427, 0.06743449717760086, 0.0487188883125782, 0.024815618991851807, 0.11088496446609497, -0.045786332339048386, -0.11682208627462387, -0.0958714634180069, -0.04266997426748276, -0.005842642858624458, 0.00896646548062563, -0.09609902650117874, 0.08848705142736435, -0.03335237130522728, -0.10346435755491257, -0.0786357894539833, 0.04398679733276367, -0.024067502468824387, -0.060457177460193634, -0.10266946256160736, 0.10184843093156815, 0.09190814197063446, 0.11977825313806534, 0.04636542126536369, -0.08341822028160095, -0.10082832723855972, -0.009085778146982193, -0.11123426258563995, 0.08658958971500397, -0.003814512863755226, -0.0650959238409996, -0.12123516201972961, 0.059797272086143494, -0.07201725989580154, 0.11890943348407745, 0.08002310246229172, -0.11894868314266205, 0.017948735505342484, -0.03347514197230339, -0.0005948804318904877, -0.007003414444625378, -0.08832452446222305, 0.0951572060585022, 0.030104251578450203, 0.008808712475001812, 0.11356520652770996, 0.04287947341799736, -0.06353757530450821, -0.09023229032754898, -0.010390601120889187, 0.00020479265367612243, 0.035872235894203186, -0.0362098403275013, -0.07982664555311203, -0.1009603962302208], [0.01314966008067131, -0.03432830050587654, -0.05382445082068443, -0.09057705104351044, 0.11698920279741287, -0.1082400307059288, -0.022233271971344948, 0.12659962475299835, -0.04051811248064041, -0.07368852198123932, 0.01469541247934103, 0.09802287817001343, -0.023119110614061356, 0.04896705225110054, -0.09469305723905563, 0.0741693302989006, 0.04857862368226051, -0.07135474681854248, -0.11695291846990585, 0.10116663575172424, 0.12208447605371475, 0.08115492761135101, 0.06005357950925827, 0.07965512573719025, 0.023045139387249947, -0.01633533649146557, 0.12794333696365356, -0.09476085752248764, 0.06966202706098557, 0.07744250446557999, 0.02494424767792225, 0.043060094118118286, -0.0444144643843174, 0.07559911906719208, 0.05007374286651611, -0.004144471138715744, -0.022338343784213066, 0.03834158927202225, -0.041402190923690796, -0.0455012209713459, 0.11523044854402542, -0.03714337572455406, 0.01345662958920002, 0.097142793238163, -0.08241228014230728, -0.07478383183479309, -0.05909692868590355, 0.10333650559186935, 0.07123197615146637, -0.07280352711677551, -0.027703365311026573, -0.053625091910362244, -0.038377679884433746, -0.09147050976753235, -0.0017271782271564007, 0.056124404072761536, -0.03293910250067711, 0.09037642180919647, -0.09250961244106293, 0.11307616531848907], [0.09397240728139877, -0.13000565767288208, -0.10820505768060684, -0.04540276899933815, -0.05807725340127945, -0.04905656352639198, -0.03967445716261864, -0.11935030668973923, 0.03659128025174141, -0.1322799175977707, -0.06284409761428833, -0.01509485300630331, -0.08295499533414841, -0.002841067733243108, -0.10570267587900162, -0.05230073258280754, 0.06934191286563873, -0.04030526056885719, -0.01745346002280712, -0.12390316277742386, 0.0002687352825887501, -0.07952737808227539, 0.06254097074270248, 0.09271460771560669, 0.05840354785323143, 0.030097659677267075, 0.007384825497865677, -0.10745375603437424, -0.1192164421081543, -0.0033562318421900272, -0.1257314682006836, 0.1251441240310669, 0.06987592577934265, -0.08051751554012299, 0.07932636141777039, 0.0648777112364769, -0.11780037730932236, 0.09893718361854553, -0.018589507788419724, 0.12269054353237152, -0.01757938228547573, 0.09780257940292358, -0.02418554574251175, 0.04858004301786423, -0.10614906996488571, 0.005161969922482967, -0.08272258937358856, -0.05574203282594681, -0.07651662826538086, -0.1340174823999405, 0.012520222924649715, -0.013524205423891544, -0.09528671950101852, -0.07759568840265274, -0.042932648211717606, -0.03721599653363228, -0.11140257865190506, -0.06999851763248444, -0.0001715793478069827, -0.11409860104322433], [-0.013108448125422001, 0.07929476350545883, 0.1126229465007782, 0.0015771329635754228, 0.043561872094869614, 0.030475668609142303, -0.11963315308094025, 0.10206586867570877, 0.011350027285516262, 0.10606341809034348, -0.09980084747076035, 0.10987327247858047, 0.06203599274158478, -0.025410911068320274, 0.04817453771829605, -0.003539083059877157, -0.036801718175411224, -0.12204159051179886, -0.06076488643884659, -0.03402431309223175, -0.03703424334526062, 0.10360325127840042, -0.02356068231165409, -0.025661658495664597, -0.117375448346138, -0.051585324108600616, -0.10007450729608536, -0.06587936729192734, -0.12539048492908478, -0.07583905011415482, 0.08793788403272629, -0.10288878530263901, -0.09259417653083801, 0.028604378923773766, -0.004152837675064802, 0.06559264659881592, 0.09956947714090347, -0.10559409856796265, -0.00727294385433197, 0.10043671727180481, 0.04026488959789276, -0.032897692173719406, -0.131713405251503, 0.037982027977705, -0.12861597537994385, 0.052746158093214035, -0.09031358361244202, 0.04623463377356529, -0.12450991570949554, -0.02018442563712597, -0.04402992129325867, -0.008112151175737381, -0.05258651077747345, -0.06574185937643051, 0.05531887710094452, -0.11904352903366089, 0.020926473662257195, -0.010273372754454613, 0.0019122929079458117, -0.1469925194978714], [0.008166784420609474, -0.009128216654062271, -0.0826491117477417, -0.045624177902936935, 0.09860094636678696, -0.005587783642113209, 0.0909784659743309, -0.060360316187143326, -0.1307910978794098, -0.06813828647136688, 0.033970873802900314, -0.019625622779130936, -0.06303597241640091, -0.019777201116085052, -0.10346943140029907, -0.015110176987946033, -0.10742035508155823, 0.08541849255561829, 0.08036091178655624, -0.009481778368353844, -0.07956536114215851, 0.013808250427246094, -0.012104885652661324, 0.03138180822134018, 0.04418755695223808, 0.11311691254377365, -0.12642046809196472, -0.04655912145972252, -0.03971428796648979, 0.04496181383728981, -0.05878201127052307, 0.07145199179649353, 0.10437992960214615, -0.11436264216899872, 0.04312572255730629, -0.07309108227491379, -0.09847775846719742, 0.03191734850406647, -0.012741458602249622, -0.09711920469999313, -0.008563799783587456, -0.10425904393196106, 0.07617445290088654, 0.11741205304861069, -0.043503426015377045, 0.10884995013475418, 0.028056759387254715, -0.1219574362039566, 0.05759101361036301, 0.03542809560894966, -0.09962040930986404, 0.04135376960039139, 0.038456499576568604, -0.004157249815762043, 0.11805524677038193, 0.02404836378991604, -0.07779482752084732, -0.02954196371138096, 0.07998107373714447, 0.010756592266261578], [-0.04619044438004494, 0.10147091746330261, -0.01658453233540058, -0.12826663255691528, 0.03588477522134781, -0.12247490882873535, -0.12384200096130371, 0.020585661754012108, -0.0364852212369442, -0.04672643169760704, 0.048772770911455154, 0.008114212192595005, 0.056429386138916016, 0.10829166322946548, 0.1177884042263031, -0.0962691381573677, 0.0595054067671299, 0.007248770445585251, -0.06570150703191757, -0.022249359637498856, -0.05566227436065674, 0.04814852774143219, -0.06835809350013733, 0.11760405451059341, 0.07805763930082321, 0.12020814418792725, 0.11500576883554459, 0.13121654093265533, -0.10707371681928635, 0.07089483737945557, 0.09486240148544312, -0.02719089202582836, -0.046168506145477295, 0.013563145883381367, -0.06884997338056564, 0.03824162855744362, -0.08239398151636124, 0.004846506752073765, 0.08750320971012115, 0.08374711871147156, -0.11680243164300919, -0.08644207566976547, -0.02409486658871174, -0.09072591364383698, 0.10277549922466278, 0.1297301948070526, 0.12153714895248413, 0.0237687099725008, -0.0652700737118721, -0.11172177642583847, -0.014159215614199638, 0.11873352527618408, 0.07965803146362305, -0.006851575803011656, -0.05128112807869911, 0.006485422141849995, 0.05567287653684616, 0.02512717992067337, -0.05285625904798508, 0.04076314717531204], [0.10177227109670639, 0.003699212335050106, -0.11430709064006805, -0.07380233705043793, 0.0842084288597107, 0.0784449651837349, 0.07049886137247086, -0.06830611079931259, 0.010190663859248161, -0.08686228841543198, 0.03068597987294197, -0.11630675941705704, -0.08341103047132492, 0.038414474576711655, -0.07111718505620956, 0.06404074281454086, 0.06233316659927368, 0.08516273647546768, 0.09748300164937973, -0.021763859316706657, -0.01681150496006012, -0.010614783503115177, -0.09257320314645767, 0.016930099576711655, -0.07345342636108398, 0.11433085799217224, 0.12276080250740051, -0.054211631417274475, 0.026999687775969505, -0.10145984590053558, 0.11381430923938751, 0.004131508059799671, -0.08320632576942444, -0.1160261482000351, 0.09291451424360275, -0.02240048348903656, -0.03647975996136665, -0.07829775661230087, -0.002175403293222189, 0.04659290611743927, -0.02740827016532421, -0.11009056866168976, 0.07182472944259644, -0.06432311236858368, -0.0640486553311348, 0.04237862676382065, 0.07074223458766937, 0.11108194291591644, -0.04741450399160385, -0.1201578751206398, 0.05712733045220375, 0.0968024879693985, -0.028433455154299736, 0.07304409146308899, -0.04025208204984665, 0.03878394514322281, 0.1168968603014946, -0.11688528954982758, 0.12188968062400818, 0.06331568956375122], [-0.05155515670776367, 0.06157054752111435, 0.08087567239999771, 0.08074351400136948, -0.02954629249870777, -0.10347945988178253, 0.04371624067425728, -0.07564476132392883, 0.07150783389806747, -0.09017470479011536, -0.044703975319862366, 0.09384659677743912, 0.05190421640872955, -0.043705135583877563, -0.049827270209789276, 0.07934744656085968, 0.07662700861692429, 0.07498880475759506, 0.10854288190603256, 0.031001033261418343, 0.026403510943055153, 0.09932976216077805, 0.13264378905296326, 0.03173857927322388, -0.0437939390540123, 0.09607560932636261, -0.07652910053730011, -0.05635998770594597, 0.029514236375689507, 0.002966942498460412, -0.10178982466459274, 0.050741687417030334, -0.09619562327861786, -0.0742233470082283, 0.09189572185277939, -0.02609531208872795, 0.03184529393911362, -0.018142547458410263, -0.035311199724674225, 0.1152120903134346, 0.09635686874389648, -0.014524130150675774, -0.08133521676063538, 0.10143247991800308, -0.10982109606266022, -0.019876958802342415, 0.11975367367267609, -0.11931829154491425, -0.1248558759689331, 0.11023973673582077, -0.05356598645448685, 0.041410595178604126, 0.055008646100759506, 0.05655427649617195, 0.009557150304317474, -0.08503267914056778, 0.03341405838727951, 0.00738098006695509, -0.061098985373973846, 0.036984365433454514], [0.03751654922962189, 0.02833891101181507, 0.1137065663933754, 0.05455346405506134, -0.05683353543281555, 0.08214976638555527, 0.12165453284978867, 0.07166527956724167, 0.08807863295078278, 0.04397578164935112, -0.11713293939828873, 0.07506503164768219, 0.007486063987016678, -0.04923028126358986, 0.01537844818085432, 0.003484472632408142, -0.11678212136030197, 0.10899321734905243, -0.12977862358093262, -0.0669662207365036, -0.09789332002401352, -0.028243228793144226, -0.07728636264801025, 0.001940893940627575, 0.07193358242511749, -0.060537148267030716, -0.02190493419766426, -0.09157632291316986, 0.06956729292869568, 0.07896940410137177, 0.06506739556789398, 0.05032277852296829, 0.12146086990833282, -0.0971691682934761, 0.11134238541126251, -0.008982761763036251, 0.08493000268936157, -0.05635426193475723, 0.10856814682483673, 0.04285315051674843, -0.056976158171892166, 0.039375804364681244, 0.05260981619358063, -0.08298887312412262, -0.07551439851522446, -0.08036994934082031, 0.047028448432683945, -0.051298681646585464, 0.08893442153930664, 0.08929953724145889, 0.0680585578083992, -0.050728410482406616, 0.007850121706724167, -0.002890401054173708, -0.040799498558044434, 0.11276167631149292, 0.04325900226831436, 0.0735207051038742, -0.13825801014900208, -0.1341484636068344], [-0.052854444831609726, 0.09438122808933258, -0.0901842936873436, -0.032490938901901245, -0.04368866980075836, -0.028975293040275574, -0.02231573686003685, 0.12428578734397888, 0.09509260952472687, 0.10341814160346985, -0.08486895263195038, 0.12336643785238266, 0.13167926669120789, -0.018610047176480293, -0.049223463982343674, 0.09720070660114288, 0.09921355545520782, 0.025758223608136177, 0.10839905589818954, -0.01688351482152939, 0.05239491164684296, 0.019382398575544357, -0.0680360272526741, 0.13179434835910797, 0.11548483371734619, -0.08663705736398697, 0.08209364861249924, -0.0037302703130990267, -0.0724053755402565, -0.09793676435947418, -0.07953569293022156, 0.04540782421827316, -0.10442017018795013, -0.010665264911949635, -0.08753225207328796, 0.030387334525585175, 0.08382882922887802, -0.0926341786980629, 0.07631737738847733, 0.0040681795217096806, 0.12840978801250458, -0.01404852420091629, 0.0732344314455986, 0.045170772820711136, 0.021988356485962868, 0.022972458973526955, 0.09212541580200195, -0.051277633756399155, -0.0729212537407875, -0.024262648075819016, 0.05847221612930298, -0.08789467066526413, 0.04503900557756424, -0.05697362869977951, -0.022424858063459396, -0.0038409584667533636, -0.12860770523548126, 0.03239203616976738, -0.1242016926407814, -0.02134961076080799], [0.03763796389102936, 0.02360677905380726, 0.03382601588964462, -0.08748095482587814, -0.03710893914103508, 0.0014566683676093817, -0.003759050974622369, 0.07764410972595215, -0.10046349465847015, -0.08191516250371933, 0.053406089544296265, 0.08274488151073456, -0.09235785156488419, 0.05143217369914055, 0.07710662484169006, 0.05252477899193764, -0.09600839763879776, 0.0016212660120800138, -0.059621043503284454, -0.09981714189052582, -0.12644754350185394, 0.08584041893482208, -0.0707811489701271, 0.11687557399272919, 0.08481834083795547, -0.08535978198051453, -0.09757458418607712, 0.07892248779535294, -0.06193368881940842, -0.006284973584115505, -0.06640928238630295, -0.043076254427433014, 0.010261393152177334, -0.06229395046830177, -0.10347166657447815, 0.08731001615524292, 0.013936291448771954, 0.08490215986967087, -0.00934256985783577, 0.002124194521456957, 0.10660259425640106, -0.11842577904462814, 0.08006790280342102, 0.02136763371527195, -0.07876262068748474, 0.016499925404787064, 0.07140623778104782, -0.12651629745960236, 0.07126518338918686, -0.0984133630990982, -0.08640175312757492, 0.08689237385988235, -0.09536920487880707, -0.0663628801703453, 0.07290863245725632, -0.023852050304412842, 0.08971011638641357, 0.09819947183132172, -0.13537736237049103, 0.09559907019138336], [0.0450485423207283, -0.047896333038806915, 0.0909649059176445, -0.0700489804148674, -0.012363512068986893, 0.01754230074584484, 0.05912308394908905, -0.1230396032333374, -0.05699187144637108, -0.12402914464473724, -0.05399155989289284, -0.08755932748317719, -0.09576936066150665, -0.048617273569107056, -0.06135975942015648, -0.08239926397800446, -0.1293431967496872, -0.11908760666847229, -0.08435997366905212, 0.061969928443431854, -0.04671572893857956, -0.043477632105350494, -0.12293151021003723, 0.07211022078990936, -0.020859437063336372, -0.12091343849897385, 0.10330775380134583, -0.09905947744846344, -0.046563345938920975, -0.009070399217307568, 0.10194021463394165, -0.04517277330160141, -0.12450931966304779, -0.04076594114303589, 0.003139198524877429, 0.10815902054309845, -0.05489402636885643, 0.08339376002550125, -0.10677012801170349, -0.09986607730388641, 0.00432299729436636, 0.038504354655742645, 0.011721121147274971, 0.11547280848026276, 0.0009152438724413514, -0.11444982886314392, -0.05020461603999138, 0.11278795450925827, 0.0805242583155632, -0.01780005730688572, -0.026631390675902367, 0.0885271206498146, -0.09803702682256699, 0.027461742982268333, 0.09892387688159943, 0.0995463952422142, 0.084171362221241, 0.06583143025636673, 0.04217541590332985, 0.02795661985874176], [-0.08725971728563309, 0.08094394207000732, 0.06929623335599899, 0.11481454968452454, -0.0973450317978859, 0.1213502362370491, 0.0033764687832444906, 0.03464614227414131, 0.0698232427239418, -0.09034468978643417, 0.03706829249858856, -0.08245385438203812, 0.10176517069339752, 0.06859944015741348, -0.11052840203046799, -0.06257747113704681, -0.09947214275598526, 0.1248106136918068, 0.031531598418951035, -0.037670694291591644, -0.06622910499572754, 0.10875224322080612, -0.1002269834280014, -0.12885132431983948, -0.04232935607433319, -0.11752231419086456, 0.08894092589616776, 0.042910411953926086, -0.03829946368932724, -0.031731028109788895, -0.11677800863981247, 0.07444629073143005, -0.09258865565061569, -0.044642239809036255, -0.12369229644536972, 0.1111513152718544, -0.05143757537007332, 0.026115354150533676, -0.09884577989578247, 0.1200530007481575, -0.03138791769742966, 0.05133235082030296, 0.05642463266849518, 0.05123697966337204, 0.12916766107082367, -0.00878972839564085, 0.006749370601028204, 0.1309710144996643, -0.07591167837381363, -0.04059206694364548, 0.07121915370225906, 0.05576212704181671, 0.09181687235832214, 0.057206083089113235, 0.019714761525392532, 0.06272806227207184, -0.0720624178647995, -0.02846251055598259, -0.08432528376579285, -0.0015440736897289753], [0.10572542250156403, 0.12444834411144257, -0.10226190090179443, -0.11558211594820023, -0.11737014353275299, -0.11864154040813446, -0.08341434597969055, 0.09151139855384827, 0.1207432970404625, 0.10103275626897812, -0.11679725348949432, 0.041187334805727005, 0.11089464277029037, 0.0862986370921135, -0.0018724267138168216, -0.05093497037887573, -0.013698475435376167, 0.09668739140033722, -0.0843973159790039, -0.11036640405654907, -0.06850675493478775, 0.017116116359829903, 0.0938965231180191, 0.045318715274333954, -0.05917927622795105, -0.05213863402605057, 0.12920282781124115, 0.03358856216073036, 0.08038387447595596, 0.1261356770992279, 0.06874974817037582, 0.11842241883277893, 0.1066150888800621, 0.10950034111738205, 0.08489681780338287, 0.09708289802074432, -0.10506567358970642, 0.021702604368329048, 0.057591598480939865, 0.1341710090637207, 0.05778500810265541, 0.12499862164258957, -0.08033505827188492, 0.06430809944868088, 0.06246328726410866, -0.07954887300729752, 0.056315790861845016, -0.053484342992305756, 0.1318538933992386, -0.08331514149904251, 0.06501887738704681, 0.041677024215459824, 0.11412231624126434, 0.09367015212774277, -0.06328000128269196, 0.030782150104641914, -0.08987504988908768, -0.08201343566179276, 0.021192127838730812, -0.03919424116611481], [0.08541731536388397, 0.050020936876535416, 0.0004740624863188714, 0.044875603169202805, -0.040299344807863235, 0.0688900351524353, 0.13203369081020355, 0.013370051048696041, 0.09655331075191498, 0.09349007159471512, -0.045055605471134186, -0.03697647899389267, 0.09952950477600098, 0.12253064662218094, -0.07720008492469788, -0.09188511222600937, -0.10084501653909683, -0.1188281923532486, 0.10956961661577225, 0.08903566747903824, 0.0467417910695076, -0.04420021176338196, 0.07117485255002975, -0.07332421094179153, -0.061348773539066315, -0.03177812695503235, 0.10262113064527512, 0.019949937239289284, 0.1222340315580368, 0.06583618372678757, -0.07694708555936813, -0.06562697887420654, 0.11957167088985443, 0.009974696673452854, 0.01912720501422882, -0.08488226681947708, -0.07992910593748093, -0.015460480004549026, 0.09760662168264389, 0.036076076328754425, -0.06208818778395653, -0.0030570270027965307, -0.07281654328107834, 0.07962048798799515, 0.08400066941976547, -0.018315015360713005, -0.030833810567855835, 0.08064893633127213, 0.013425343669950962, -0.08700717985630035, 0.05908185616135597, -0.08527429401874542, -0.06767106801271439, 0.04491722956299782, -0.022226596251130104, 0.10522917658090591, -0.037046775221824646, -0.03204018250107765, -0.10753846168518066, -0.10921739041805267], [-0.11676783114671707, 0.05624835565686226, -0.11963459104299545, -0.01379961147904396, -0.0953412875533104, -0.09455164521932602, 0.05956156551837921, 0.015455578453838825, -0.0057278708554804325, -0.023092109709978104, -0.018041251227259636, 0.05764671042561531, 0.05383647605776787, 0.10624931007623672, 0.004679158329963684, -0.08249763399362564, 0.11950469762086868, 0.058998122811317444, -0.10146220028400421, 0.04946916177868843, -0.10438971221446991, -0.033442363142967224, -0.04566994309425354, 0.0949098989367485, -0.05853049084544182, 0.06880202144384384, 0.05653224140405655, 0.06437506526708603, 0.09630230069160461, -0.01457285601645708, -0.1228194534778595, 0.016814041882753372, 0.06843794137239456, 0.06049809977412224, 0.0828554630279541, 0.022411011159420013, 0.08126376569271088, 0.09169456362724304, 0.03572355583310127, 0.09719548374414444, 0.07248701900243759, 0.019326340407133102, 0.03519414737820625, -0.06390634179115295, 0.02037929557263851, -0.013650641776621342, -0.12266405671834946, -0.08322341740131378, 0.05364010110497475, -0.04333697631955147, 0.08538186550140381, -0.014641229063272476, 0.07080879807472229, -0.001930298050865531, 0.05097933113574982, -0.005905705504119396, 0.07509525120258331, -0.02256038226187229, -0.05047278478741646, -0.051164496690034866], [-0.03619363531470299, -0.07429414242506027, -0.007603205740451813, 0.10590720176696777, 0.05426502600312233, -0.03155108168721199, 0.016557635739445686, -0.022655894979834557, 0.03391726315021515, -0.09688016772270203, -0.10288704186677933, 0.13074028491973877, -0.03891313076019287, -0.016951531171798706, -0.009640337899327278, -0.0015856544487178326, 0.1266128271818161, 0.10034870356321335, 0.06032134220004082, 0.11736777424812317, 0.08901658654212952, 0.05658266693353653, -0.01847013086080551, -0.030416883528232574, -0.0017892656615003943, -0.010990750975906849, 0.03931258246302605, 0.1069992184638977, -0.054117098450660706, 0.031819891184568405, -0.0499793142080307, 0.12798407673835754, -0.06414812058210373, -0.11766728013753891, -0.006789610255509615, 0.10198181122541428, -0.06836748868227005, -0.05764247477054596, -0.0471951887011528, -0.10514028370380402, 0.04880018159747124, -0.030621157959103584, -0.07890097796916962, 0.08290520310401917, 0.040987029671669006, 0.04237546771764755, 0.0816703736782074, -0.0013142907992005348, 0.050515882670879364, 0.07025985419750214, 0.07759720087051392, -0.04328734427690506, -0.0757012665271759, 0.028442872688174248, 0.10792652517557144, -0.055183976888656616, -0.1003495454788208, -0.029242247343063354, 0.016658782958984375, 0.057151831686496735], [0.10250719636678696, -0.029680080711841583, 0.05405714362859726, -0.08623859286308289, 0.12962192296981812, 0.11067693680524826, 0.02599111944437027, 0.0641525462269783, 0.1252262145280838, -0.018410800024867058, -0.126756951212883, -0.018536027520895004, -0.09074494987726212, -0.11610178649425507, 0.10385214537382126, -0.039926204830408096, 0.04398541525006294, 0.12566280364990234, 0.05704878270626068, 0.06104964762926102, 0.03770408779382706, 0.10622306913137436, 0.024493305012583733, 0.11540570855140686, -0.01691105030477047, 0.09705670922994614, -0.08069867640733719, -0.02581016533076763, 0.05211123451590538, -0.09766613692045212, -0.07998934388160706, -0.04451243579387665, -0.07531469315290451, 0.1317088007926941, -0.014714586548507214, -0.04044937714934349, 0.0011395980836823583, -0.11798291653394699, 0.04384198039770126, -0.08219851553440094, 0.10978467762470245, -0.019277498126029968, -0.059511106461286545, -0.08045545965433121, 0.09941323846578598, -0.08679548650979996, -0.06881394982337952, -0.010450940579175949, 0.021559681743383408, -0.0848335549235344, -0.009177940897643566, -0.0055544436909258366, -0.06001127511262894, -0.06382530927658081, -0.07040131092071533, -0.08388195186853409, 0.0652635470032692, -0.009976116009056568, -0.04554526507854462, -0.1521298587322235], [-0.06072068586945534, -0.11400949954986572, 0.011724255979061127, -0.04761343076825142, -0.09995421022176743, -0.06462394446134567, 0.04387630149722099, 0.10397844016551971, 0.05213968828320503, 0.09991317987442017, 0.13024546205997467, 0.11193437874317169, -0.041989732533693314, -0.010261253453791142, -0.06213301792740822, -0.06957706809043884, -0.1169980987906456, -0.08697830885648727, -0.09599535912275314, -0.06171061098575592, -0.06789050996303558, -0.023905841633677483, -0.11719602346420288, 0.05483488738536835, 0.05868065729737282, 0.1115325316786766, 0.055300552397966385, 0.013072265312075615, 0.05279168114066124, 0.08008305728435516, -0.0821363776922226, 0.12308520823717117, 0.056023359298706055, 0.041841499507427216, 0.12207171320915222, 0.11866199970245361, -0.07272332906723022, -0.1254701465368271, 0.10157432407140732, 0.007191127631813288, 0.04503457248210907, -0.0397518090903759, -0.040090736001729965, 0.06717299669981003, 0.1261422336101532, 0.09869871288537979, -0.04181423783302307, 0.0939861536026001, 0.0892280712723732, 0.10588231682777405, -0.029305221512913704, -0.0992894172668457, -0.11213318258523941, -0.03769652545452118, 0.11688303202390671, 0.10052850097417831, 0.10366440564393997, -0.026391442865133286, -0.0949852466583252, -0.10572759062051773], [-0.08470993489027023, -0.09700178354978561, 0.058281175792217255, 0.12809956073760986, 0.01609119400382042, -0.034099072217941284, 0.10030730813741684, 0.045049820095300674, -0.09238667041063309, 0.06256483495235443, -0.1187450960278511, -0.12394170463085175, -0.09796842932701111, 0.013788320124149323, -2.8710142942145467e-05, 0.1162429079413414, -0.03570752590894699, 0.11243898421525955, 0.04760159179568291, -0.08279627561569214, 0.09296942502260208, -0.03394657373428345, 0.06497302651405334, 0.022145532071590424, -0.02436688356101513, 0.006022427696734667, 0.04293738678097725, 0.12054499238729477, -0.10379589349031448, -0.1266268938779831, -0.023521466180682182, -0.09091390669345856, 0.03759775683283806, 0.05532647669315338, -0.020925836637616158, -0.10104092210531235, -0.08753960579633713, 0.07797673344612122, -0.02350575290620327, 0.08161456137895584, 0.035020776093006134, -0.020815568044781685, -0.0025224967394024134, -0.045044951140880585, 0.06894925236701965, -0.10059115290641785, 0.0922243744134903, 0.009201295673847198, 0.08819840103387833, -0.08287057280540466, -0.06282133609056473, 0.0015164309879764915, 0.07995422929525375, 0.11740823090076447, 0.05267975479364395, 0.12909604609012604, -0.05794457718729973, -0.028452718630433083, 0.11249761283397675, -0.08998081833124161], [-0.06463326513767242, 0.0026821354404091835, -0.0008722582133486867, 0.025166651234030724, 0.07488003373146057, 0.10322412103414536, 0.09642356634140015, -0.06626169383525848, -0.06264124810695648, -0.05765534192323685, -0.024014146998524666, -0.09890460222959518, 0.05565483495593071, -0.008567760698497295, 0.03909355774521828, 0.05901390314102173, 0.11034305393695831, 0.12947063148021698, 0.09558917582035065, 0.1262902021408081, -0.07049805670976639, 0.1192486435174942, 0.10056474804878235, 0.05664660036563873, -0.09888976067304611, -0.04154469072818756, -0.09508536010980606, 0.07825063169002533, 0.01972087100148201, -0.0575103685259819, 0.11346171051263809, 0.008924233727157116, -0.09362716972827911, 0.021782534196972847, -0.09162402153015137, 0.048485442996025085, 0.03399593010544777, -0.09450633078813553, -0.09292092174291611, -0.010461251251399517, -0.0790577307343483, -0.060425132513046265, -0.11302213370800018, 0.0753995031118393, 0.007911685854196548, -0.04326259344816208, -0.054932400584220886, -0.07939545810222626, -0.0798306092619896, -0.1134689524769783, -0.011784710921347141, 0.047433920204639435, 0.039060335606336594, 0.05475771427154541, 0.10938113182783127, -0.09105817973613739, -0.0587114617228508, 0.03648466244339943, -0.06947063654661179, 0.05181454122066498], [0.028891269117593765, -0.09030121564865112, -0.01689951866865158, 0.033980842679739, -0.060753367841243744, -0.030868040397763252, -0.1330236941576004, -0.00021559977903962135, 0.03831721097230911, -0.09605883806943893, -0.05885881930589676, -0.009167213924229145, 0.03522016108036041, -0.12773191928863525, 0.0563650019466877, -0.11286900192499161, -0.017470763996243477, 0.027267102152109146, 0.03300115466117859, -0.06077103689312935, -0.03339752182364464, -0.08196994662284851, -0.026968292891979218, 0.11626846343278885, 0.06702741235494614, 0.06562194973230362, -0.012569751590490341, 0.12375784665346146, 0.07489031553268433, -0.0491897389292717, -0.03691348806023598, 0.033538781106472015, -0.027936892583966255, 0.11691606044769287, 0.11088897287845612, -0.08922122418880463, 0.09517795592546463, 0.06538265198469162, 0.07084356248378754, 0.1151517778635025, 0.09733983874320984, 0.010990675538778305, -0.04655773192644119, 0.09668940305709839, -0.05936574935913086, 0.10500126332044601, 0.046632684767246246, 0.08037841320037842, -0.004513778258115053, -0.023691482841968536, -0.026144172996282578, -0.03543485701084137, 0.004228098783642054, -0.025867942720651627, 0.04502220079302788, 0.11351507902145386, -0.04959459975361824, -0.029331902042031288, 0.03860640153288841, 0.02545093558728695], [0.09674098342657089, 0.09451737999916077, 0.11512070894241333, -0.030456850305199623, 0.05185701325535774, -0.07165496051311493, -0.10475359857082367, 0.10397937893867493, -0.06854364275932312, -0.008225890807807446, 0.015672380104660988, 0.06642566621303558, 0.10556069016456604, 0.08615977317094803, 0.11380196362733841, 0.023542920127511024, 0.07168428599834442, 0.03581107780337334, 0.12360570579767227, 0.04329802840948105, -0.09775307029485703, 0.0978715792298317, 0.07314706593751907, 0.04622107371687889, 0.05848085135221481, 0.05279874429106712, 0.07138767838478088, 0.0759243369102478, 0.043975964188575745, -0.11841324716806412, 0.09606407582759857, 0.11277104914188385, -0.11371172964572906, -0.1012338176369667, -0.005379312206059694, 0.041625943034887314, -0.10923539102077484, -0.08999234437942505, 0.1124444305896759, -0.12143301218748093, -0.00882704183459282, 0.054288364946842194, -0.12213260680437088, 0.07628518342971802, -0.0704488605260849, 0.06764538586139679, 0.11253447085618973, 0.07375156134366989, 0.029209734871983528, -0.018375469371676445, -0.06962290406227112, 0.0702766627073288, 0.07429313659667969, 0.0007350678206421435, -0.016598569229245186, 0.047288570553064346, -0.052765801548957825, 0.09091733396053314, -0.09844888001680374, 0.09911531209945679], [0.10819479078054428, -0.09324092417955399, -0.05241861566901207, 0.032506342977285385, -0.125226691365242, 0.0924108549952507, 0.09716517478227615, -0.034211136400699615, -0.06250890344381332, 0.05256523936986923, 0.12153651565313339, -0.11745531857013702, 0.0024548741057515144, -0.09831713885068893, -0.10793126374483109, 0.08179917186498642, 0.04568976163864136, -0.0072659822180867195, -0.007033859379589558, -0.08949843049049377, 0.0803547203540802, -0.017271822318434715, 0.08040431141853333, 0.015100101009011269, 0.06093301624059677, -0.02046486735343933, -0.02603158913552761, 0.03862764686346054, -0.11121781170368195, -0.1322704702615738, 0.11859836429357529, -0.03966940566897392, -0.06609082967042923, -0.030826076865196228, 0.048180390149354935, 0.005457071587443352, -0.002523791277781129, -0.10898507386445999, -0.06138215586543083, 0.10815979540348053, -0.01634693145751953, 0.10109059512615204, -0.07506020367145538, 0.11377496272325516, 0.08255162835121155, 0.06790970265865326, 0.06265027821063995, 0.05378234013915062, -0.08550843596458435, 0.09435544162988663, -0.05918119102716446, -0.044904179871082306, 0.043568260967731476, 0.018955325707793236, 0.03750795125961304, -0.03444451838731766, -0.049489304423332214, 0.049789343029260635, 0.03710537031292915, -0.016477249562740326], [-0.03786763176321983, 0.06834569573402405, 0.12917642295360565, -0.0914037749171257, -0.11628592759370804, 0.0592777319252491, -0.12064651399850845, 0.07397422939538956, 0.12904039025306702, -0.06080121174454689, 0.07520005106925964, -0.062049444764852524, 0.06328523904085159, -0.017901787534356117, 0.09811103343963623, -0.1099523976445198, -0.06487379223108292, 0.10930830985307693, -0.12389639765024185, 0.08668241649866104, -0.004188072867691517, 0.11057521402835846, 0.04168540611863136, 0.09251587092876434, -0.04555089771747589, 0.10737019777297974, -0.0794035792350769, -0.10473889857530594, 0.06409698724746704, 0.02788025140762329, -0.053924810141325, -0.05618474632501602, -0.06521721184253693, 0.0425899475812912, -0.00037193691241554916, -0.10911422967910767, 0.13142473995685577, 0.04509224742650986, 0.11782877147197723, 0.12732475996017456, -0.08429951220750809, 0.08901989459991455, 0.07238214462995529, -0.08464058488607407, 0.007002677768468857, 0.07231523841619492, 