{"net.0.weight": [[0.07326667010784149, -0.07190670073032379, -0.05511032044887543, -0.0379672572016716, 0.030277786776423454, 0.025076214224100113, 0.10542771965265274, -0.09736304730176926, 0.03492308408021927, 0.1229342371225357, -0.016913004219532013, -0.016667919233441353, -0.1175866350531578, 0.1274775117635727, 0.07880722731351852, 0.07983666658401489, -0.11903361976146698, 0.01801530458033085, 0.07862761616706848, -0.010250949300825596, 0.038932692259550095, 0.0511888712644577, -0.10363105684518814, -0.062217216938734055, -0.04872589185833931, -0.011785206384956837, 0.08362948149442673, -0.09053308516740799, 0.10464590042829514, -0.11449827253818512, -0.1369277983903885, 0.07540958374738693, -0.01613399013876915, 0.030821170657873154, 0.0035494547337293625, 0.010016034357249737, -0.1135164201259613, 0.01441172230988741, -0.08782865107059479, -0.16597600281238556, -0.10745476186275482, 0.020340140908956528, -0.034092050045728683, -0.03789443522691727, -0.09932471811771393, -0.23337484896183014, -0.0385943204164505, -0.246819406747818, -0.22434653341770172, -0.22033999860286713, -0.1082899421453476, -0.14185211062431335, 0.045522283762693405, 0.010491072200238705, 0.005523868836462498, 0.08439157158136368, -0.022588925436139107, -0.13172289729118347, -0.10383027046918869, -0.02328658103942871], [-0.14585644006729126, -0.032286714762449265, -0.09080921858549118, 0.01841123402118683, 0.05301247164607048, 0.07496800273656845, 0.065673828125, -0.004103419836610556, -0.07466436922550201, -0.06886804103851318, 0.07706029713153839, -0.11388847976922989, 0.07109136879444122, -0.11257694661617279, -0.1327056735754013, -0.03524235635995865, 0.11932427436113358, -0.07935398817062378, 0.1309545934200287, 0.11111635714769363, 0.09687478840351105, -0.002674305345863104, 0.012924660928547382, 0.061739642173051834, -0.09230189770460129, -0.05589292198419571, -0.012710708193480968, 0.16176998615264893, -0.024988001212477684, -0.07825085520744324, 0.09368723630905151, 0.13912813365459442, 0.0011713620042428374, -0.04974634200334549, 0.1576472669839859, 0.07639510929584503, 0.044246599078178406, 0.07886357605457306, 0.10345688462257385, 0.15055598318576813, 0.03958815336227417, 0.0711861252784729, 0.13063248991966248, 0.08987937122583389, 0.21860170364379883, 0.14035280048847198, 0.23469705879688263, 0.19541038572788239, 0.2819470763206482, 0.25534236431121826, 0.19660133123397827, 0.052231814712285995, 0.285284161567688, 0.1400979906320572, 0.10590954124927521, 0.1639327108860016, 0.031085792928934097, 0.17750711739063263, 0.13150283694267273, 0.014343969523906708], [0.1170990914106369, -0.095923513174057, -0.040565215051174164, -0.05509025231003761, -0.017025599256157875, 0.037035904824733734, -0.005937308073043823, 0.049214109778404236, -0.04649677872657776, -0.0207904651761055, 0.08910923451185226, -0.004507767967879772, 0.11328127235174179, -0.06849075853824615, -0.07569189369678497, -0.07091428339481354, 0.07351360470056534, 0.16204951703548431, 0.020296940580010414, 0.14949919283390045, 0.02936595119535923, -0.04152373597025871, 0.03250011056661606, -0.08770791441202164, -0.01577877253293991, 0.1273057758808136, 0.08205817639827728, -0.08574385195970535, -0.015871522948145866, -0.04714062064886093, 0.010010186582803726, -0.02702074870467186, 0.20784112811088562, -0.04765566810965538, 0.05936960130929947, -0.049817342311143875, 0.1365671008825302, 0.23670904338359833, 0.07837208360433578, 0.15362827479839325, 0.20457422733306885, 0.13887977600097656, 0.2610476613044739, 0.2726913094520569, 0.2723183035850525, 0.0683092474937439, 0.13537730276584625, 0.17522694170475006, 0.027311677113175392, 0.1368672251701355, -0.074152372777462, 0.029178587719798088, -0.08768153190612793, 0.06819985806941986, 0.01891470141708851, -0.10431759804487228, 0.03997143357992172, 0.070667564868927, 0.09073631465435028, -0.012051411904394627], [-0.07623187452554703, -0.010074987076222897, -0.08490654081106186, 0.0561249665915966, -0.08920953422784805, -0.0077605522237718105, 0.029927313327789307, -0.020845601335167885, -0.07829941809177399, -0.044131092727184296, 0.03318224847316742, 0.05128873139619827, -0.008900430053472519, 0.03195936605334282, 0.08771669864654541, 0.07135521620512009, -0.08775687217712402, -0.05681959539651871, 0.08014816790819168, 0.1267867386341095, 0.12164946645498276, 0.055711694061756134, 0.14030799269676208, 0.18467849493026733, 0.07061867415904999, 0.051488544791936874, 0.11413397639989853, -0.04596346989274025, 0.054142165929079056, -0.034345414489507675, -0.10116314888000488, 0.03224543109536171, 0.010557865723967552, 0.12480005621910095, -0.027952205389738083, 0.09509356319904327, 0.09852194041013718, 0.07033529877662659, -0.044729989022016525, 0.026452848687767982, 0.08846314251422882, -0.03441422060132027, 0.03709788993000984, -0.03279043361544609, 0.12869895994663239, -0.03237450495362282, 0.19649119675159454, 0.16185234487056732, 0.17889544367790222, -0.01583685912191868, -0.06459011882543564, 0.0527697317302227, -0.07242172211408615, -0.1870652288198471, -0.2293182611465454, -0.13774169981479645, -0.3014955222606659, -0.28049737215042114, -0.4578057825565338, -0.505725085735321], [0.14409200847148895, 0.13435722887516022, 0.01437058299779892, 0.10475364327430725, 0.1199999451637268, -0.03387337923049927, 0.12756529450416565, 0.016047634184360504, 0.223397895693779, 0.051344189792871475, 0.024028291925787926, -0.06826028227806091, 0.08276980370283127, 0.019939716905355453, -0.049637529999017715, 0.16124048829078674, 0.15152020752429962, 0.11564028263092041, 0.15570397675037384, 0.06941169500350952, 0.2462208867073059, 0.14505866169929504, 0.13216286897659302, 0.013969150371849537, 0.1574958711862564, 0.10807447135448456, 0.145290806889534, 0.09210117906332016, 0.09301071614027023, 0.1542283594608307, 0.13860072195529938, 0.2266066074371338, 0.08408889174461365, 0.07148020714521408, 0.16888269782066345, 0.17952510714530945, 0.024093272164463997, 0.24268563091754913, 0.23244816064834595, 0.22371171414852142, 0.08578725159168243, -0.007078117225319147, 0.0743243545293808, -0.04037051275372505, -0.026250600814819336, -0.056366853415966034, 0.09304550290107727, 0.11450482904911041, -0.03076493740081787, 0.08473113179206848, -0.05505688115954399, 0.029875051230192184, -0.10024801641702652, -0.16302163898944855, -0.17208482325077057, -0.023599840700626373, -0.0007025297963991761, -0.06286493688821793, -0.07657521963119507, 0.01681485027074814], [0.002123736310750246, -0.1155957281589508, 0.020978894084692, 0.06501875072717667, -0.0151763204485178, -0.13472436368465424, 0.023774798959493637, -0.0997283086180687, 0.06205366551876068, -0.19759678840637207, -0.15667717158794403, -0.03150379657745361, -0.07641641050577164, -0.10315582901239395, -0.05469128489494324, -0.030694447457790375, -0.10337865352630615, -0.015031172893941402, -0.028816111385822296, -0.04000931978225708, -0.15041738748550415, -0.10633702576160431, -0.03272518515586853, -0.19966667890548706, -0.028889207169413567, -0.14891862869262695, -0.03898712992668152, -0.0059067560359835625, -0.20968303084373474, -0.14444534480571747, 0.04380308836698532, -0.17651744186878204, -0.12374375760555267, -0.08422563225030899, -0.08190258592367172, -0.08174216002225876, 0.03621504828333855, 0.014901013113558292, 0.02843783237040043, -0.039335817098617554, -0.1266966015100479, -0.1254347860813141, 0.14276358485221863, 0.09393741935491562, -0.03357386961579323, 0.16596847772598267, 0.07842396199703217, 0.12380148470401764, -0.007403144147247076, -0.03271130472421646, -0.06877652555704117, 0.027839655056595802, -0.1831226497888565, -0.21712851524353027, -0.2563937306404114, -0.282706618309021, -0.27242395281791687, -0.1466294229030609, -0.15148739516735077, -0.042241353541612625], [0.10532790422439575, 0.05234599858522415, -0.011979088187217712, 0.10991596430540085, 0.06880265474319458, 0.02634287253022194, 0.018990108743309975, 0.12509118020534515, 0.09200111776590347, 0.02975388430058956, 0.07578230649232864, 0.03675010800361633, 0.13906265795230865, -0.01564590260386467, 0.12125350534915924, -0.06804201006889343, -0.041962750256061554, 0.027444813400506973, 0.12737731635570526, 0.07818573713302612, 0.1606622338294983, 0.06355011463165283, -0.053352512419223785, 0.18306367099285126, 0.05185677111148834, 0.11521041393280029, 0.11422137171030045, 0.18112725019454956, -0.058684151619672775, 0.1535787284374237, 0.03148508444428444, 0.10014443099498749, 0.027092890813946724, 0.15038582682609558, 0.13654114305973053, 0.08311117440462112, 0.044206954538822174, 0.18744418025016785, 0.09515086561441422, 0.09170538932085037, 0.10482364147901535, 0.1370416283607483, 0.09391232579946518, -0.023075511679053307, -0.08997654914855957, -0.08787906169891357, -0.03469724580645561, -0.034068405628204346, -0.09686233848333359, -0.045359399169683456, -0.04245131090283394, 0.06863761693239212, 0.03191617876291275, -0.05039082467556, 0.10785003006458282, 0.12915939092636108, 0.16352900862693787, -0.052660416811704636, -0.20690733194351196, -0.2043364942073822], [-0.10482656210660934, -0.17856186628341675, -0.03783216327428818, -0.15148702263832092, 0.06834610551595688, 0.08554167300462723, -0.1307760775089264, -0.008411102928221226, -0.1820518523454666, -0.09799326211214066, -0.1848832070827484, -0.07402662187814713, -0.12867793440818787, -0.03916725143790245, -0.21298013627529144, -0.16969650983810425, -0.0025743201840668917, -0.0807015523314476, -0.03326867148280144, -0.20345447957515717, -0.216585174202919, -0.14525103569030762, -0.14505180716514587, -0.16208235919475555, -0.05198884382843971, -0.13003167510032654, -0.0206298790872097, -0.06842184066772461, -0.0446704737842083, -0.14947012066841125, -0.014991926960647106, -0.09929107129573822, 0.026232199743390083, -0.18268021941184998, -0.21091318130493164, -0.23497186601161957, 0.010260544717311859, 0.026884354650974274, 0.04547163099050522, -0.1481817364692688, 0.01153065636754036, -0.05591880530118942, -0.04857511818408966, 0.028112847357988358, -0.12044186890125275, -0.1652081310749054, -0.20668791234493256, -0.17754940688610077, -0.026003379374742508, -0.11219105869531631, -0.04332045093178749, -0.08588553965091705, 0.01259058341383934, -0.037354763597249985, 0.12524859607219696, 0.12591952085494995, -0.0660969614982605, -0.09853081405162811, 0.10547575354576111, 0.13905169069766998], [-0.018028955906629562, 0.14670032262802124, 0.14516346156597137, 0.10769429057836533, 0.06071952357888222, -0.039327215403318405, 0.13892123103141785, 0.14750458300113678, 0.11030977219343185, -0.025449072942137718, 0.16096699237823486, -0.00969272293150425, 0.12924864888191223, 0.08670877665281296, -0.003436141647398472, -0.08665159344673157, 0.03982582688331604, 0.04920206964015961, -0.09266479313373566, 0.13367103040218353, 0.08860696107149124, 0.09947485476732254, -0.0381770059466362, 0.146520733833313, -0.028364283964037895, -0.07163737714290619, 0.15102934837341309, 0.1391683965921402, -0.06430096924304962, 0.11370181292295456, 0.13851398229599, 0.10810216516256332, 0.09148038923740387, 0.1317531168460846, 0.07777494937181473, -0.032605767250061035, -0.11991076916456223, -0.03318815305829048, 0.014243695884943008, 0.07245979458093643, 0.09051861613988876, -0.09166515618562698, -0.010904675349593163, 0.11358983814716339, 0.17961734533309937, 0.21798571944236755, 0.14123964309692383, 0.14627616107463837, 0.039388030767440796, 0.20962190628051758, 0.11640610545873642, 0.08048760145902634, 0.16462889313697815, 0.1913859248161316, -0.027714379131793976, -0.019906772300601006, -0.021907972171902657, -0.08463777601718903, 0.06124096363782883, -0.12044157832860947], [0.08998502045869827, 0.14415250718593597, 0.14495816826820374, 0.15716862678527832, 0.09281763434410095, 0.06492024660110474, 0.03746814653277397, -0.04337214305996895, 0.1677350550889969, 0.17022466659545898, 0.11218926310539246, 0.02195058949291706, -0.021689919754862785, 0.152271568775177, 0.133324533700943, 0.2026630938053131, 0.14738036692142487, 0.0774378702044487, 0.019017687067389488, 0.1318877935409546, 0.12076977640390396, 0.04690318554639816, 0.18274423480033875, 0.10898955166339874, 0.19001421332359314, 0.19425731897354126, -0.03383671119809151, 0.1247706487774849, 0.14989076554775238, 0.010472316294908524, 0.10657364130020142, 0.21275028586387634, 0.2092142552137375, 0.0149233378469944, 0.025004010647535324, 0.12279386818408966, 0.20529663562774658, -0.028590984642505646, -0.005660593044012785, -0.03251436725258827, 0.12713804841041565, 0.1727375090122223, 0.06886759400367737, -0.020230621099472046, -0.01422622799873352, 0.1333526223897934, -0.06117942929267883, 0.1156584620475769, -0.061218369752168655, 0.049557723104953766, 0.1174982562661171, -0.08908016979694366, -0.09395015239715576, 0.13473591208457947, 0.09048371016979218, 0.12430251389741898, 0.04294217377901077, 0.07969053834676743, 0.08217338472604752, -0.11035603284835815], [-0.005280962213873863, 0.2125648558139801, 0.15939664840698242, 0.1155952587723732, 0.09529735893011093, 0.32702791690826416, 0.27689027786254883, 0.23699231445789337, 0.2708936035633087, 0.09859133511781693, 0.2220553457736969, 0.08351968973875046, 0.0954379066824913, 0.2635839283466339, 0.13413245975971222, 0.0985105037689209, 0.031092176213860512, 0.144576758146286, 0.06872901320457458, 0.11188122630119324, 0.059055887162685394, 0.1684567779302597, 0.01815657690167427, -0.005893011577427387, 0.037000447511672974, 0.16585788130760193, 0.08207398653030396, 0.05929911881685257, 0.07603566348552704, -0.04303867742419243, 0.013111282140016556, 0.16887082159519196, 0.014033928513526917, -0.07313080132007599, -0.0890798345208168, -0.0643596276640892, -0.08736146986484528, -0.033741068094968796, -0.06386096030473709, -0.14247675240039825, -0.1822616457939148, 0.062383800745010376, -0.009611973538994789, -0.07548366487026215, 0.08189624547958374, 0.02556583099067211, 0.14237497746944427, -0.0321771539747715, -0.04224785044789314, 0.10929112881422043, 0.13839343190193176, 0.1969604641199112, -0.02384115383028984, 0.12183631211519241, 0.13105295598506927, -0.04970240965485573, 0.13408009707927704, 0.020287148654460907, -0.07107555866241455, 0.02715349942445755], [0.16270366311073303, 0.24791765213012695, 0.10647261142730713, 0.2851371765136719, 0.14659762382507324, 0.19679604470729828, 0.2955930829048157, 0.17649485170841217, 0.2983820140361786, 0.15839914977550507, 0.05410049110651016, 0.006222215015441179, 0.12054077535867691, 0.173448383808136, 0.03445218503475189, 0.18923033773899078, 0.023500455543398857, 0.15731820464134216, 0.12363064289093018, 0.08947304636240005, 0.20372647047042847, 0.15741905570030212, 0.09967239946126938, 0.21965640783309937, 0.0800156444311142, 0.20794516801834106, 0.11664485186338425, 0.16949091851711273, 0.0056136604398489, -0.04019898548722267, 0.0331975519657135, -0.03341630473732948, 0.0629870668053627, 0.09530290216207504, -0.0029932246543467045, -0.026120074093341827, -0.05458437651395798, 0.15125040709972382, 0.17286820709705353, -0.050501346588134766, -0.007715543266385794, 0.06264277547597885, 0.08665497601032257, 0.12285203486680984, -0.02734551578760147, -0.03281450644135475, -0.05921163037419319, 0.04273735731840134, -0.11799584329128265, 0.10174672305583954, -0.08760064840316772, 0.017342811450362206, 0.13493689894676208, 0.03567492961883545, -0.029815666377544403, 0.1395704746246338, 0.008058199658989906, 0.18313142657279968, 0.14112883806228638, 0.016950950026512146], [-0.030127089470624924, -0.02002902701497078, -0.007684412412345409, 0.07354363799095154, 0.06688465178012848, 0.10495831072330475, 0.031365759670734406, 0.2500933110713959, 0.0012542129261419177, 0.21227505803108215, 0.09588523954153061, 0.0210122037678957, 0.11937528848648071, 0.0038437703624367714, 0.18215858936309814, 0.13557949662208557, 0.23040913045406342, 0.1295393407344818, 0.13086377084255219, 0.07505503296852112, 0.09481929987668991, 0.15871794521808624, 0.03173654526472092, 0.058784790337085724, 0.059279970824718475, 0.11793844401836395, 0.0855788141489029, 0.08281171321868896, 0.21117690205574036, 0.2073066532611847, 0.18863078951835632, 0.20562207698822021, 0.1917933225631714, 0.01270467322319746, -0.019459320232272148, -0.012338826432824135, 0.04795229807496071, -0.02785182185471058, -0.0342550128698349, 0.1350313127040863, 0.132568359375, 0.12046292424201965, -0.05244568735361099, 0.04916476085782051, 0.0033346442505717278, 0.18196062743663788, 0.05787493661046028, -0.03355231136083603, 0.1087295264005661, 0.1417912244796753, 0.06353273242712021, 0.1252414733171463, -0.03719636797904968, 0.16884802281856537, 0.13265149295330048, 0.21021679043769836, 0.19534456729888916, 0.03828011080622673, 0.051413532346487045, -0.15246683359146118], [-0.22553743422031403, -0.023432839661836624, -0.10500060021877289, -0.060731519013643265, -0.16022443771362305, -0.16599470376968384, 0.023632584139704704, 0.0007244633743539453, -0.002612563781440258, -0.06456167250871658, -0.09657071530818939, -0.0007734686369076371, -0.10440550744533539, -0.171845942735672, -0.16992627084255219, 0.06507819890975952, -0.07558800280094147, -0.060186319053173065, -0.08337417244911194, 0.07695656269788742, 0.07256484776735306, -0.10646574199199677, -0.00038497018977068365, -0.07316935062408447, 0.1183289885520935, 0.09831471741199493, -0.06021806225180626, 0.008372442796826363, -0.081531822681427, 0.03933966904878616, 0.019819699227809906, 0.0857749879360199, -0.09916651993989944, -0.03852491080760956, 0.03746933117508888, -0.14071312546730042, -0.05742037296295166, -0.07911978662014008, -0.0608019083738327, -0.1815401017665863, -0.11434248089790344, -0.19805718958377838, 0.02925020642578602, -0.11961576342582703, -0.17884193360805511, -0.18522444367408752, -0.20662252604961395, -0.2363283336162567, -0.15799519419670105, -0.02355824038386345, -0.20206472277641296, -0.11182937771081924, -0.22519268095493317, -0.15496614575386047, -0.0920429602265358, 0.07093114405870438, -0.04912526160478592, -0.033871229737997055, 0.17843174934387207, 0.0868065282702446], [-0.020699393004179, -0.06726737320423126, -0.08067183196544647, -0.12917621433734894, -0.12388841807842255, 0.04364864528179169, 0.04712167754769325, -0.09909899532794952, 0.03540205582976341, -0.08414103090763092, -0.012370884418487549, -0.12435821443796158, 0.10601834952831268, 0.058876827359199524, -0.08821827918291092, -0.0242107342928648, -0.017000600695610046, 0.11138865351676941, 0.0964001938700676, -0.03854900971055031, -0.061611201614141464, -0.012797201052308083, 0.03834265097975731, -0.029126359149813652, 0.09531218558549881, -0.03448290005326271, -0.002252541948109865, 0.13896992802619934, -0.015380660071969032, 0.15204790234565735, 0.03138270974159241, -0.0344860777258873, 0.15584105253219604, 0.09965373575687408, -0.08828116208314896, 0.08079887926578522, 0.1362098902463913, 0.16345374286174774, 0.07497039437294006, -0.024547802284359932, -0.00806376338005066, 0.23360568284988403, 0.25906628370285034, 0.11533447355031967, 0.17866350710391998, 0.39200708270072937, 0.3273423910140991, 0.29995936155319214, 0.27404022216796875, 0.19961178302764893, 0.22109252214431763, 0.23851317167282104, -0.010853218846023083, -0.04111523926258087, -0.05911656841635704, 0.1208423525094986, 0.12345863878726959, -0.00016133404278662056, 0.10210683196783066, 0.04489198699593544], [0.1284487396478653, -0.09273120015859604, 0.09321904927492142, -0.028903475031256676, -0.0935315191745758, 0.10717861354351044, 0.04922870546579361, -0.10830820351839066, 0.1210169568657875, 0.11077509820461273, 0.005320845637470484, 0.09037388861179352, -0.11389493197202682, 0.11489781737327576, 0.06159686669707298, 0.11468932032585144, -0.06628234684467316, 0.07870292663574219, 0.08899492770433426, -0.06458483636379242, 0.07177995145320892, -0.08759606629610062, 0.10233733057975769, 0.05366403982043266, -0.1258537620306015, -0.04581538960337639, -0.17932330071926117, 0.04587521776556969, 0.035360824316740036, -0.035798080265522, -0.05043993517756462, -0.16598135232925415, -0.10637665539979935, -0.18929074704647064, -0.08904604613780975, 0.007408693432807922, -0.11171045899391174, -0.05066801607608795, 0.0024272261653095484, -0.26273393630981445, -0.21227328479290009, -0.18492363393306732, -0.19542630016803741, -0.16987833380699158, -0.07698631286621094, -0.26906195282936096, -0.2020488828420639, -0.31152716279029846, -0.1996644139289856, -0.29132282733917236, -0.19200186431407928, -0.1622367799282074, -0.17607802152633667, -0.07654280960559845, -0.0769786462187767, -0.10968422889709473, 0.04804990440607071, -0.07130472362041473, 0.027036268264055252, 0.06703022122383118], [-0.23806250095367432, -0.05242292582988739, -0.03797726705670357, -0.06785528361797333, -0.09734337031841278, -0.15702243149280548, -0.07060638070106506, -0.04463149979710579, -0.048362087458372116, -0.06261014938354492, -0.20803862810134888, -0.15378615260124207, -0.23936381936073303, -0.023356331512331963, -0.12692469358444214, -0.0985725075006485, -0.18431206047534943, -0.025541475042700768, -0.19875502586364746, -0.2137153297662735, -0.22134272754192352, -0.11995195597410202, -0.02682054415345192, -0.14316388964653015, -0.024720389395952225, -0.02674315683543682, -0.02276010438799858, -0.1779496669769287, -0.11664999276399612, -0.019864516332745552, -0.13592825829982758, 0.03557905927300453, -0.028905637562274933, -0.04007260128855705, -0.15588566660881042, -0.21012839674949646, -0.026077238842844963, -0.09454228729009628, -0.047117963433265686, 0.06438343971967697, 0.053251415491104126, 0.0466291643679142, 0.07074226438999176, 0.013128098100423813, 0.11771950125694275, -0.1144440621137619, -0.015809282660484314, 0.10314659029245377, -0.06003087759017944, 0.01991519145667553, 0.040852293372154236, 0.04249018430709839, -0.003413243917748332, -0.09092599898576736, -0.1382489949464798, -0.005358616355806589, -0.16521237790584564, -0.18674960732460022, -0.1548762321472168, 0.06785070151090622], [0.034591563045978546, 0.03903153911232948, -0.06972846388816833, 0.03268241137266159, 0.08724577724933624, 0.1580820530653, 0.006644752342253923, 0.07929597049951553, -0.026432551443576813, 0.12808799743652344, -0.03991366922855377, -0.01677304320037365, 0.1232510507106781, 0.0730837732553482, 0.09914819896221161, 0.04743343964219093, 0.05026774853467941, -0.09853201359510422, -0.07275750488042831, -0.13817448914051056, 0.09873104840517044, 0.09013329446315765, 0.04401600360870361, 0.0010642451234161854, -0.08432307839393616, -0.10698269307613373, -0.07755177468061447, -0.2653665244579315, -0.19924120604991913, -0.20444905757904053, -0.15072089433670044, -0.12454686313867569, -0.0113673759624362, -0.2618255615234375, -0.18487006425857544, -0.2932434380054474, -0.20357979834079742, -0.21779412031173706, -0.03247866779565811, -0.12244337797164917, -0.2590048909187317, -0.16519610583782196, -0.17632417380809784, -0.13086338341236115, -0.04617983102798462, -0.03493843227624893, -0.06196042522788048, -0.04861661046743393, -0.2328687310218811, -0.20905818045139313, -0.1160457655787468, -0.30770325660705566, -0.28285035490989685, -0.13750022649765015, -0.06022888422012329, -0.0002000827225856483, -0.07572013139724731, -0.14111316204071045, 0.02901606261730194, 0.08547160774469376], [0.051823824644088745, 0.0019931297283619642, -0.10709862411022186, -0.09448126703500748, -0.04416169598698616, 0.06980032473802567, -0.04519367590546608, 0.16997919976711273, 0.08694137632846832, 0.10414668917655945, 0.02283943071961403, -0.03320883587002754, 0.015151102095842361, 0.1483975648880005, 0.03012152947485447, 0.0932643786072731, -0.07469304651021957, 0.04840049892663956, -0.08515777438879013, 0.1149660125374794, -0.09374171495437622, -0.02267112210392952, -0.006344348657876253, -0.0687941163778305, -0.04689779132604599, -0.032427821308374405, -0.001466867863200605, -0.10672222077846527, -0.021749474108219147, 0.13054871559143066, 0.032626669853925705, -0.05760074034333229, 0.03350275754928589, 0.07713835686445236, 0.01617281883955002, 0.04963798448443413, 0.020020656287670135, 0.029077334329485893, 0.07794710993766785, 0.12389899790287018, -0.0030599916353821754, 0.07577840238809586, 0.05472565442323685, 0.10707302391529083, -0.005793947260826826, 0.11356174200773239, 0.21205152571201324, 0.1800697296857834, 0.12676621973514557, 0.19751933217048645, 0.14196641743183136, 0.2914169430732727, 0.22660186886787415, 0.3767118752002716, 0.2208288609981537, 0.25863081216812134, 0.24980276823043823, 0.07971726357936859, 0.07432206720113754, -0.0034737212117761374], [-0.01105621736496687, 0.024326108396053314, 0.08698870241641998, 0.05261842533946037, -0.012751838192343712, 0.13098973035812378, 0.08946598321199417, -0.046073198318481445, 0.12917903065681458, 0.13063588738441467, 0.00262054824270308, 0.008846303448081017, 0.15527284145355225, -0.05952906981110573, -0.09808813780546188, 0.0675533190369606, 0.16418106853961945, 0.14365439116954803, 0.03556369990110397, -0.041558388620615005, -0.028355464339256287, 0.059361428022384644, -0.01561320386826992, 0.1180945336818695, 0.11030897498130798, 0.11450616270303726, 0.11653134971857071, 0.023787561804056168, -0.0006300364038906991, 0.006303068716078997, 0.17483177781105042, 0.13029830157756805, 0.18973255157470703, 0.037930652499198914, 0.05919618532061577, 0.047485023736953735, 0.1501128375530243, 0.13350389897823334, 0.23514841496944427, 0.1997992843389511, 0.1803383231163025, 0.02878786064684391, 0.21238823235034943, 0.24010977149009705, 0.03181491047143936, 0.20122598111629486, -0.04139895364642143, -0.0006097962614148855, 0.11002930253744125, 0.07911939918994904, -0.09480376541614532, 0.03647049516439438, -0.07907161116600037, 0.10394945740699768, -0.07950911670923233, 0.02049754373729229, 0.04134982451796532, 0.14572812616825104, 0.07530754059553146, -0.017811842262744904], [-0.01037816982716322, 0.2184751182794571, -0.011121167801320553, 0.21391414105892181, 0.20655111968517303, 0.10575004667043686, 0.22087492048740387, 0.24497666954994202, 0.06920428574085236, 0.02757176198065281, 0.1646425724029541, -0.0552084743976593, 0.00035424166708253324, 0.16488446295261383, 0.08037196099758148, 0.08990605920553207, 0.06598766148090363, 0.1343025267124176, 0.06233301758766174, 0.16073106229305267, 0.13016605377197266, 0.1682138890028, 0.10004206746816635, 0.12312080711126328, 0.07329735159873962, -0.03926653414964676, 0.0881088599562645, 0.07132305949926376, 0.07365196943283081, 0.02476009912788868, 0.18105930089950562, 0.1942829191684723, -0.053307872265577316, 0.18053893744945526, -0.05067240446805954, 0.14252345263957977, 0.09709656983613968, 0.16635718941688538, 0.061568982899188995, -0.04261057823896408, -0.045104820281267166, -0.09921290725469589, -0.06901191920042038, -0.0439855121076107, 0.1165783479809761, 0.028862008824944496, 0.023111984133720398, -0.11956893652677536, -0.018770435824990273, 0.01387536246329546, 0.09410195797681808, 0.003334062872454524, -0.1237415298819542, -0.04326464608311653, 0.09705372154712677, 0.030800454318523407, 0.17563067376613617, 0.05985788628458977, 0.1481168270111084, 0.07252416014671326], [-0.1999925971031189, 0.028366349637508392, -0.07939663529396057, -0.13783875107765198, 0.05764704942703247, -0.1846616119146347, -0.10016080737113953, -0.011127481237053871, -0.12278688699007034, -0.17034220695495605, -0.14939895272254944, -0.05478241294622421, -0.06639739871025085, -0.14972549676895142, 0.039582040160894394, 0.028436332941055298, -0.10102557390928268, 0.04023139551281929, 0.022089676931500435, 0.05478091910481453, -0.029521716758608818, -0.0801609680056572, -0.11095938086509705, 0.005348327104002237, 0.0660373866558075, -0.009027971886098385, 0.06633739918470383, 0.03853841498494148, 0.09593276679515839, 0.07594560831785202, -0.041021548211574554, 0.18809150159358978, 0.04305896908044815, 0.0891370102763176, -0.09426073729991913, 0.0713023915886879, 0.05890568718314171, -0.054919976741075516, 0.11285383999347687, -0.09041943401098251, 0.0289057157933712, -0.12723173201084137, 0.09465807676315308, 0.043569691479206085, -0.05689428746700287, 0.07602746039628983, -0.0740523412823677, 0.02345810830593109, 0.0003193166048731655, -0.04254288226366043, -0.24388015270233154, -0.2270812690258026, -0.06585583090782166, -0.20573543012142181, -0.25323590636253357, -0.22524958848953247, -0.18564361333847046, 0.08403809368610382, 0.1845184713602066, 0.18517044186592102], [-0.1677449494600296, -0.016067005693912506, -0.1590808928012848, -0.022297602146863937, 0.003418769221752882, -0.19659820199012756, -0.0880284532904625, -0.18740232288837433, -0.16341525316238403, 0.01336574275046587, -0.14463627338409424, -0.1806998997926712, -0.14293067157268524, -0.09466628730297089, -0.116463303565979, -0.22500839829444885, -0.07760541886091232, -0.1490963101387024, -0.044037770479917526, -0.03822299838066101, -0.08981212228536606, -0.1825655698776245, -0.1239297017455101, -0.08935196697711945, 0.03309515118598938, -0.07997047156095505, -0.14903970062732697, -0.02729068510234356, -0.02732318453490734, -0.1138835921883583, 0.06617671996355057, 0.02299204282462597, 0.08244361728429794, 0.016653165221214294, 0.006691843271255493, -0.01345845963805914, 0.017833631485700607, 0.05337882414460182, 0.09907574206590652, -0.10285299271345139, -0.00696843396872282, -0.05170537531375885, 0.09667245298624039, 0.099331334233284, 0.06503814458847046, 0.0820721760392189, -0.020300837233662605, -0.12019018083810806, -0.12623926997184753, -0.1544455736875534, -0.026397692039608955, -0.1937091052532196, -0.16199485957622528, -0.1398693472146988, 0.09755215793848038, -0.13758282363414764, -0.12388469278812408, -0.035058263689279556, 0.11356879770755768, 0.1832800954580307], [-0.20667822659015656, -0.15087060630321503, -0.19283562898635864, -0.17652486264705658, -0.2156379371881485, -0.20323263108730316, -0.12833304703235626, 0.018340541049838066, -0.14641529321670532, -0.16604401171207428, -0.0976967066526413, -0.24705247581005096, -0.05038189888000488, -0.21088576316833496, -0.1177562028169632, -0.19615265727043152, -0.06383367627859116, -0.016228200867772102, -0.14965611696243286, 0.006183730438351631, -0.028338216245174408, 0.06990860402584076, -0.14029717445373535, -0.0657348707318306, -0.041356686502695084, 0.056801002472639084, -0.01594248227775097, -0.01753481663763523, -0.17632387578487396, 0.05362297594547272, -0.03564576804637909, -0.05740981921553612, 0.032940708100795746, -0.22737565636634827, -0.0799601823091507, -0.1370927095413208, -0.1155913844704628, 0.01396589819341898, -0.022571254521608353, 0.020954741165041924, -0.017924556508660316, -0.16761642694473267, -0.13044394552707672, -0.1382647156715393, -0.07807274162769318, -0.1286386251449585, -0.03819630295038223, -0.06276214122772217, -0.04072805121541023, -0.11581025272607803, 0.06305983662605286, -0.055821847170591354, 0.07366299629211426, -0.00703394552692771, 0.15279129147529602, 0.12119323015213013, 0.19769781827926636, 0.2182634472846985, 0.13311970233917236, 0.1283765286207199], [-0.054337337613105774, -0.129677414894104, -0.11810234189033508, -0.14439161121845245, -0.07518365979194641, -0.06377674639225006, -0.09359026700258255, 0.04241325333714485, 0.04510105028748512, -0.11807083338499069, 0.08179226517677307, -0.09746471047401428, -0.09801606088876724, -0.058581724762916565, -0.1278390884399414, 0.022886084392666817, 0.053129687905311584, -0.037210267037153244, 0.09824149310588837, -0.1403474509716034, 0.003413793398067355, -0.10655644536018372, -0.08591670542955399, 0.10239820927381516, -0.02233913168311119, 0.09878633171319962, 0.11270257830619812, 0.009406174533069134, 0.08720754832029343, 0.05631475895643234, 0.06352721154689789, -0.0035324301570653915, 0.05034063756465912, -0.008618983440101147, -0.10047009587287903, -0.10876927524805069, 0.06765680760145187, 0.0182510893791914, 0.07418685406446457, 0.04971877112984657, -0.016576336696743965, -0.06159807741641998, 0.049025386571884155, -0.09513437002897263, -0.03615956753492355, 0.02156946063041687, 0.026280466467142105, -0.2034001350402832, -0.10277284681797028, -0.16355697810649872, -0.18142400681972504, -0.21370208263397217, -0.13269644975662231, -0.1815803349018097, -0.15223224461078644, -0.1469120979309082, -0.06490544974803925, 0.07495470345020294, -0.03212263807654381, -0.02475554123520851], [-0.07613266259431839, -0.04309244826436043, -0.02577604539692402, -0.0014284311328083277, -0.04329962283372879, 0.10786498337984085, 0.13512226939201355, 0.14810609817504883, 0.016948377713561058, 0.1451222002506256, -0.023710990324616432, -0.015417647548019886, 0.06146036833524704, -0.0006766375154256821, -0.07835114747285843, -0.05663486570119858, -0.03203166648745537, 0.0585453100502491, -0.12239522486925125, -0.021730856969952583, 0.1125226616859436, -0.09793586283922195, 0.06335113942623138, 0.042767710983753204, -0.11041248589754105, 0.020100804045796394, 0.11000660061836243, 0.11099350452423096, 0.09470049291849136, 0.12993952631950378, 0.18188907206058502, 0.17403864860534668, 0.06684484332799911, 0.04911905527114868, -0.033027492463588715, -0.00801763590425253, 0.11284904927015305, 0.08282898366451263, 0.24770592153072357, 0.1868218332529068, 0.21301914751529694, 0.22744806110858917, 0.12863288819789886, 0.1692424863576889, 0.1520058512687683, 0.2224135398864746, 0.16454896330833435, 0.07447987049818039, -0.04012420400977135, -0.01418798603117466, -0.07444771379232407, -0.017204072326421738, 0.028623495250940323, -0.08760882914066315, 0.07718169689178467, 0.12777549028396606, 0.03680763021111488, -0.10778161883354187, 0.006248908583074808, -0.17215076088905334], [0.1328880935907364, -0.019237982109189034, 0.10585355758666992, -0.031801071017980576, -0.06084471940994263, 0.05808527022600174, -0.02852071449160576, 0.055754683911800385, -0.01686559058725834, 0.06591299921274185, -0.05224011093378067, 0.09033787250518799, 0.14574956893920898, 0.09901770204305649, 0.15357685089111328, 0.08266667276620865, -0.06857521831989288, -0.10205753147602081, 0.06925474107265472, 0.04038962349295616, 0.004625194706022739, -0.052135612815618515, -0.0788779929280281, -0.01519852876663208, -0.010723937302827835, 0.0773121565580368, 0.12896621227264404, -0.09689934551715851, 0.06028391048312187, 0.11660879105329514, -0.04076730087399483, 0.10465309023857117, 0.05629482865333557, 0.045346859842538834, -0.007258271332830191, -0.047048259526491165, 0.1412610113620758, 0.07966301590204239, 0.07087197154760361, -0.04187072813510895, -0.11387074738740921, 0.07902711629867554, -0.009459258057177067, -0.07432980090379715, -0.14067919552326202, -0.11544729024171829, 0.020875439047813416, -0.026436297222971916, 0.04543646052479744, -0.021546609699726105, -0.0804523304104805, 0.07773056626319885, -0.1278836727142334, 0.039425328373909, -0.030931197106838226, -0.18500210344791412, -0.2596990466117859, -0.1598120927810669, -0.4054901897907257, -0.29339638352394104], [0.04780413955450058, 0.04817153513431549, 0.21038420498371124, 0.02649695985019207, -0.007209479808807373, 0.06134447827935219, 0.09975667297840118, 0.12629427015781403, 0.2366708368062973, 0.11536675691604614, 0.11951453983783722, 0.0011061616241931915, 0.14205510914325714, 0.09967990219593048, 0.10908275097608566, -0.018582506105303764, 0.20539933443069458, 0.19384971261024475, 0.045150093734264374, 0.014877301640808582, 0.19587117433547974, 0.2451411783695221, 0.06925974786281586, 0.12418630719184875, 0.08998873829841614, 0.3172941505908966, 0.15983010828495026, 0.2525317668914795, 0.0667930319905281, 0.3575846552848816, 0.360416054725647, 0.40440353751182556, 0.22039048373699188, 0.1945161372423172, 0.23201227188110352, 0.27332690358161926, 0.16469980776309967, 0.3257617950439453, 0.2595071494579315, 0.06962577998638153, 0.18773308396339417, 0.13387161493301392, -0.015896009281277657, -0.04763047397136688, -0.06249639391899109, 0.0539308600127697, 0.008330876007676125, 0.02580847777426243, 0.05632106959819794, 0.04098499193787575, -0.025045275688171387, -0.09926534444093704, 0.0007803121116012335, -0.10563407838344574, 0.023953694850206375, -0.06365428119897842, 0.05836605653166771, -0.09310680627822876, -0.0724756270647049, -0.12344295531511307], [-0.035716135054826736, 0.12080754339694977, 0.12387721985578537, -0.022026337683200836, -0.09503575414419174, 0.02996526099741459, 0.0427250936627388, -0.01058514416217804, 0.01333582866936922, 0.08273986726999283, 0.10126443952322006, -0.0031193443574011326, -0.0064064753241837025, -0.012245644815266132, -0.06882651150226593, -0.1745775043964386, -0.17455674707889557, -0.18893206119537354, -0.01632891781628132, 0.02403874322772026, -0.1628207266330719, 0.011154788546264172, -0.10768680274486542, -0.08881514519453049, -0.16778436303138733, -0.04759709909558296, -0.1185058206319809, 0.05832059681415558, 0.04855163022875786, -0.10205579549074173, -0.17018833756446838, -0.05482833459973335, -0.01313735917210579, -0.1666775345802307, -0.06705234944820404, -0.019087277352809906, -0.14195452630519867, -0.1102328896522522, -0.18604907393455505, -0.12253189086914062, -0.15131443738937378, -0.17917890846729279, -0.11484174430370331, -0.18474747240543365, -0.3267938494682312, -0.12243504822254181, -0.1717960089445114, -0.22580845654010773, -0.07184559851884842, -0.16400115191936493, -0.2693888545036316, -0.08737900108098984, -0.20935548841953278, -0.15772363543510437, -0.007137395907193422, 0.05849790573120117, 0.012849572114646435, -0.00030821136897429824, -0.03902260214090347, 0.0018148384988307953], [0.1395092010498047, 0.0565437413752079, 0.11286544799804688, 0.007946648634970188, -0.04007367417216301, -0.006886253133416176, 0.003613689448684454, -0.030914682894945145, 0.08821097761392593, -0.06270166486501694, 0.1743282675743103, 0.15935096144676208, 0.14783379435539246, 0.07096470892429352, -0.05662437528371811, 0.08952304720878601, 0.04247245565056801, -0.08940277248620987, 0.16621825098991394, -0.038268838077783585, -0.008548312820494175, 0.16916070878505707, 0.020843517035245895, -0.032419733703136444, -0.07524532824754715, 0.14375558495521545, 0.049823276698589325, -0.01105493400245905, 0.04957100749015808, -0.03169494867324829, -0.026523208245635033, 0.02158781886100769, 0.14049798250198364, 0.0019389210501685739, 0.029909910634160042, -0.056832242757081985, 0.04524189606308937, 0.07908173650503159, 0.027902645990252495, 0.0015890039503574371, -0.10944832116365433, -0.025501929223537445, -0.13639192283153534, -0.027987519279122353, -0.15568214654922485, 0.037398792803287506, 0.042384736239910126, -0.029489930719137192, -0.09177690744400024, 0.039890583604574203, 0.0732894241809845, 0.09032044559717178, 0.09084244072437286, -0.014579434879124165, 0.0692623034119606, -0.1770685911178589, -0.03292614221572876, -0.2858700156211853, -0.35310471057891846, -0.39128366112709045], [-0.04368084669113159, -0.1303233504295349, 0.06749065965414047, 0.11386007815599442, 0.040477145463228226, 0.13925427198410034, 0.02374955266714096, 0.15221811830997467, 0.10569676756858826, 0.04480898380279541, 0.09502141922712326, 0.05420881137251854, 0.08297204971313477, -0.039142850786447525, 0.09166575223207474, 0.16593539714813232, 0.14658071100711823, 0.18613648414611816, 0.07065390795469284, 0.12436860054731369, 0.0685027614235878, 0.15415233373641968, 0.15082234144210815, 0.0922960638999939, 0.06274448335170746, -0.020774152129888535, 0.0965198427438736, 0.06705731153488159, 0.16571354866027832, 0.08357981592416763, 0.13991186022758484, 0.018668020144104958, 0.08669440448284149, -0.02433139458298683, 0.06148134171962738, 0.13776680827140808, 0.043311458081007004, 0.1014334186911583, 0.11266983300447464, 0.07104671001434326, 0.021169478073716164, 0.14088454842567444, 0.16510990262031555, 0.07154456526041031, 0.03627856448292732, 0.022429529577493668, 0.10400217771530151, 0.007848985493183136, 0.04431295767426491, 0.058548036962747574, 0.08874098211526871, 0.05269596725702286, 0.15688952803611755, 0.20687180757522583, 0.11801943182945251, 0.13038843870162964, 0.18504978716373444, 0.0769469141960144, -0.04207448288798332, 0.060597699135541916], [-0.2589578926563263, -0.056498829275369644, -0.27401816844940186, -0.2800554931163788, -0.22869491577148438, -0.1964043378829956, -0.06399735808372498, -0.1591438353061676, -0.06894992291927338, -0.025557756423950195, -0.02312461845576763, -0.08917805552482605, -0.23187631368637085, -0.24882514774799347, -0.05987901985645294, -0.0461912676692009, -0.13044755160808563, -0.0612039715051651, -0.060895733535289764, 0.03883128613233566, -0.029628772288560867, -0.15418271720409393, 0.011993837542831898, -0.16315433382987976, -0.08370766043663025, -0.01808272860944271, -0.006698578130453825, 0.04883534088730812, -0.10603553801774979, 0.05833326280117035, 0.0008475290378555655, -0.026692191138863564, 0.041018784046173096, -0.023244548588991165, 0.00026379944756627083, -0.09205756336450577, -0.08948835730552673, 0.07261018455028534, 0.09417472034692764, -0.058799952268600464, 0.1459955871105194, 0.12292855232954025, 0.12028630822896957, 0.10511957854032516, 0.2233247309923172, 0.17617958784103394, 0.1275710016489029, 0.14159640669822693, 0.1000010073184967, -0.039929650723934174, -0.02516118437051773, 0.13527141511440277, 0.19338801503181458, 0.31342804431915283, 0.1848548799753189, 0.14365659654140472, 0.16643761098384857, 0.11408951878547668, 0.20798002183437347, 0.20505523681640625], [-0.05795924365520477, 0.013338715769350529, -0.026622042059898376, 0.060351695865392685, 0.01780567318201065, -0.14024366438388824, -0.09396188706159592, -0.17348186671733856, -0.11728794872760773, 0.018072720617055893, -0.04539412260055542, 0.010040130466222763, -0.038190197199583054, -0.018414761871099472, -0.1566045582294464, -0.11434599757194519, -0.08032923191785812, -0.051780253648757935, -0.05583396181464195, -0.2616328299045563, -0.12553885579109192, -0.0738794356584549, -0.09687454253435135, -0.1769629865884781, -0.24904845654964447, -0.17244142293930054, -0.1557133048772812, -0.33754533529281616, -0.124086394906044, -0.13526849448680878, -0.19116029143333435, -0.07956477254629135, -0.0992053970694542, -0.20965179800987244, -0.009887102991342545, -0.028215426951646805, -0.21381832659244537, -0.04500904679298401, -0.02954050712287426, 0.005017029121518135, -0.07427167147397995, -0.06480802595615387, -0.05540359020233154, -0.145154669880867, 0.08746416121721268, -0.07579034566879272, 0.0055207726545631886, 0.13256515562534332, -0.034707892686128616, 0.06813903152942657, -0.03444119542837143, 0.11302880197763443, 0.11465438455343246, 0.054327256977558136, -0.11331383883953094, -0.031200088560581207, -0.11238858103752136, -0.15307284891605377, -0.3152185082435608, -0.363692045211792], [0.04793185740709305, 0.13448315858840942, 0.14629243314266205, 0.13176265358924866, -0.0004453613073565066, 0.16747476160526276, 0.004231660161167383, -0.020333079621195793, 0.008946781046688557, 0.017042791470885277, 0.04715508967638016, 0.06361459195613861, 0.1283651441335678, 0.08678022027015686, 0.12312810868024826, -0.08505742996931076, 0.11006978154182434, -0.08009691536426544, 0.10058534145355225, -0.08410532027482986, -0.019067347049713135, 0.10179910063743591, 0.04639679566025734, 0.08092251420021057, 0.055079031735658646, 0.03380291536450386, -0.010837442241609097, -0.00996484886854887, -0.06681427359580994, 0.00014734911383129656, 0.11177258938550949, 0.1906374841928482, 0.1120581105351448, 0.023911969736218452, 0.15032397210597992, 0.09008169174194336, 0.028569675981998444, 0.09148769080638885, 0.1919931322336197, 0.038920093327760696, 0.20722323656082153, -0.01654950901865959, 0.156693696975708, 0.2033291459083557, 0.15723702311515808, 0.18591076135635376, 0.1793474704027176, 0.12306758016347885, 0.08202144503593445, 0.14072315394878387, -0.06609432399272919, 0.03600858151912689, 0.05889556556940079, -0.1226344108581543, -0.03726259618997574, -0.014966332353651524, 0.017642393708229065, -0.07923061400651932, 0.17877690494060516, 0.032701730728149414], [0.1413780003786087, 0.13765530288219452, -0.0314122810959816, 0.19708970189094543, 0.08740831911563873, 0.16437071561813354, 0.022978773340582848, 0.038314927369356155, 0.09158743172883987, 0.05052407830953598, 0.07378732413053513, 0.036016203463077545, 0.1074841320514679, 0.1383565068244934, 0.04542849212884903, 0.20215295255184174, 0.17604508996009827, 0.18508806824684143, -0.052829764783382416, 0.14668366312980652, -0.007059237454086542, 0.13456043601036072, 0.14209021627902985, 0.06212740018963814, 0.10641436278820038, 0.043209124356508255, 0.05388524755835533, 0.07220742851495743, -0.06658243387937546, 0.07144434750080109, 0.0806175246834755, -0.07747232168912888, 0.17840582132339478, 0.17944908142089844, 0.16820752620697021, 0.0060414159670472145, 0.0784263163805008, -0.04575240984559059, -0.011447584256529808, -0.09109161049127579, -0.02309640869498253, -0.12885606288909912, -0.010010020807385445, 0.034594301134347916, 0.0627182200551033, -0.08537714183330536, -0.16610504686832428, -0.19114378094673157, -0.24122288823127747, -0.17723260819911957, -0.24193161725997925, -0.05545713007450104, -0.26976537704467773, -0.14289501309394836, -0.10079297423362732, -0.10854307562112808, -0.16402728855609894, -0.014504991471767426, 0.041199278086423874, -0.0262746624648571], [-0.04785259813070297, 0.02039986103773117, 0.18935967981815338, 0.1015305370092392, 0.021666230633854866, 0.09568734467029572, 0.17341363430023193, 0.05491471663117409, 0.19911040365695953, 0.1251375824213028, -0.06424298882484436, 0.008132996037602425, 0.06637074798345566, 0.013265324756503105, 0.10130294412374496, 0.1241234540939331, 0.04387865588068962, -0.0663960799574852, -0.07686933875083923, 0.09057658910751343, 0.06624894589185715, 0.16407756507396698, 0.005878622177988291, -0.029482733458280563, -0.031290553510189056, 0.11470333486795425, -0.001306298654526472, 0.12447556108236313, -0.0026847629342228174, 0.19753167033195496, 0.10127269476652145, 0.13215264678001404, 0.0860159695148468, 0.12889447808265686, -0.06086358055472374, 0.15587471425533295, 0.12282007932662964, 0.1306733638048172, 0.18877333402633667, 0.007009501568973064, -0.026684168726205826, 0.15990467369556427, 0.020675256848335266, 0.047544848173856735, -0.005865197163075209, 0.097824826836586, -0.036855194717645645, -0.035799477249383926, -0.03957453370094299, 0.15148621797561646, -0.0738169252872467, 0.1520683318376541, 0.08303268253803253, 0.10510479658842087, 0.1179807260632515, 0.018937692046165466, -0.03258880600333214, -0.10203900933265686, -0.21443569660186768, -0.07546079903841019], [0.08675173670053482, 0.034669212996959686, 0.13089729845523834, 0.09104197472333908, -0.09504833817481995, -0.11401621997356415, -0.09391947835683823, -0.029856599867343903, 0.06876560300588608, -0.04785831272602081, -0.09461049735546112, 0.14097289741039276, 0.07221806049346924, -0.04478705674409866, 0.04041460156440735, 0.12549251317977905, 0.12451473623514175, -0.03780416399240494, 0.04872708395123482, 0.13675148785114288, -0.09957852214574814, -0.03636607527732849, -0.05208159610629082, 0.12595921754837036, -0.06915254145860672, 0.10102427005767822, -0.051207076758146286, -0.08684314787387848, 0.07759121060371399, -0.048289705067873, 0.03484500199556351, -0.05146881192922592, 0.07903359085321426, -0.13827671110630035, 0.02287529967725277, 0.08890067040920258, -0.14935587346553802, 0.0337560772895813, -0.15749001502990723, -0.15116998553276062, -0.07069234549999237, -0.12827780842781067, -0.23029065132141113, -0.24011549353599548, -0.12233588844537735, -0.1405075341463089, -0.09605790674686432, -0.16830028593540192, -0.08795925229787827, -0.007523996755480766, -0.08510610461235046, -0.04049285128712654, -0.13948729634284973, -0.02986007370054722, -0.09878622740507126, -0.09769013524055481, 0.06880927085876465, 0.046916574239730835, 0.09285243600606918, -0.04106772691011429], [0.16500043869018555, 0.1587848663330078, 0.06581000983715057, 0.13793353736400604, -0.008909126743674278, 0.15716351568698883, -0.05413965880870819, 0.12759196758270264, 0.010055516846477985, -0.07158355414867401, 0.018011603504419327, 0.10441670566797256, 0.13420815765857697, -0.04077417403459549, -0.04741869866847992, 0.02819262258708477, 0.17239324748516083, 0.04724275693297386, 0.16256219148635864, 0.004843425936996937, -0.07321231067180634, 0.008092612959444523, -0.07790479063987732, -0.026494791731238365, 0.06187307462096214, 0.01696028746664524, 0.0900111198425293, 0.0535714365541935, 0.08863173425197601, -0.1056138277053833, 0.042593106627464294, 0.09422961622476578, -0.025358296930789948, -0.07682660967111588, -0.10373923182487488, 0.03572007641196251, -0.005970998667180538, 0.08795426040887833, -0.0649050623178482, -0.027774950489401817, 0.09799943119287491, 0.020017702132463455, 0.09650667756795883, -0.05687577277421951, 0.037525780498981476, 0.0023657989222556353, -0.09385991096496582, -0.13178788125514984, -0.15926823019981384, -0.1271013617515564, 0.08442927151918411, 0.10688435286283493, 0.061851419508457184, 0.13538993895053864, 0.22276920080184937, 0.17484848201274872, 0.07172681391239166, 0.07177206873893738, 0.017690544947981834, -0.19487890601158142], [-0.16294534504413605, -0.16094240546226501, -0.06533598899841309, 0.04631980136036873, -0.11292421817779541, -0.10188798606395721, -0.12492174655199051, -0.007761336863040924, -0.10910173505544662, 0.0372394397854805, -0.03285786509513855, -0.0976351723074913, -0.09586260467767715, -0.1630316823720932, 0.04319122061133385, -0.12733155488967896, -0.09241016954183578, -0.04385419934988022, 0.08346722275018692, 0.07983449846506119, 0.03470854461193085, -0.041851919144392014, -0.14909930527210236, 0.036773934960365295, 0.0519472137093544, -0.1389145851135254, 0.0502115935087204, -0.09048976749181747, -0.15458464622497559, -0.0673656314611435, 0.04010946303606033, -0.1241159588098526, -0.016887011006474495, 0.04360462352633476, 0.005965433083474636, -0.10850419104099274, -0.09977569431066513, -0.10546017438173294, -0.07859624922275543, -0.21058237552642822, -0.1133766770362854, -0.20483529567718506, -0.07695598900318146, -0.10300782322883606, -0.10819194465875626, -0.022476334124803543, -0.12195475399494171, -0.13958609104156494, -0.18732035160064697, -0.08660583198070526, -0.2482641339302063, -0.09842612594366074, -0.15451182425022125, -0.09195546805858612, -0.15899136662483215, -0.1537812501192093, 0.053986214101314545, 0.10982774943113327, 0.1327148973941803, 0.0027901281137019396], [0.0008238974842242897, -0.16137996315956116, -0.12358152866363525, -0.19571788609027863, -0.10397949069738388, -0.05104231461882591, -0.13819706439971924, -0.03990422934293747, -0.0947699323296547, -0.02345947176218033, -0.21660557389259338, -0.09380693733692169, -0.25142940878868103, -0.14681416749954224, -0.20334188640117645, -0.03473556786775589, -0.20344504714012146, -0.15638475120067596, -0.07071304321289062, -0.04575556889176369, -0.05402606725692749, -0.030112875625491142, -0.22105050086975098, -0.21950480341911316, -0.25110530853271484, -0.011308043263852596, -0.00978647917509079, -0.10771102458238602, -0.21448618173599243, -0.004432323854416609, -0.1844085454940796, -0.11421704292297363, 0.04703669622540474, -0.17685092985630035, -0.16114245355129242, -0.06702553480863571, -0.04105410352349281, -0.19666515290737152, 0.03876512125134468, -0.15025150775909424, -0.12105293571949005, -0.18597367405891418, -0.05957693234086037, 0.05654236301779747, -0.010500045493245125, 0.03484928235411644, -0.1400899887084961, -0.06658551841974258, 0.04701414331793785, -0.06473581492900848, -0.1274263858795166, 0.02742442488670349, -0.09562475979328156, 0.0730987936258316, 0.10718276351690292, 0.006219917442649603, -0.011917532421648502, 0.13874292373657227, 0.11937551200389862, 0.16017386317253113], [-0.27048197388648987, -0.06844375282526016, -0.13711778819561005, -0.12177547067403793, -0.216920405626297, -0.21327564120292664, 0.014548443257808685, 0.008674614131450653, -0.16722752153873444, -0.05860137194395065, -0.186139777302742, -0.26063838601112366, -0.05971258878707886, -0.09012705087661743, -0.10388312488794327, -0.07105838507413864, -0.07270395010709763, -0.14186207950115204, -0.029326166957616806, -0.07222160696983337, -0.15876279771327972, -0.0791647881269455, -0.1478670835494995, -0.1759670078754425, -0.1400168538093567, -0.0745779424905777, 0.01734944060444832, 0.038728829473257065, -0.05998532101511955, 0.024964570999145508, 0.04349661245942116, 0.07290615141391754, -0.0920414850115776, -0.07263486832380295, -0.04136822372674942, -0.13359755277633667, -0.10004289448261261, -0.05131324753165245, -0.0789295881986618, -0.1295834183692932, 0.004051574971526861, -0.14391642808914185, 0.09861260652542114, -0.0933079794049263, 0.07763411849737167, 0.11045065522193909, 0.12671343982219696, 0.06002407521009445, -0.10053766518831253, -0.046618301421403885, -0.1350962221622467, 0.02427578903734684, 0.08344690501689911, -0.09979123622179031, -0.05847448855638504, -0.0523664690554142, -0.12472646683454514, 0.11659952253103256, -0.01745668798685074, 0.10041958838701248], [-0.018254801630973816, 0.1585829257965088, -0.009349220432341099, 0.1865781545639038, 0.22565260529518127, 0.17680898308753967, 0.10982070863246918, 0.14717471599578857, 0.13628949224948883, 0.15802550315856934, 0.17315389215946198, 0.1267632693052292, 0.17447470128536224, -0.060689687728881836, 0.03964778408408165, 0.055947378277778625, 0.129930317401886, 0.1474563032388687, 0.08351440727710724, 0.043855492025613785, 0.13520723581314087, 0.02212379314005375, 0.04951070249080658, -0.15031151473522186, -0.007591297850012779, -0.24856139719486237, -0.12021423131227493, -0.21862544119358063, -0.18501412868499756, -0.3620217740535736, -0.3744468688964844, -0.18432556092739105, -0.34809431433677673, -0.34862402081489563, -0.34947532415390015, -0.36531010270118713, -0.17477554082870483, -0.2538518011569977, -0.08622758835554123, -0.19855433702468872, -0.2380676418542862, -0.11588180065155029, -0.16964095830917358, 0.01280608307570219, 0.004270142875611782, -0.03529064729809761, -0.0006096918368712068, -0.003813252318650484, 0.090810127556324, 0.00038358685560524464, 0.069496288895607, -0.03807666897773743, 0.062294259667396545, -0.0832480788230896, 0.022176140919327736, 0.060475192964076996, 0.13910658657550812, 0.1298399120569229, -0.006752745248377323, 0.12667401134967804], [-0.02244463376700878, 0.18481217324733734, 0.14836645126342773, 0.16560301184654236, 0.1681249886751175, -0.005927072372287512, 0.12748359143733978, 0.16366438567638397, 0.19100038707256317, 0.0071214959025382996, 0.1740805059671402, 0.13346832990646362, 0.16459473967552185, 0.10336235165596008, 0.15976396203041077, 0.10953933745622635, -0.01943705603480339, -0.06607257574796677, 0.09376164525747299, 0.011625933460891247, 0.023564253002405167, 0.10835794359445572, 0.08877307921648026, 0.17296990752220154, 0.07185328751802444, -0.06172916293144226, -0.07937336713075638, -0.0454104021191597, 0.15110193192958832, 0.05980962514877319, 0.05118552967905998, -0.03843913599848747, 0.007075461093336344, 0.03722238540649414, -0.004839730449020863, 0.08227715641260147, -0.08639541268348694, -0.03699612617492676, 0.005650364328175783, -0.11521404981613159, 0.001341458992101252, -0.1543869525194168, -0.03857104852795601, -0.025214316323399544, -0.2103157937526703, -0.18627893924713135, -0.19095884263515472, -0.07055537402629852, -0.002921520732343197, -0.13175621628761292, 0.06461784988641739, -0.15783889591693878, -0.13450023531913757, -0.08229141682386398, 0.007761657703667879, -0.033579979091882706, -0.2171003222465515, -0.26019519567489624, -0.22629310190677643, -0.16972802579402924], [-0.01370270736515522, -0.010381534695625305, 0.17621217668056488, 0.018542883917689323, 0.03978293389081955, 0.07537046819925308, -0.03151689097285271, 0.08660485595464706, 0.10522925853729248, 0.13824263215065002, 0.11593703925609589, 0.15423449873924255, -0.041192393749952316, 0.11300138384103775, 0.22965961694717407, 0.0503229945898056, 0.17820186913013458, -0.01628624089062214, -0.007403537165373564, 0.1435249149799347, 0.20646241307258606, -0.046363793313503265, -0.0004439312615431845, 0.0263565331697464, 0.023080667480826378, 0.06913450360298157, 0.09230086207389832, 0.06073743477463722, 0.008427698165178299, 0.19484885036945343, 0.1508256196975708, -0.0336245521903038, 0.13462378084659576, -0.02471321076154709, 0.08260443806648254, 0.17483118176460266, 0.16216997802257538, 0.05356653407216072, -0.08084847778081894, 0.05040008947253227, 0.029952339828014374, -0.07056631147861481, 0.048759575933218, -0.051461558789014816, -0.08148758113384247, 0.03032018430531025, 0.013546601869165897, -0.07654863595962524, 0.1295967996120453, 0.0030666182283312082, -0.02277069166302681, 0.06465286761522293, 0.10155139863491058, 0.0631605014204979, 0.061111848801374435, -0.00834391824901104, 0.19225147366523743, 0.21590062975883484, 0.1182350367307663, -0.04868098348379135], [0.015889817848801613, -0.11770064383745193, -0.10405122488737106, -0.030202072113752365, 0.03617215156555176, -0.1128026470541954, -0.07406538724899292, -0.15154732763767242, -0.04812691733241081, -0.08340075612068176, -0.11568723618984222, -0.09687554836273193, -0.182183176279068, -0.12328082323074341, -0.06493054330348969, -0.06475140154361725, -0.1291780173778534, -0.18608717620372772, -0.14590312540531158, -0.1511734277009964, -0.08612123131752014, -0.13303562998771667, -0.004344289191067219, -0.13238131999969482, -0.08720538765192032, -0.16332802176475525, -0.03528455272316933, -0.2791149616241455, -0.20401053130626678, -0.2610042691230774, -0.18167145550251007, -0.22524407505989075, -0.2085481882095337, -0.08774925768375397, 0.0013757116394117475, -0.09220875799655914, -0.047252267599105835, -0.20262709259986877, -0.0676976665854454, -0.24928465485572815, -0.24166294932365417, -0.07271038740873337, -0.08619250357151031, -0.17561562359333038, -0.08562313765287399, -0.16483168303966522, -0.04625270143151283, -0.13316413760185242, -0.2095775455236435, -0.10471557825803757, -0.1627180427312851, -0.14542560279369354, -0.0496976301074028, -0.1380966156721115, 0.02750689536333084, 0.10040487349033356, 0.10225436091423035, -0.028829287737607956, -0.006196227855980396, -0.13716629147529602], [-0.04602860286831856, -0.07413870841264725, 0.04083343222737312, -0.12449721246957779, -0.03099149279296398, 0.06327655166387558, 0.09946230053901672, 0.022724885493516922, 0.05652044713497162, -0.13885372877120972, 0.013787118718028069, -0.1447802186012268, -0.0568879097700119, -0.012024245224893093, -0.08446206897497177, 0.011313063092529774, -0.15815408527851105, -0.14160138368606567, -0.06719466298818588, 0.006954369600862265, -0.11360298097133636, -0.1382673680782318, -0.17453524470329285, -0.30581772327423096, -0.16221046447753906, -0.13144059479236603, -0.31364497542381287, -0.31845638155937195, -0.3024280071258545, -0.08757593482732773, -0.1734018325805664, -0.14341111481189728, -0.018657496199011803, -0.2309047281742096, -0.22833335399627686, -0.16132616996765137, -0.15020516514778137, 0.01345089077949524, -0.1799064576625824, -0.1325371116399765, -0.039250265806913376, -0.1126597598195076, -0.06697624176740646, 0.05800594389438629, 0.013460814952850342, -0.010715183801949024, 0.047827038913965225, -0.07499576359987259, 0.02009017951786518, -0.08780213445425034, 0.03445335850119591, -0.10042204707860947, -0.12301883101463318, 0.04673067107796669, -0.17195801436901093, -0.03823089227080345, 0.009518072009086609, -0.024450181052088737, 0.17467325925827026, 0.04313046112656593], [-0.075861856341362, -0.1271894872188568, -0.20345419645309448, -0.043427724391222, -0.20715786516666412, -0.032446179538965225, -0.15148009359836578, -0.13224560022354126, -0.01114512700587511, -0.1952400505542755, -0.05927049741148949, -0.1440642774105072, -0.23409874737262726, -0.21128728985786438, -0.06771831959486008, -0.06289270520210266, -0.21984557807445526, 0.03570636734366417, 0.005699486937373877, -0.1130170226097107, 0.073550283908844, 0.02697344496846199, -0.14635390043258667, -0.1060185506939888, 0.05401155352592468, -0.09424877166748047, 0.09534282237291336, 0.021823197603225708, 0.09755123406648636, -0.08009850978851318, 0.014535441994667053, -0.013312553986907005, -0.04849718511104584, 0.08548831939697266, 0.020394308492541313, -0.09113467484712601, -0.11241405457258224, -0.04482787847518921, 0.0953211784362793, 0.09800156205892563, 0.020429447293281555, 0.06744685769081116, 0.048853009939193726, -0.07366030663251877, 0.1378406435251236, 0.09855315089225769, -0.15008866786956787, 0.027073876932263374, -0.13437826931476593, -0.07608215510845184, 0.03476164862513542, -0.08325692266225815, -0.018802311271429062, -0.11913598328828812, -0.07704091817140579, 0.0453629307448864, 0.21267229318618774, 0.22618485987186432, -0.013267852365970612, 0.13287127017974854], [-0.22921542823314667, -0.010303417220711708, -0.179308220744133, 0.03215179964900017, -0.19417956471443176, -0.1200060248374939, -0.16983923316001892, -0.14738520979881287, -0.14789964258670807, 0.0049758246168494225, -0.22147059440612793, -0.1375190019607544, -0.2146584838628769, -0.03761955723166466, -0.03624881058931351, 0.04958702251315117, -0.15298034250736237, 0.03787972778081894, -0.16681663691997528, 0.03658179193735123, -0.10331668704748154, -0.04744695499539375, -0.13011129200458527, -0.000822453061118722, -0.07231525331735611, -0.0589388869702816, -0.10331404209136963, -0.08176189661026001, 0.022422173991799355, 0.12715467810630798, 0.05806649848818779, 0.09990350157022476, -0.07128719240427017, 0.019210433587431908, 0.10532128810882568, 0.03907347843050957, -0.029941409826278687, 0.08943314850330353, -0.07608751207590103, 0.05602950230240822, -0.015609794296324253, -0.16726183891296387, -0.014551212079823017, 0.04664507508277893, 0.018804369494318962, -0.01600831001996994, -0.12679629027843475, -0.03768064081668854, -0.11412025988101959, -0.1655939817428589, -0.1507396697998047, -0.11436180025339127, -0.12636135518550873, -0.00977408792823553, -0.11112876236438751, -0.11437585949897766, 0.06481865793466568, 0.1381973922252655, 0.17110691964626312, 0.0810963585972786], [0.008803308941423893, -0.037464771419763565, -0.04554801061749458, 0.10018394142389297, -0.022289471700787544, -0.004996672738343477, -0.18774202466011047, 0.059760767966508865, -0.08783663064241409, 0.027340412139892578, 0.06627306342124939, -0.03685483708977699, -0.06195298209786415, -0.0794714018702507, -0.12091357260942459, -0.0429714061319828, -0.13697846233844757, -0.0055449786596000195, -0.19076085090637207, -0.060355450958013535, -0.16573844850063324, 0.0018197167664766312, -0.09289859980344772, -0.07263462990522385, -0.11411186307668686, -0.03193280100822449, -0.14762598276138306, -0.10582128912210464, 0.03833703324198723, 0.02469901368021965, -0.03793071210384369, -0.20606617629528046, -0.17309802770614624, -0.2072812169790268, -0.1696569174528122, -0.16094253957271576, -0.15705260634422302, -0.11420779675245285, -0.1382206678390503, -0.20800043642520905, -0.12787197530269623, -0.22552964091300964, -0.13287775218486786, -0.2654235363006592, -0.341945081949234, -0.21940791606903076, -0.2039441168308258, -0.065297432243824, -0.1762770116329193, -0.23846487700939178, -0.053620848804712296, -0.1533505618572235, -0.0313681960105896, -0.12140698730945587, -0.02486172318458557, 0.11131513118743896, -0.03027312085032463, 0.1384560763835907, 0.09810969233512878, -0.1127263754606247], [-0.15130244195461273, -0.14204685389995575, -0.1488117277622223, -0.045519664883613586, -0.18273864686489105, -0.08185827732086182, -0.01612371951341629, -0.08328133821487427, -0.08609216660261154, -0.07059279084205627, -0.20588725805282593, -0.06761163473129272, -0.11600008606910706, 0.02726864069700241, -0.1857219785451889, -0.05878310278058052, -0.060399118810892105, -0.11061079800128937, -0.011598935350775719, 0.06587181240320206, -0.08057612180709839, -0.03740508109331131, 0.03494786098599434, -0.0513581857085228, -0.1581927090883255, -0.10607869178056717, -0.17202018201351166, -0.1242753341794014, -0.21876248717308044, -0.13012884557247162, -0.16358217597007751, -0.12190267443656921, 0.026344021782279015, -0.005004080478101969, -0.09549818187952042, -0.15813376009464264, -0.20161080360412598, -0.06592030078172684, -0.05353391915559769, -0.028334498405456543, 0.045243848115205765, -0.09331324696540833, 0.07431699335575104, -0.125391885638237, -0.03890387713909149, 0.05472783371806145, 0.04385032132267952, 0.08358723670244217, -0.031609613448381424, 0.09775541722774506, -0.05814757198095322, -0.14029841125011444, 0.10216202586889267, -0.05926017835736275, 0.039417047053575516, 0.04823406785726547, -0.17581921815872192, -0.1964392215013504, -0.17619167268276215, 0.06673093885183334], [-0.11976127326488495, -0.09901357442140579, -0.12101063877344131, 0.0513484925031662, 0.027197126299142838, 0.04841895401477814, -0.018285226076841354, -0.027650343254208565, 0.0009288720320910215, -0.14747746288776398, -0.07901754975318909, -0.2159779816865921, -0.18440549075603485, -0.06048721820116043, -0.009548263624310493, -0.05509601905941963, -0.016954898834228516, -0.1180296540260315, 0.02371625043451786, 0.04009899124503136, -0.1335548758506775, -0.09085047990083694, -0.1431749016046524, -0.15361350774765015, -0.0957174226641655, -0.011299001052975655, -0.007887431420385838, -0.07158993184566498, -0.1490064263343811, -0.09087095409631729, -0.12090104818344116, 0.0025181458331644535, -0.12409759312868118, -0.10904094576835632, -0.1549268364906311, -0.1623629629611969, -0.0929236114025116, 0.08279942721128464, 0.012489995919167995, 0.08402051776647568, 0.049456529319286346, 0.02766129933297634, -0.041978154331445694, 0.08309412002563477, -0.08326616138219833, 0.07460055500268936, -0.0019524834351614118, 0.022949447855353355, -0.1153918132185936, -0.08653682470321655, -0.04559606313705444, 0.022748315706849098, -0.13105487823486328, 0.06342841684818268, 0.02832220122218132, -0.0028233230113983154, -0.09748724848031998, -0.23238877952098846, -0.2572042644023895, -0.08008141815662384], [-0.12650464475154877, -0.001019629999063909, 0.10596418380737305, -0.09156349301338196, 0.028806712478399277, -0.03407000005245209, 0.04813623055815697, 0.06127402186393738, 0.05384786054491997, -0.12170067429542542, -0.10423630475997925, -0.1023271307349205, -0.09383206814527512, 0.08991802483797073, 0.05269726738333702, 0.12124701589345932, 0.010473731905221939, 0.0438188798725605, 0.11965236812829971, 0.11103422939777374, -0.022377755492925644, 0.11152978241443634, -0.027907492592930794, 0.05178823694586754, 0.019228704273700714, -0.15501701831817627, -0.11153355985879898, -0.23304803669452667, -0.15607084333896637, -0.012557271867990494, -0.061270467936992645, -0.20700496435165405, -0.1940327137708664, -0.22850313782691956, -0.14732183516025543, -0.20550213754177094, -0.16829942166805267, -0.2504820227622986, -0.0723247081041336, -0.2565682530403137, -0.2271803468465805, -0.22308409214019775, -0.1871889978647232, 0.023424655199050903, 0.052196670323610306, -0.09255891293287277, -0.16594156622886658, -0.1006314679980278, -0.16354984045028687, 0.061555180698633194, -0.061453159898519516, -0.17693816125392914, 0.06655865162611008, -0.019700560718774796, -0.11543069034814835, -0.16635124385356903, -0.01505202241241932, 0.012017916887998581, 0.1226605698466301, 0.03317071869969368], [0.1273406445980072, -0.0409383662045002, -0.05168018117547035, 0.005779866129159927, 0.12709148228168488, 0.1477012187242508, 0.08704524487257004, -0.059729643166065216, -0.025864461436867714, -0.08770526945590973, -0.04965510591864586, 0.015245544724166393, -0.11507468670606613, -0.13538143038749695, -0.13534152507781982, -0.036757394671440125, -0.11276733875274658, 0.10333337634801865, -0.13952328264713287, -0.09283722937107086, -0.10131877660751343, -0.06649360805749893, -0.01638842560350895, -0.1579197198152542, -0.06155999004840851, -0.1723955124616623, -0.03957716003060341, -0.079552061855793, -0.009819215163588524, -0.1622152030467987, 0.07744776457548141, -0.07672739028930664, -0.10835551470518112, -0.1704508662223816, 0.02185235731303692, -0.036456651985645294, 0.0065074581652879715, -0.160448357462883, -0.08942785859107971, 0.007744694594293833, -0.053375400602817535, -0.047015976160764694, -0.1897888034582138, 0.03184298798441887, -0.12410136312246323, -0.1882973462343216, -0.22291012108325958, -0.023322414606809616, -0.009489291347563267, -0.025423817336559296, -0.00044383550994098186, -0.15324760973453522, -0.09318777918815613, -0.010224700905382633, -0.028885232284665108, -0.009394284337759018, -0.002854765858501196, -0.287803590297699, -0.15298418700695038, -0.28371143341064453], [-0.09309674054384232, 0.03966105729341507, -0.151249498128891, -0.13183557987213135, 0.025609485805034637, 0.037637948989868164, 0.03450385108590126, -0.08607717603445053, -0.060197845101356506, -0.07612931728363037, -0.08839338272809982, -0.1141473799943924, 0.06677871197462082, -0.16032713651657104, -0.0648684948682785, -0.17827282845973969, -0.16063375771045685, 0.04077313095331192, 0.06969296932220459, 0.04776735231280327, 0.044135164469480515, -0.003426791401579976, -0.0826440155506134, -0.1193537563085556, -0.0017134444788098335, -0.0857786312699318, -0.06589553505182266, 0.05577102676033974, -0.17871947586536407, -0.06701290607452393, 0.037507131695747375, 0.047625865787267685, -0.06339273601770401, 0.02983490377664566, -0.18202055990695953, -0.12209901213645935, -0.14734624326229095, -0.14917029440402985, -0.03808888420462608, 0.04645151644945145, 0.0091707156971097, 0.03664780408143997, -0.1540558636188507, -0.07530908286571503, -0.16150906682014465, 0.03717311471700668, -0.11120623350143433, -0.0838145837187767, 0.055462125688791275, -0.14670109748840332, 0.0014157077530398965, -0.03915181756019592, -0.12851093709468842, -0.12328924238681793, -0.1335521936416626, -0.12402013689279556, -0.28682276606559753, -0.0946870744228363, -0.17685337364673615, 0.10780730843544006], [-0.2787785530090332, -0.19029954075813293, -0.05884150043129921, -0.20878329873085022, -0.058788083493709564, -0.025395827367901802, -0.1477169394493103, -0.181086003780365, -0.23630987107753754, -0.2233893871307373, -0.15282407402992249, -0.28569552302360535, -0.18471075594425201, -0.105839803814888, -0.267475962638855, -0.27790504693984985, -0.17863857746124268, -0.1267234832048416, -0.1859290897846222, -0.144338458776474, -0.12864799797534943, -0.07425350695848465, -0.05690205097198486, -0.08034816384315491, 0.039383113384246826, -0.07056666910648346, -0.13823436200618744, -0.15923777222633362, -0.032989323139190674, 0.028504880145192146, 0.018377788364887238, -0.009378163143992424, -0.03441605344414711, -0.02242029644548893, -0.103742815554142, -0.027404285967350006, 0.08340982347726822, -0.039931587874889374, 0.09911146014928818, 0.024558555334806442, 0.09064366668462753, 0.0678134635090828, 0.02398655191063881, -0.10827714949846268, -0.04925819858908653, -0.11465418338775635, -0.00459550553932786, -0.009460830129683018, -0.08967917412519455, 0.03831156715750694, -0.11223361641168594, -0.03191171959042549, -0.0599689707159996, -0.10063984245061874, 0.057275138795375824, -0.12131676077842712, 0.10313940048217773, -0.04250678792595863, -0.020343828946352005, 0.18293213844299316], [-0.0776149109005928, 0.08240050077438354, -0.15789879858493805, -0.033985644578933716, 0.09316597878932953, 0.04156803339719772, 0.09935041517019272, 9.097224392462522e-05, 0.1278323084115982, -0.07167872041463852, -0.06567124277353287, -0.0524190291762352, 0.06165467947721481, 0.09468042105436325, -0.08731032907962799, 0.008979830890893936, -0.11929896473884583, 0.11798892915248871, -0.07667229324579239, 0.04094615578651428, -0.09081553667783737, 0.14023897051811218, 0.07168415188789368, -0.08496855199337006, -0.010595180094242096, 0.13732975721359253, 0.06917615979909897, 0.14635515213012695, 0.006945611443370581, -0.008400646038353443, -0.048063430935144424, 0.056020669639110565, -0.022259961813688278, 0.12839417159557343, 0.03994595631957054, 0.10210954397916794, 0.060710884630680084, -0.013105025514960289, 0.04924960434436798, -0.02167421206831932, -0.011434475891292095, 0.003685243660584092, -0.14118504524230957, -0.09011910110712051, -0.06395720690488815, 0.08758434653282166, -0.16837207973003387, -0.046177759766578674, -0.1566246896982193, -0.16100241243839264, -0.19701215624809265, -0.273194819688797, -0.25260457396507263, -0.08084362000226974, -0.20109538733959198, -0.2782430052757263, -0.0886925682425499, -0.01645515486598015, -0.12126357108354568, -0.17719073593616486], [-0.09322178363800049, -0.03415997698903084, -0.09633196890354156, 0.038478631526231766, -0.10227230936288834, -0.10073644667863846, 0.037658076733350754, -0.0607365258038044, -0.11811434477567673, -0.13819542527198792, -0.01320777926594019, -0.08146399259567261, -0.1484372615814209, 0.04976164922118187, -0.1770811825990677, -0.029170090332627296, -0.03805287554860115, 0.0659603700041771, -0.13393153250217438, -0.1053895577788353, -0.11911726742982864, -0.09193386882543564, -0.04494708031415939, 0.05984588712453842, 0.003907157573848963, 0.006559428758919239, 0.07323955744504929, -0.11815845221281052, -0.04314185678958893, -0.1315169483423233, -0.01629277691245079, -0.08615171164274216, 0.05000497028231621, -0.008737237192690372, 0.03639906272292137, 0.016875697299838066, -0.03022611141204834, -0.06607943028211594, 0.016301997005939484, -0.19272075593471527, -0.2324700653553009, -0.0323379710316658, -0.2368287444114685, -0.22701145708560944, -0.13628526031970978, -0.2139364331960678, -0.14461341500282288, -0.10492507368326187, -0.14564791321754456, 0.023234110325574875, -0.11994948238134384, 0.023829244077205658, -0.12927335500717163, -0.1531006097793579, -0.047719813883304596, 0.026163375005126, -0.16972514986991882, 0.012628448195755482, -0.12474946677684784, 0.011220759712159634], [0.1003882959485054, -0.00013156054774299264, -0.01972806826233864, -0.07135701179504395, 0.04082874581217766, 0.0017738069873303175, 0.13553456962108612, 0.1449963003396988, 0.15790636837482452, -0.005364033859223127, -0.10943417996168137, 0.08495742827653885, 0.10189154744148254, -0.015174837782979012, -0.018686942756175995, -0.06729313731193542, -0.07509607821702957, 0.00547937722876668, -0.1344476193189621, -0.018803516402840614, -0.14275100827217102, -0.13172957301139832, -0.25024014711380005, -0.020712835714221, -0.25805193185806274, -0.03228471428155899, -0.18065926432609558, -0.13064949214458466, -0.06148236617445946, -0.12255173921585083, -0.13940323889255524, -0.23660904169082642, -0.1910901516675949, -0.25039759278297424, -0.10891707986593246, -0.25277405977249146, -0.07969743758440018, -0.04710717499256134, 0.005431389901787043, -0.1612655520439148, -0.05469899997115135, -0.08773581683635712, -0.0008751099230721593, -0.036513712257146835, -0.08204551041126251, -0.12604527175426483, 0.0017734194407239556, 0.02442523092031479, -0.03394341468811035, 0.09618142992258072, -0.10716715455055237, -0.05357737839221954, 0.07888853549957275, -0.0407911092042923, -0.117337666451931, -0.060517825186252594, -0.0571114681661129, -0.02067214995622635, 0.08581341058015823, 0.23940853774547577], [-0.12472880631685257, -0.07465207576751709, -0.0875697061419487, -0.15473045408725739, -0.1106739193201065, -0.00348515878431499, 0.06724092364311218, 0.02622152492403984, -0.06184462085366249, -0.05882621929049492, -0.1818079650402069, -0.1281988024711609, -0.027926281094551086, -0.16948440670967102, -0.0014909361489117146, 0.02606782875955105, 0.02210553176701069, -0.08233826607465744, 0.025883439928293228, -0.15552034974098206, -0.18146249651908875, 0.012772242538630962, 0.037940848618745804, -0.09853698313236237, -0.19497992098331451, -0.08456776291131973, -0.07817540317773819, -0.11673157662153244, -0.18445517122745514, -0.005159260705113411, -0.18390849232673645, -0.16210514307022095, -0.027224523946642876, -0.20437142252922058, -0.1994747519493103, -0.20129117369651794, 0.015537765808403492, -0.1489567905664444, -0.17156225442886353, -0.0244479700922966, -0.03964068368077278, -0.11287020146846771, -0.06626147776842117, -0.07763024419546127, -0.1073591411113739, -0.08695310354232788, -0.07577971369028091, 0.02796444296836853, 0.06643848121166229, 0.0017670565284788609, -0.01581527665257454, -0.04711466282606125, 0.1360337734222412, 0.10265428572893143, 0.14421655237674713, -0.08426923304796219, -0.000690257700625807, 0.07336694002151489, -0.10453513264656067, -0.07892405241727829], [-0.07277072221040726, 0.0021551435347646475, -0.06548064202070236, 0.07476897537708282, 0.10105641186237335, -0.023422308266162872, -0.011849195696413517, 0.09084952622652054, -0.04696129262447357, -0.1478910595178604, -0.05906191095709801, -0.1745598018169403, 0.03960753604769707, 0.02129935286939144, 0.002693185582756996, 0.03435059264302254, -0.07538048177957535, -0.05430305749177933, 0.04935074225068092, 0.02141883410513401, 0.03590153530240059, -0.20435893535614014, -0.14468172192573547, -0.010616591200232506, -0.2340572625398636, -0.19984807074069977, -0.053637970238924026, -0.20503903925418854, -0.1558670997619629, -0.04707014933228493, -0.10341296344995499, -0.13324639201164246, -0.1240241602063179, -0.04405483603477478, -0.22945736348628998, -0.1544981449842453, -0.0610564649105072, -0.09863165766000748, -0.16080401837825775, 0.009726551361382008, -0.060103412717580795, -0.10114355385303497, -0.1865384429693222, -0.04146455600857735, -0.16710875928401947, -0.09723912924528122, 0.008884859271347523, -0.06758324056863785, -0.1716112494468689, -0.16026589274406433, 0.0051711611449718475, -0.05016488954424858, -0.12166087329387665, -0.0428570955991745, -0.18936926126480103, -0.050093889236450195, 0.05335283651947975, -0.06199488416314125, 0.023041129112243652, 0.13873721659183502], [0.055626265704631805, 0.02512231282889843, -0.0032693673856556416, -0.012564385309815407, 0.15167798101902008, 0.12546654045581818, -0.006734498776495457, 0.132158562541008, 0.0883641242980957, 0.15929608047008514, 0.06463085860013962, -0.02539883926510811, -0.03002704679965973, -0.07620924711227417, 0.07174252718687057, 0.08100119233131409, 0.033247049897909164, 0.14242962002754211, 0.06979254633188248, 0.0026357953902333975, 0.02923463098704815, -0.020474087446928024, 0.04326143115758896, -0.07235684245824814, 0.007762941997498274, 0.022611204534769058, 0.08450007438659668, 0.12305397540330887, 0.061216797679662704, 0.19821234047412872, 0.20034757256507874, 0.10467749089002609, 0.02378968335688114, -0.014019815251231194, 0.046988774091005325, 0.13232144713401794, 0.15227320790290833, 0.029242394492030144, 0.16563934087753296, 0.11929990351200104, 0.17111118137836456, 0.03871002793312073, 0.07330615818500519, 0.11269903182983398, 0.17203927040100098, 0.16692370176315308, 0.18526887893676758, 0.11757822334766388, 0.15474101901054382, -0.07176681607961655, 0.11590076982975006, -0.0070540462620556355, 0.03748014569282532, -0.15873154997825623, -0.1583431363105774, -0.15822555124759674, 0.04223182052373886, -0.05316145718097687, -0.01749904826283455, 0.034687891602516174], [0.14329485595226288, 0.01723027415573597, 0.1463758647441864, 0.14722752571105957, 0.13086512684822083, 0.2058582454919815, -0.023292645812034607, -0.004635911900550127, 0.102236807346344, 0.14692245423793793, -0.058653321117162704, 0.04504093527793884, 0.09766226261854172, -0.024390410631895065, 0.0669092908501625, 0.006990743800997734, -0.1041102334856987, -0.016156410798430443, 0.11372776329517365, 0.14543621242046356, 0.12281358242034912, 0.11603652685880661, 0.014020814560353756, 0.014226026833057404, 0.0037587559781968594, -0.08755800127983093, 0.1414492428302765, -0.045813947916030884, 0.1513681262731552, -0.0742657408118248, 0.0243623498827219, 0.15052297711372375, 0.009457718580961227, -0.0232755858451128, 0.06726495921611786, -0.15138210356235504, -0.0649256557226181, -0.10830637812614441, -0.027827156707644463, -0.11683489382266998, -0.1340259462594986, -0.1313420534133911, -0.002803836250677705, -0.04316943138837814, 0.1442313939332962, 0.1521216183900833, 0.05486151576042175, 0.25749531388282776, 0.18105168640613556, 0.14626576006412506, 0.1833939254283905, 0.13937997817993164, -0.017869729548692703, -0.04414108395576477, -0.04074690118432045, -0.01344248466193676, 0.15612976253032684, -0.04614616557955742, 0.173429474234581, 0.16686303913593292], [-0.17026978731155396, -0.2737762928009033, -0.04800691455602646, -0.2108251303434372, -0.1235998347401619, -0.09249312430620193, -0.03785990923643112, -0.08888303488492966, -0.06852511316537857, -0.18163886666297913, -0.14486181735992432, -0.21802231669425964, -0.16257135570049286, -0.054802779108285904, -0.2082005739212036, -0.2546992301940918, -0.1347542554140091, -0.048394665122032166, -0.05674375221133232, -0.11486037820577621, -0.03021165356040001, -0.013145473785698414, 0.016377534717321396, -0.010497191920876503, 0.0038324184715747833, 0.025722550228238106, -0.07187449932098389, -0.1407390832901001, -0.01805621013045311, -0.11062581837177277, 0.04410416632890701, 0.020289957523345947, 0.016886834055185318, -0.013935941271483898, -0.030633054673671722, -0.005669450853019953, -0.0062060272321105, 0.04068872332572937, 0.028971722349524498, -0.07466454058885574, -0.12471863627433777, -0.10386645793914795, -0.16576053202152252, -0.13157053291797638, -0.09121210128068924, -0.07746901363134384, -0.059315964579582214, -0.08945656567811966, 0.06154137849807739, -0.0932941734790802, 0.10270919650793076, 0.11190350353717804, -0.05218566954135895, 0.1322566419839859, 0.0184944961220026, 0.07566213607788086, 0.13319052755832672, 0.03086760640144348, 0.05245114490389824, -0.03504256159067154], [0.11057469993829727, -0.061994731426239014, -0.02392388880252838, -0.1253172606229782, -0.049266401678323746, -0.13280878961086273, 0.03589916601777077, -0.14942649006843567, -0.040325671434402466, 0.03012804687023163, -0.03372327238321304, -0.036600176244974136, 0.02804698795080185, -0.004502990748733282, 0.0818600058555603, 0.06454714387655258, 0.061854518949985504, -0.10421489924192429, -0.08459442108869553, 0.056513309478759766, -0.09422853589057922, -0.01833011582493782, 0.007116104010492563, 0.013015109114348888, -0.11204248666763306, -0.07808059453964233, -0.2095300853252411, 0.0006846309988759458, -0.19157692790031433, -0.18390724062919617, -0.05453553423285484, 0.029825208708643913, -0.03221624717116356, 0.1326935887336731, 0.04450113698840141, 0.08078809082508087, -0.024186158552765846, 0.21090607345104218, -0.024340616539120674, 0.03304191306233406, 0.19932499527931213, 0.1815202385187149, 0.018656587228178978, 0.0441221185028553, 0.09656362980604172, 0.24476546049118042, 0.09296827018260956, 0.2797008156776428, 0.12780439853668213, 0.11333265155553818, 0.044242922216653824, -0.012679487466812134, 0.07515157014131546, 0.08249814808368683, -0.015802307054400444, 0.0029850173741579056, -0.1211174950003624, -0.20388998091220856, -0.28773415088653564, -0.39180898666381836], [-0.003831153502687812, -0.20234490931034088, -0.025994328781962395, -0.12698239088058472, -0.12644441425800323, -0.14587050676345825, -0.00015261226508300751, -0.09550285339355469, -0.06454753130674362, -0.15384013950824738, -0.15003494918346405, -0.20462486147880554, -0.21311573684215546, -0.24036285281181335, -0.028564773499965668, -0.004854968748986721, -0.061678655445575714, -0.06547392159700394, -0.058144960552453995, -0.014769700355827808, -0.1130339652299881, -0.14574585855007172, -0.1080951914191246, 0.01875585876405239, -0.02231772616505623, -0.1281329095363617, -0.06999210268259048, -0.047373805195093155, 0.021367419511079788, -0.012839577160775661, 0.037606194615364075, -0.13323692977428436, -0.18210220336914062, -0.04938870295882225, -0.17782001197338104, -0.017758997157216072, 0.04385463893413544, -0.12662966549396515, 0.018223628401756287, -0.10843294113874435, 0.020973606035113335, -0.034798044711351395, -0.008347180671989918, 0.006913815625011921, -0.007032343186438084, -0.1384967416524887, -0.14974281191825867, -0.0392109714448452, 0.07092796266078949, -0.0756232813000679, -0.12920141220092773, 0.052758846431970596, 0.09694798290729523, 0.09603159129619598, 0.07259941846132278, -0.025430213660001755, -0.03698248416185379, -0.007739888969808817, -0.14505812525749207, -0.13533049821853638], [0.001933204592205584, 0.10093824565410614, 0.07618191838264465, 0.18001726269721985, 0.09920699894428253, 0.20213249325752258, 0.10666169971227646, 0.07814521342515945, -0.03505364805459976, 0.09048096090555191, -0.03556974232196808, 0.055076152086257935, 0.11768302321434021, 0.05416494980454445, 0.13334618508815765, -0.07200725376605988, 0.10430637001991272, 0.18874074518680573, 0.08951880782842636, 0.05439496040344238, 0.08457697927951813, -0.0032303810585290194, 0.17062227427959442, 0.17182715237140656, 0.116940937936306, 0.060331691056489944, 0.14898207783699036, -0.010091113857924938, 0.03667469322681427, 0.011286736465990543, 0.10575269907712936, 0.11063380539417267, 0.22556628286838531, 0.11964349448680878, 0.10206437855958939, 0.024053208529949188, 0.05475591495633125, 0.12360195070505142, 0.017272472381591797, 0.007851026020944118, 0.0629366859793663, -0.00946290884166956, 0.09769222885370255, 0.06607910245656967, -0.012370397336781025, 0.011162158101797104, 0.025874409824609756, 0.049669209867715836, 0.009086670354008675, 0.011113344691693783, -0.15799665451049805, -0.10502251237630844, -0.12797726690769196, -0.02726307325065136, -0.11189664155244827, 0.026610087603330612, 0.1743091493844986, 0.060936398804187775, 0.16848771274089813, 0.0956038311123848], [-0.14826297760009766, -0.044173888862133026, -0.05366245284676552, -0.16945558786392212, -0.06299064308404922, 0.015643607825040817, -0.0717267245054245, -0.08908975124359131, -0.05365925282239914, -0.057221271097660065, 0.005920909345149994, -0.14736323058605194, -0.00997965969145298, -0.10670170933008194, -0.2139643281698227, -0.18034742772579193, -0.0906885638833046, -0.14097434282302856, -0.2033102810382843, -0.13474854826927185, -0.21868233382701874, -0.13050086796283722, -0.21697945892810822, -0.21485212445259094, -0.05951632931828499, -0.04641769826412201, -0.08266807347536087, 0.06518063694238663, -0.020742667838931084, -0.014593456871807575, -0.07736707478761673, 0.04550865665078163, -0.1316765993833542, -0.0334339439868927, -0.015665965154767036, 0.0665895938873291, -0.013489793054759502, -0.09610439091920853, 0.1501442790031433, 0.026890689507126808, 0.1273057758808136, 0.019175847992300987, 0.10299593955278397, -0.026619553565979004, 0.07573572546243668, -0.08780692517757416, -0.019501443952322006, 0.05278860777616501, -0.12843069434165955, -0.08201689273118973, -0.08875134587287903, -0.07422324270009995, -0.07788616418838501, -0.08997609466314316, -0.08758893609046936, -0.165244922041893, -0.011242087930440903, -0.048051074147224426, 0.14752066135406494, 0.11692456901073456], [0.0035620948765426874, 0.2089133858680725, 0.058555588126182556, 0.05931664630770683, 0.18767426908016205, 0.03755227476358414, 0.07846914976835251, 0.19541943073272705, 0.08289924263954163, -0.05252465978264809, 0.19230371713638306, -0.02287169359624386, -0.038840170949697495, 0.059270989149808884, -0.0465351864695549, 0.15386386215686798, 0.029250595718622208, 0.16143092513084412, -0.022841041907668114, 0.08970647305250168, 0.0908314436674118, -0.05424344539642334, -0.03285261243581772, 0.007796731777489185, 0.04987071827054024, 0.14830932021141052, -0.040010202676057816, -0.07202672958374023, 0.0019215070642530918, -0.06504561007022858, 0.013343912549316883, 0.07901075482368469, -0.012165977619588375, -0.02985507808625698, -0.024084467440843582, 0.023288603872060776, -0.06581278890371323, -0.02582974173128605, 0.17237992584705353, -0.05196063965559006, -0.026554593816399574, 0.21404100954532623, 0.19882802665233612, 0.17684142291545868, 0.1383586823940277, 0.21912431716918945, 0.09420903772115707, 0.11932700872421265, 0.10401400923728943, 0.02707219310104847, 0.11317010223865509, 0.0520143024623394, 0.18152247369289398, 0.06734556704759598, 0.026039591059088707, 0.16032378375530243, 0.15141268074512482, 0.17540980875492096, -0.0034204458352178335, -0.032677438110113144], [-0.07572256773710251, -0.03449876606464386, 0.11199231445789337, -0.0859716534614563, -0.04809347912669182, 0.12666521966457367, 0.0070648775435984135, 0.14770300686359406, 0.17110790312290192, 0.15248511731624603, 0.08493413776159286, 0.13964806497097015, -0.03806163743138313, 0.09047675877809525, 0.07150952517986298, 0.09404393285512924, 0.13658049702644348, 0.1064814031124115, 0.15144313871860504, 0.0953390896320343, 0.19037698209285736, 0.09715191274881363, 0.19223946332931519, -0.03956235945224762, 0.16338464617729187, -0.044371653348207474, 0.0704956203699112, 0.07240812480449677, 0.09920568764209747, 0.018140582367777824, 0.1631201207637787, -0.008294454775750637, 0.21669377386569977, 0.20503833889961243, -0.0002346294349990785, 0.04784926027059555, 0.059706252068281174, 0.2497212290763855, 0.2588522434234619, 0.0019065533997491002, 0.1755795180797577, -0.019900545477867126, 0.11259632557630539, 0.0012930327793583274, 0.0458042174577713, 0.21550318598747253, 0.14536170661449432, 0.19636763632297516, 0.08608678728342056, 0.0827689841389656, 0.1352381557226181, 0.013325718231499195, -0.01680288277566433, 0.038721464574337006, -0.06845655292272568, -0.05313326045870781, 0.034220196306705475, 0.019004153087735176, -0.18884310126304626, -0.04533685743808746], [-0.010908246040344238, 0.0573267862200737, 0.05690321698784828, -0.06289008259773254, -0.0006122277118265629, -0.19278283417224884, -0.1854560524225235, -0.06882276386022568, -0.1779259294271469, 0.011615313589572906, -0.09460971504449844, 0.001760803977958858, 0.02872246317565441, -0.10923796892166138, 0.04647723585367203, -0.024155452847480774, 0.04399009421467781, -0.014982804656028748, 0.03291758894920349, 0.03771586716175079, -0.1268962323665619, -0.1665070503950119, 0.020521655678749084, -0.028350818902254105, -0.09367836266756058, 0.04268568754196167, -0.19193285703659058, -0.01725768856704235, -0.04626655578613281, -0.009137742221355438, -0.08128152787685394, -0.09143847227096558, -0.13839374482631683, -0.19039635360240936, -0.06727921962738037, 0.030627762898802757, 0.008409449830651283, -0.21835020184516907, -0.13814781606197357, -0.18498259782791138, -0.10851188004016876, -0.043004997074604034, -0.12913674116134644, -0.0630347952246666, -0.20416317880153656, -0.13579531013965607, -0.18206028640270233, -0.024723755195736885, 0.040401048958301544, -0.02766180969774723, -0.09175591915845871, -0.11759967356920242, -0.2548563778400421, -0.08188311010599136, -0.13608062267303467, -0.030079413205385208, -0.11455415934324265, -0.08430328220129013, -0.18093927204608917, -0.18806064128875732], [0.04021958261728287, 0.1724282056093216, 0.0870659202337265, 0.13036420941352844, 0.20200861990451813, 0.08484897762537003, 0.026111852377653122, -0.005374494008719921, 0.04242365434765816, -0.018714899197220802, 0.1144341379404068, -0.0233591441065073, 0.12818259000778198, 0.015790404751896858, 0.13096769154071808, 0.05676604434847832, 0.1303681880235672, 0.11730559915304184, 0.032597701996564865, 0.17686840891838074, 0.035598862916231155, 0.08792740106582642, -0.08100618422031403, 0.116665318608284, 0.06844202429056168, 0.044063057750463486, -0.08462898433208466, 0.04032919928431511, 0.1350073665380478, 0.12853871285915375, -0.01810631901025772, -0.017085665836930275, 0.012070694006979465, 0.12139034271240234, 0.22701773047447205, 0.1518150418996811, 0.18324033915996552, 0.24758635461330414, 0.08830428123474121, 0.200637087225914, -0.002683080732822418, 0.062165774405002594, 0.10636618733406067, 0.1358560174703598, 0.16798163950443268, 0.23678234219551086, 0.08237206935882568, 0.05098890885710716, 0.08767198026180267, -0.008158552460372448, 0.07876813411712646, 0.195825457572937, 0.06736212968826294, 0.18379805982112885, 0.026048311963677406, 0.2291891723871231, 0.2466069608926773, 0.18006354570388794, -0.06175817921757698, -0.028695998713374138], [0.21625855565071106, 0.18811048567295074, 0.016096586361527443, -0.003070427570492029, 0.08659736812114716, 0.006349210627377033, 0.007171103730797768, 0.09819047898054123, -0.06123711168766022, 0.10801783949136734, 0.13557051122188568, -0.03451327607035637, -0.03314419835805893, 0.09338098764419556, 0.15968066453933716, 0.10004016757011414, 0.15323829650878906, -0.0026631364598870277, 0.08681731671094894, 0.048360392451286316, -0.008037388324737549, 0.125065416097641, 0.031784430146217346, 0.038263894617557526, 0.07387032359838486, 0.1806536465883255, 0.014740733429789543, 0.10785999149084091, 0.08430943638086319, 0.06655142456293106, 0.030941789969801903, 0.14874109625816345, -0.05615328997373581, 0.07102666050195694, 0.14722692966461182, -0.07428610324859619, 0.098822221159935, 0.055201973766088486, -0.06637165695428848, 0.013861273415386677, -0.07387575507164001, -0.05821887403726578, -0.12086109817028046, -0.029624201357364655, -0.09443146735429764, -0.10838865488767624, 0.02969309128820896, -0.1195719912648201, -0.14427827298641205, -0.13698911666870117, -0.21490338444709778, -0.10439823567867279, -0.025812674313783646, -0.07040716707706451, -0.13666561245918274, -0.0042280093766748905, 0.024167058989405632, 0.06605555862188339, 0.010480392724275589, 0.08863145112991333], [-0.08403845876455307, 0.11804184317588806, 0.062021784484386444, -0.06087503209710121, 0.16994091868400574, -0.028976645320653915, -0.034908637404441833, 0.16755272448062897, 0.12733975052833557, 0.1401989758014679, 0.030705368146300316, 0.12282131612300873, -0.072829470038414, 0.08312971144914627, 0.14778099954128265, 0.059666309505701065, 0.0300466176122427, -0.07192026823759079, -0.015371406450867653, 0.12379170209169388, 0.1731691211462021, 0.14491523802280426, 0.1656106412410736, -0.0914657711982727, -0.06785528361797333, -0.07722276449203491, 0.012854743748903275, 0.057002320885658264, -0.038121599704027176, -0.07688925415277481, 0.1486230194568634, 0.05476609617471695, 0.08900938183069229, 0.00026675217668525875, 0.04128021374344826, 0.14506584405899048, 0.10338190197944641, 0.15909995138645172, 0.07474405318498611, 0.04233714938163757, -0.006271083373576403, 0.11981929838657379, 0.1865074783563614, 0.05228203535079956, 0.10467007011175156, 0.09335724264383316, 0.18009203672409058, 0.041823841631412506, 0.2178228199481964, 0.06357056647539139, 0.03168071433901787, 0.02532118745148182, 0.22222627699375153, 0.18960003554821014, 0.01873837411403656, 0.1002175509929657, 0.20716121792793274, 0.20794762670993805, 0.04520082101225853, 0.20548003911972046], [-0.1557445526123047, -0.07939565181732178, 0.02524081990122795, 0.04525424540042877, -0.0903707966208458, -0.020154614001512527, 0.009239885956048965, -0.056377191096544266, -0.0649971142411232, 0.030096013098955154, -0.12405230104923248, 0.011508670635521412, -0.014430650509893894, -0.059676408767700195, -0.08144252747297287, -0.025868333876132965, 0.0453072190284729, -0.09697060286998749, -0.06758000701665878, 0.10063587874174118, -0.10829517990350723, -0.07771527767181396, -0.13786320388317108, -0.09448809176683426, -0.061653681099414825, 0.03275752440094948, -0.02683030255138874, -0.12259087711572647, 0.09995217621326447, -0.06147215887904167, -0.07131476700305939, 0.11122601479291916, 0.042440515011548996, -0.029532691463828087, 0.04432925581932068, 0.09138783067464828, -0.05532675236463547, -0.0868358314037323, -0.08456418663263321, -0.07520726323127747, 0.052710436284542084, -0.1049150824546814, -0.10370314121246338, -0.14302271604537964, -0.19500310719013214, -0.15609507262706757, -0.005155980587005615, -0.17873218655586243, -0.10020904242992401, 0.045071184635162354, 0.0440424419939518, -0.021859822794795036, 0.12792839109897614, 0.01716909185051918, 0.02730671688914299, 0.17131705582141876, 0.18807490170001984, 0.1570865958929062, 0.2978528141975403, 0.24185200035572052], [0.15087765455245972, 0.17422530055046082, 0.047512952238321304, -0.0028950972482562065, -0.01928630657494068, 0.17316177487373352, 0.041140116751194, 0.1562049835920334, 0.00653202785179019, 0.10202656686306, 0.0829913318157196, 0.0825038030743599, 0.1737847775220871, 0.0025843949988484383, 0.09325360506772995, 0.06406112015247345, 0.042218342423439026, 0.14071257412433624, 0.18760673701763153, 0.04152103513479233, 0.029959509149193764, 0.21161776781082153, 0.07764764130115509, 0.09497741609811783, 0.2233385443687439, 0.0029685150366276503, 0.03468239679932594, 0.2148272693157196, 0.004028632305562496, 0.13744376599788666, 0.2101133018732071, 0.15943358838558197, 0.10974564403295517, 0.09695730358362198, 0.027070995420217514, 0.09256851673126221, 0.10292119532823563, 0.1976344734430313, 0.09436118602752686, 0.04211311787366867, 0.10926710814237595, 0.020653320476412773, 0.11061643809080124, 0.16214293241500854, 0.11387939006090164, 0.09425115585327148, 0.03717672824859619, 0.007631020154803991, 0.016229279339313507, 0.03918936848640442, 0.17961186170578003, 0.0688415989279747, 0.06194380298256874, -0.10072007775306702, -0.17835107445716858, -0.1500767469406128, -0.16151946783065796, 0.008119206875562668, -0.05045653134584427, -0.10887130349874496], [-0.04123875871300697, 0.03797702118754387, 0.04623187333345413, -0.04711121693253517, -0.0026791878044605255, -0.0033696433529257774, -0.015170279890298843, 0.04069995880126953, 0.17493249475955963, -0.010837760753929615, 0.07477055490016937, -0.032650772482156754, 0.1732807755470276, 0.19613739848136902, 0.03335518762469292, 0.05322151631116867, -0.024404251947999, 0.22386227548122406, 0.1115865707397461, 0.17423900961875916, 0.13907195627689362, 0.07007500529289246, 0.0477178581058979, 0.011851348914206028, 0.06400380283594131, 0.10621372610330582, 0.020534589886665344, 0.09023889154195786, 0.08562195301055908, 0.05890965089201927, 0.18351465463638306, 0.04831327497959137, 0.15138794481754303, -0.012451753951609135, 0.206978902220726, 0.14836037158966064, 0.05075027421116829, 0.17099471390247345, 0.038145437836647034, 0.17093056440353394, 0.051112230867147446, 0.15948940813541412, 0.002947249449789524, -0.06031953543424606, -0.054451894015073776, 0.020518546923995018, -0.004932909272611141, -0.005298968404531479, -0.030696328729391098, 0.009369167499244213, -0.02373766526579857, 0.03651830181479454, 0.09626178443431854, 0.1899855136871338, 0.14273139834403992, 0.218646839261055, 0.1557694375514984, 0.004419282078742981, -0.011940665543079376, -0.11309249699115753], [-0.09981441497802734, 0.04677373170852661, -0.018803291022777557, 0.10486973822116852, 0.09285026043653488, 0.11940170079469681, -0.013327950611710548, -0.04446043819189072, 0.15855547785758972, -0.06868206709623337, 0.12598460912704468, -0.07364930212497711, 0.11548235267400742, 0.1641337275505066, -0.026500467211008072, -0.013376527465879917, 0.04610089957714081, -0.004805651027709246, -0.09295442700386047, 0.1257867068052292, -0.0591115802526474, -0.011789819225668907, -0.06310714781284332, 0.11681212484836578, 0.03590744361281395, 0.006624872330576181, 0.08271651715040207, 0.07426515966653824, 0.06038382649421692, -0.04552502930164337, 0.17746856808662415, 0.156077042222023, -0.02128969505429268, 0.17788280546665192, -0.04324207082390785, -0.01575138047337532, -0.04059065878391266, 0.10371126234531403, 0.044952768832445145, 0.06480691581964493, -0.00293081090785563, 0.01933254674077034, 0.045401956886053085, 0.12830524146556854, 0.1490890383720398, 0.23589666187763214, 0.10439402610063553, 0.04828787222504616, 0.19198526442050934, 0.1433885097503662, 0.05509941279888153, 0.16909191012382507, -0.006699156481772661, 0.208296537399292, 0.1556495875120163, 0.0593227744102478, 0.2616139054298401, 0.009345038793981075, -0.04314364120364189, -0.15381331741809845], [-0.012832007370889187, 0.006410543341189623, -0.02633221447467804, -0.010750856250524521, -0.06349166482686996, 0.08323006331920624, -0.08683133125305176, 